name,1,2,3,4,5,6,7,8,9,10,11,12,13,14,15,16,17,18,19,20,21,22,23,24,25,26,27,28,29,30,31,32,33,34,35,36,37,38,39,40,41,42,43,44,45,46,47,48,49,50,51,52,53,54,55,56,57,58,59,60,61,62,63,64,65,66,67,68,69,70,71,72,73,74,75,76,77,78,79,80,81,82,83,84,85,86,87,88,89,90,91,92,93,94,95,96,97,98,99,100,101,102,103,104,105,106,107,108,109,110,111,112,113,114,115,116,117,118,119,120,121,122,123,124,125,126,127,128,result
by1,-0.124346569,0.034074858,0.086318374,-0.076911874,-0.0981161,-0.010749275,-0.058075435,-0.131122336,0.136725351,-0.182120025,0.18897,-0.140584722,-0.229306832,-0.010838964,-0.131035417,0.305530876,-0.181714237,-0.179356173,-0.013223531,0.011427185,0.079547912,0.040971436,-0.0348453,0.06916479,-0.097745821,-0.320992947,-0.110061839,-0.022669692,-0.029378917,-0.075675152,-0.063035831,0.071309857,-0.17822504,-0.011358833,0.051485192,0.131910905,0.055055581,-0.148069292,0.148642465,0.022496443,-0.302403152,0.046135809,0.143700317,0.204567656,0.100133426,0.029295379,-0.014412271,-0.156721592,0.09870895,-0.189307511,0.009059329,0.074813001,0.114862405,0.044523519,0.001108756,-0.190274164,0.057688743,0.10639222,-0.12959224,0.010613034,0.096360825,-0.083027713,0.050340869,-0.074320033,0.157389328,0.080308966,-0.066993326,-0.187026918,0.187106758,-0.129645512,-0.045298692,0.067800805,-0.122115716,-0.168580607,-0.278884023,-0.043769233,0.34104237,0.110683784,-0.157731295,0.055889074,0.02560756,0.032698236,0.107789516,0.189121544,0.035905778,0.004479437,-0.067464985,-0.010566407,0.260122687,-0.049838811,0.008070236,0.19954744,-0.005112969,0.026281308,-0.003043559,0.019837974,-0.06635996,0.067313008,-0.090607882,0.018283945,-0.02520917,0.001609731,-0.009162426,0.136646822,-0.179400444,0.061452359,-0.039819695,-0.032645427,0.006416698,0.067101501,-0.052994274,-0.042817451,0.111175857,-0.20871672,0.154842556,0.216740236,0.013663062,0.095566466,0.100059152,0.13143152,0.032282472,-0.038362861,-0.223856628,-0.050077908,0.111403093,-0.095848069,0.058737285,0.025295937,dog_girl
by2,-0.101912767,0.101597786,0.033475023,-0.130846918,-0.141829655,-0.005577832,-0.066839449,-0.069299318,0.151759833,-0.182652324,0.189428255,-0.148369193,-0.21291633,0.010595361,-0.074921116,0.250002623,-0.164706215,-0.184178367,-0.099507414,0.025618928,0.072238117,0.071218871,-0.037000492,0.06985914,-0.090240657,-0.335252523,-0.053310432,-0.025852371,-0.003678198,-0.064555161,-0.066823065,0.09970279,-0.19520627,-0.032812648,0.063129939,0.153317943,-0.00874616,-0.074367516,0.117136836,-0.014959855,-0.352957934,0.067484275,0.113874674,0.244930014,0.188535437,0.015173615,-0.04035303,-0.105138585,0.069362484,-0.207097143,0.033961926,0.126860648,0.064569935,0.081036121,0.046793364,-0.148175418,0.069166675,0.109213307,-0.113451242,-0.01440817,0.166379049,-0.085103936,0.036731627,-0.094246186,0.189524844,0.060971055,-0.095753781,-0.23369576,0.124810688,-0.159555882,-0.059125312,0.131940871,-0.145004869,-0.15535067,-0.25910309,-0.013252402,0.329532206,0.173513889,-0.1304546,0.082736373,0.043933034,0.04122987,0.132873729,0.15659453,0.030047348,0.042018846,-0.078168154,0.044437386,0.237781376,-0.041630529,-0.028360106,0.241717443,-0.014879799,0.007659828,0.011975601,0.021099655,-0.041569155,0.027483638,-0.139708474,0.015956102,0.023040993,-0.014032076,-0.04145864,0.138572767,-0.113150261,0.098732725,-0.069579884,0.086761825,-0.014313264,0.060278125,-0.043294877,-0.038003903,0.114313267,-0.189189777,0.180989921,0.163315013,0.055923875,0.034053557,0.146746546,0.063275039,0.048626527,-0.038328711,-0.246940672,-0.052727871,0.107955784,-0.06404116,0.105233908,0.037090413,dog_girl
by3,-0.05892048,0.096798502,0.032038651,-0.102585286,-0.151959822,-0.024184078,-0.106447622,-0.128065646,0.132547393,-0.153515428,0.169449776,-0.084337957,-0.231653363,-0.040526439,-0.082242049,0.240559474,-0.161984712,-0.192301288,-0.040439203,0.026915938,0.075010091,0.075260378,0.01782776,0.012832586,-0.103520982,-0.344357878,-0.080673791,-0.046315961,-0.039259363,-0.050959259,-0.006041137,0.060661692,-0.176227704,0.006452056,0.069753304,0.094745569,0.008289164,-0.083143532,0.137100741,-0.001750165,-0.35742414,0.026564924,0.105962291,0.232894689,0.175163344,-0.01108483,-0.004647378,-0.14432089,0.086989418,-0.144785717,0.018673502,0.114538394,0.038520951,0.04082701,0.033061702,-0.123028696,0.045219988,0.124473624,-0.144191474,-0.011124934,0.155188113,-0.076317616,0.004149808,-0.10712681,0.181591883,0.017211609,-0.112050936,-0.240394026,0.111302584,-0.158232942,-0.079808041,0.114831395,-0.166441903,-0.197011024,-0.293129802,-0.031016488,0.303526133,0.161014959,-0.126795486,0.076610282,0.047835246,0.039491378,0.117118321,0.17596297,0.065359555,0.079382129,-0.080719084,0.041024059,0.240927845,-0.102562234,-0.033006169,0.258448094,-0.042218514,0.050113063,-0.030655643,0.029441606,-0.056501284,0.067710511,-0.157482132,-0.001034816,0.032288972,0.030202392,0.016982928,0.126076698,-0.080437317,0.072216503,-0.035270482,0.064342551,-0.026275601,0.018390037,-0.074235789,-0.076497242,0.12420398,-0.172005802,0.209218934,0.170126796,0.095431671,0.044421729,0.157558322,0.036736656,0.031862281,-0.066192567,-0.228137985,-0.015795315,0.09764304,-0.051278453,0.109549001,0.01768782,dog_girl
by4,-0.093312256,0.055796251,-0.002799545,-0.090486303,-0.095352218,-0.022497851,-0.060060911,-0.100455709,0.119248971,-0.165631533,0.159603581,-0.159522921,-0.222498402,0.018367469,-0.061990216,0.234406143,-0.132898748,-0.149963781,-0.064666755,0.012314033,0.080595829,0.059267346,-0.06230608,0.118958928,-0.085028663,-0.301645488,-0.127687305,-0.035473529,-0.004984394,-0.052842248,-0.095734991,0.077333711,-0.167312607,-0.039354827,0.043405145,0.100631408,0.0489453,-0.071289197,0.156632408,0.020148493,-0.285553217,0.099020183,0.134427398,0.236102134,0.129352018,0.022923589,-0.001571633,-0.122202262,0.087108895,-0.151464775,0.026387282,0.113163203,0.107937314,0.06553033,0.00423567,-0.143300772,0.058648951,0.115487427,-0.16898942,0.043245986,0.130032957,-0.073104918,0.002506984,-0.079813294,0.193671897,0.088883281,-0.067127481,-0.247505248,0.160364896,-0.187997565,-0.084153436,0.07735128,-0.142541826,-0.146944553,-0.273510098,0.00479817,0.312256575,0.145541906,-0.164038032,0.155902788,0.037429556,-0.01397045,0.136372685,0.161556005,0.027444283,0.04158625,-0.047974892,0.030202664,0.25315848,-0.019736897,0.013374575,0.215025276,0.013737895,0.032334499,0.050145969,0.020005003,-0.060516704,-0.004440418,-0.114291891,0.027929712,-0.001199109,-0.026484102,-0.016928447,0.115472518,-0.157248586,0.14112106,-0.059509102,0.011602812,-0.031264592,0.078140013,-0.050159648,-0.019212207,0.12936005,-0.203848571,0.156030506,0.13327381,0.037811588,0.04608833,0.097394198,0.115019478,0.02700194,0.003489975,-0.264283866,-0.054682806,0.143295705,-0.100818336,0.105585366,0.045244165,dog_girl
by5,-0.033154313,0.109763563,0.045714963,-0.088818297,-0.155378386,0.004706176,-0.074869916,-0.111312672,0.114653297,-0.12020538,0.2014824,-0.068392664,-0.214344457,-0.066948585,-0.047568679,0.267651021,-0.245335445,-0.198715687,-0.008397395,-0.004291167,0.047710683,0.052940685,0.02223875,0.053856753,-0.14101547,-0.32388556,-0.033162378,-0.056614075,-0.011997619,-0.099800915,-0.038781013,0.021630486,-0.183594987,0.032380804,0.088964656,0.097802438,-0.016590003,-0.104382277,0.161696136,-0.000909016,-0.301143169,0.040439423,0.148278162,0.178057715,0.159085318,0.044902671,-0.009341188,-0.164107442,0.143313348,-0.164802402,0.039702043,0.13165459,0.084528327,0.022683185,0.024754912,-0.143713459,0.012536454,0.112440571,-0.136383295,0.006102531,0.123715207,-0.01924685,0.021546792,-0.118093126,0.199217647,0.020855945,-0.098571785,-0.213846445,0.143062174,-0.151480988,-0.144275069,0.097748533,-0.117340066,-0.184053913,-0.279860854,-0.052327614,0.308235526,0.136321366,-0.160083532,0.025229089,0.033431198,0.010965532,0.082830384,0.153088003,0.005232198,0.010600712,-0.100462548,-0.008151395,0.281174064,-0.076254785,-0.00827011,0.217888162,-0.00527824,0.071495928,-0.031166537,-0.010566845,-0.085853808,0.082915187,-0.14832522,-0.038872011,-0.01999934,0.014096688,-0.005976279,0.159016639,-0.140681133,0.073414572,-0.036074176,-0.006291965,-0.010660695,0.09282735,-0.109890312,-0.09990824,0.111431621,-0.208309919,0.217708081,0.200153276,0.095066011,0.038790822,0.127804652,0.086221226,0.019202124,-0.047827166,-0.216016695,-0.04784666,0.102287196,-0.108940251,0.097873718,0.016418552,dog_girl
by6,-0.082497746,0.076848276,0.027987074,-0.107206225,-0.093891427,0.010127993,-0.095503829,-0.092790082,0.140108868,-0.149586633,0.195489332,-0.103555553,-0.245851964,-0.020686263,-0.047593929,0.243550807,-0.214759916,-0.142718971,-0.007857529,0.008534319,0.071475424,0.032251403,-0.058255527,0.054071441,-0.104269974,-0.308860749,-0.102049969,-0.035691373,-0.074434713,-0.056026712,-0.058929838,0.055786002,-0.168673992,-0.016274437,0.052509405,0.129644275,-0.006795592,-0.108388573,0.120590001,-0.018040778,-0.247174442,0.069787115,0.13337189,0.204784319,0.148427621,-0.022652911,-0.009321526,-0.164545983,0.099377587,-0.165852755,0.033848807,0.121603087,0.099934518,0.067068636,0.023114793,-0.171441212,0.036042351,0.11752893,-0.166552216,0.00876223,0.138354018,-0.061877526,0.019580493,-0.125100657,0.185469374,0.113050334,-0.109471865,-0.27464205,0.114259183,-0.128957033,-0.076686352,0.083092265,-0.15276964,-0.210721582,-0.279729128,0.007167866,0.293800235,0.139111489,-0.158305824,0.088597603,0.009774117,-0.041238464,0.110497519,0.164116964,0.061129473,0.024169639,-0.070567913,0.050518733,0.239965856,-0.055656992,-0.019450719,0.188535571,-0.02864879,0.036556087,0.004285556,0.012511965,-0.088204965,0.070037387,-0.161516964,0.014569263,-0.051560994,-0.025966711,-0.022318272,0.111724302,-0.091980852,0.107543804,-0.020523861,0.003572032,-0.059063859,0.00660596,-0.105607532,-0.008535256,0.148086995,-0.227613002,0.197858796,0.114282921,0.093984894,0.088739991,0.122688279,0.107907534,0.011554863,-0.041122653,-0.256258845,0.004420646,0.090007566,-0.054575101,0.123745888,0.028072987,dog_girl
by7,-0.116633892,0.05826693,0.021221217,-0.13253215,-0.085015647,-0.007465782,-0.078757316,-0.0922741,0.123042509,-0.178311765,0.183307067,-0.133315548,-0.203675315,-0.017020117,-0.069074892,0.229656309,-0.181259841,-0.148999646,-0.022535315,0.006675022,0.074012272,0.033951402,-0.089666903,0.056991454,-0.09109506,-0.298295975,-0.115118206,-0.020719724,-0.03884485,-0.056364048,-0.057969783,0.045009904,-0.179059267,-0.008882539,0.055871677,0.144177809,-0.012287803,-0.101543412,0.125694096,-0.000503453,-0.240472764,0.078957573,0.134959593,0.208144024,0.138217434,0.011551387,-0.015799496,-0.148121059,0.108764403,-0.162297964,0.035974167,0.12049374,0.09346962,0.082858272,0.02601124,-0.129518345,0.044526659,0.13153851,-0.163440064,0.025260156,0.142179638,-0.051480655,-0.023553986,-0.118562706,0.18294701,0.126786143,-0.112776518,-0.267067432,0.15951708,-0.156035051,-0.083297782,0.090341464,-0.119331174,-0.18436867,-0.220548227,0.032716572,0.286550403,0.165383458,-0.149063498,0.076172993,0.032480396,-0.020474751,0.12706852,0.146658942,0.036402587,0.023338344,-0.038041979,0.020491466,0.2524212,-0.010445975,-0.012095984,0.187232226,-0.013791001,0.016209729,0.010133235,0.002748723,-0.070172518,0.033972722,-0.140300557,-0.008736225,-0.001566646,-0.037990466,-0.034824841,0.131183237,-0.105171949,0.146147028,-0.055077057,0.009421954,-0.039066296,0.031644236,-0.072710685,0.008272989,0.121440902,-0.211332873,0.191916823,0.1172814,0.076517992,0.065111704,0.128284216,0.109272391,0.033446029,-0.035003312,-0.254460722,-0.056199178,0.093917333,-0.055541165,0.120438211,0.007224315,dog_girl
by8,-0.089420013,0.053489871,0.034728386,-0.085305713,-0.129939541,-0.031235337,-0.04803025,-0.127768815,0.126740426,-0.170716628,0.19756496,-0.129230946,-0.247299224,-0.033597436,-0.095132686,0.268535018,-0.195995376,-0.143427074,-0.034335505,0.020011555,0.090419352,0.032210946,-0.064536907,0.065407023,-0.101625994,-0.316794723,-0.096347913,-0.012687157,-0.052795544,-0.066195622,-0.045944519,0.065367483,-0.177809462,-0.026739331,0.052478522,0.103096478,0.022993986,-0.145515174,0.142319694,0.013580711,-0.291397661,0.042857077,0.152282909,0.188351065,0.123209022,0.018918151,0.003190378,-0.161194235,0.127306283,-0.16337724,-0.014079345,0.088559829,0.074698813,0.036854967,-0.002915287,-0.171635613,0.041630208,0.146058589,-0.17220363,-0.006305297,0.151705354,-0.070631646,-0.006984007,-0.109192781,0.167245701,0.103701547,-0.0920408,-0.214169607,0.202761903,-0.165937975,-0.090911552,0.052242849,-0.122519948,-0.168724328,-0.286474019,-0.038880609,0.35813728,0.145326704,-0.141983807,0.009917166,0.025890831,0.024645694,0.137129128,0.154656768,0.029109731,-0.009180914,-0.067868061,0.003259836,0.27125746,0.007423037,-0.00771529,0.18979308,0.01441023,0.01156459,0.000483795,-0.006566565,-0.08500848,0.047769994,-0.132210091,0.021582037,-0.036649778,-0.037727199,-0.004759872,0.167521566,-0.133137777,0.105207391,-0.036624242,-0.010832667,-0.021883052,0.048293829,-0.077012472,-0.001416099,0.105060399,-0.180602551,0.170009241,0.151721388,0.080648385,0.069629721,0.103555195,0.11687874,-0.000505872,-0.052334055,-0.273832202,-0.072584063,0.094459429,-0.100130633,0.134379148,0.001104079,dog_girl
by9,-0.17297937,0.087353729,0.026252016,-0.106583215,-0.111022726,-0.015978191,-0.067851841,-0.091576442,0.122404881,-0.084548548,0.20873639,-0.100892454,-0.249236912,-0.069127567,-0.119310342,0.244892776,-0.213051796,-0.182614207,-0.013831298,0.025247965,0.130672351,0.015954074,-0.040098246,0.051721368,-0.142030358,-0.344409078,-0.080940835,-0.020818312,-0.041417334,-0.058447085,-0.013126873,-0.009693434,-0.223936483,-0.012068942,0.065704919,0.126914576,0.000406202,-0.128394753,0.122764386,-0.016033923,-0.296948522,0.025032552,0.157264888,0.19907096,0.159106106,0.056323018,-0.006594058,-0.163479254,0.095711492,-0.170963004,0.004515694,0.146270648,0.034115911,0.065454647,-0.019314144,-0.145567879,0.024042971,0.160803303,-0.152616873,-0.031176772,0.097658411,-0.0575829,-0.028811071,-0.152828604,0.180514663,0.07991574,-0.151710272,-0.244898453,0.144386217,-0.165185377,-0.086731523,0.084803045,-0.114576958,-0.196276352,-0.293098658,0.004266645,0.332982868,0.102723762,-0.123597942,0.056324281,0.013696535,0.031308204,0.078997388,0.152135834,0.015387809,0.039532386,-0.073366918,-0.017676458,0.276217103,-0.024154315,-0.000142542,0.187198922,-0.026329186,0.023859859,0.004767175,0.058854997,-0.079532981,0.069302246,-0.102328576,0.013932727,0.00616357,-0.03816352,-0.011090865,0.113129146,-0.125495881,0.089244723,-0.0169762,0.021125395,-0.020260796,-0.001697899,-0.085853301,-0.032061815,0.104283243,-0.23303023,0.255564302,0.186548531,0.094449498,0.095391184,0.161872372,0.091689035,0.007212047,-0.017763976,-0.216963708,-0.056472935,0.088437662,-0.093501493,0.128558949,-0.015126633,dog_girl
by10,-0.049448352,0.051303096,0.033726819,-0.084721074,-0.10817758,-0.013647097,-0.062931091,-0.136649072,0.139652476,-0.178938076,0.182765469,-0.111011654,-0.242551103,-0.032324422,-0.095258869,0.240286723,-0.154188946,-0.183384851,-0.063377731,0.020880282,0.08827053,0.09052372,-0.041283868,0.059895579,-0.119061895,-0.305647463,-0.087834194,-0.010438261,-0.035737768,-0.042822372,-0.061351452,0.074742414,-0.194030643,-0.003370592,0.086108193,0.142598063,0.029292345,-0.118898526,0.104335062,0.039134182,-0.292410374,0.076034464,0.092321791,0.217231691,0.130019069,0.02569771,0.004284689,-0.18532531,0.103362747,-0.154726133,-0.005430032,0.130591199,0.052212045,0.043358482,0.009637522,-0.169448301,0.059934005,0.09447366,-0.152295947,-0.011984449,0.140907183,-0.068274468,-0.013316223,-0.1211292,0.13914068,0.044471096,-0.078625895,-0.260949075,0.151003033,-0.211091533,-0.111392818,0.067798465,-0.154177427,-0.177239552,-0.303646266,-0.022096135,0.308264494,0.192190051,-0.154313639,0.113763809,0.071291551,0.07820449,0.131736085,0.177421644,0.032675955,0.100027762,-0.080580615,0.025063731,0.249401748,-0.048213158,-0.019582441,0.233633161,-0.010332474,0.030626774,0.032759335,-0.039231401,-0.054175004,0.039419513,-0.147468865,0.00774493,0.013815592,0.021986751,0.019620527,0.136215031,-0.108141035,0.102037601,-0.080315404,0.001630365,-0.017019931,0.031060068,-0.09031684,-0.043925636,0.119412169,-0.189745247,0.174637184,0.171351358,0.102484137,0.059708692,0.146720067,0.107061237,0.011277585,-0.000622956,-0.244888037,-0.068300538,0.101040974,-0.078740738,0.116213605,-0.00450464,dog_girl
by11,-0.077909775,0.131035298,0.061048873,-0.098315604,-0.126811475,0.00715371,-0.069992632,-0.1174182,0.095588587,-0.195268124,0.202192664,-0.133657694,-0.226656809,-0.015469827,-0.06615001,0.250750661,-0.202672228,-0.165234342,-0.032877602,0.032359928,0.066867813,0.068922952,-0.010470454,0.078979015,-0.073727518,-0.331981182,-0.112742402,-0.045602806,-0.011932097,-0.04603355,-0.060981557,0.0221547,-0.161434874,-0.03264498,0.035128687,0.100266457,-0.025543857,-0.093869284,0.147603303,-0.037031479,-0.278964221,0.086348861,0.152636304,0.23807393,0.154507726,0.075932659,-0.012096504,-0.145526588,0.092397228,-0.179529741,0.039300419,0.090872236,0.062380869,0.078699455,0.030965995,-0.169994906,0.048221499,0.13437061,-0.13508971,-0.001057541,0.123348817,-0.046203181,0.063997135,-0.118091241,0.254387647,0.069356874,-0.088041633,-0.222797304,0.148431972,-0.17014724,-0.105404034,0.10257519,-0.134713411,-0.122215994,-0.27720052,-0.019760059,0.295555115,0.157120481,-0.097520731,0.059026949,0.03530331,0.016319655,0.09833616,0.150270045,0.002859633,0.00357789,-0.075984329,0.009291535,0.240971088,-0.041279752,-0.009130117,0.220447674,-0.005337434,0.032142147,0.020983391,0.003153193,-0.101033062,0.043784257,-0.154681221,0.012983007,-0.013308362,-0.011945625,-0.019955957,0.166648716,-0.147940874,0.11337135,-0.091383949,0.024606172,-0.021486565,0.049849328,-0.078723982,-0.008367497,0.141244873,-0.206958041,0.17691718,0.151905715,0.057047948,0.055414036,0.139737234,0.097533889,-0.023485713,-0.036910128,-0.298799783,-0.04555605,0.154601201,-0.107903853,0.145180285,0.039254427,dog_girl
by12,-0.131473958,0.0790428,0.018693835,-0.088344142,-0.137589276,-0.030109962,-0.043027475,-0.097616352,0.061430734,-0.114748523,0.19547838,-0.134537831,-0.219571218,-0.05056192,-0.096308492,0.251685381,-0.188973218,-0.20418787,-0.061583146,-0.008641065,0.096787706,0.062088553,-0.048495844,0.076542415,-0.157925993,-0.352214754,-0.103310488,-0.061836056,-0.025018353,-0.019268954,-0.029302284,0.059759937,-0.203469977,-0.006778862,0.083264895,0.087527007,0.040386572,-0.073474653,0.168648466,0.005861629,-0.321871847,0.100546971,0.195956677,0.252653241,0.153369188,0.027170725,0.032068778,-0.092353426,0.093458213,-0.141829073,0.019267324,0.1426135,0.110313155,0.04203273,0.007673134,-0.093386836,0.035634495,0.137150347,-0.189164698,-0.008817188,0.146411926,-0.089716762,-0.006765885,-0.110016994,0.174372345,0.068334855,-0.089838572,-0.260847181,0.166064143,-0.212564602,-0.096470349,0.087993383,-0.138293982,-0.135430485,-0.309868038,-0.012605751,0.320692778,0.151288554,-0.114682339,0.126808926,0.037375391,0.029371347,0.117034748,0.142714247,0.016001144,0.057277441,-0.081504241,0.03780761,0.272594124,-0.024926292,0.00733039,0.201337159,0.01180477,-0.006874728,0.029377967,0.013676262,-0.081444651,0.004423904,-0.08662273,0.047045521,-0.039910547,0.010108005,0.008978491,0.106622182,-0.123245493,0.092045039,-0.090281673,0.019225497,-0.091781549,0.038009886,-0.04002038,-0.021041309,0.074501634,-0.204567418,0.169112712,0.138043568,0.012343986,0.044654503,0.135313809,0.051325463,-0.012755794,-0.03422381,-0.25639379,-0.084971189,0.135056496,-0.117591828,0.167277619,0.011388611,dog_girl
by13,-0.060994208,0.071554482,0.001727324,-0.090471983,-0.121569611,-0.008368067,-0.083960384,-0.088225633,0.123048291,-0.153835669,0.148680925,-0.06600567,-0.194598913,-0.0540636,-0.072431669,0.248959169,-0.161828101,-0.197564319,-0.088270754,0.032132737,0.099002607,0.083153151,-0.057838824,0.07960137,-0.092333503,-0.287989765,-0.086707488,-0.033718877,-0.052696586,-0.031938907,-0.063881122,0.022563349,-0.173678488,-0.03320016,0.094505936,0.093323693,0.035273939,-0.085530505,0.159065753,0.065252557,-0.30204618,0.134466648,0.098565198,0.238218412,0.161311954,0.038327426,0.005378902,-0.159836218,0.14948459,-0.197963819,0.04011713,0.149420768,0.090310782,0.062873498,0.022709057,-0.152295589,0.049704254,0.116547912,-0.107767619,-2.82482E-05,0.107937254,-0.072762169,0.008865191,-0.126272783,0.18715927,0.030334607,-0.102635197,-0.260211945,0.107808508,-0.138393179,-0.142329603,0.084051624,-0.168763459,-0.139595032,-0.328447729,0.02367446,0.34122023,0.176442012,-0.194325939,0.097565606,-0.021440487,0.062279839,0.09507899,0.14971894,0.043804862,0.040946204,-0.080986477,-0.005662644,0.274698257,-0.056898527,-0.028339332,0.226377606,0.02082058,0.069077052,-0.004562355,-0.013769904,-0.053730402,0.006658544,-0.128774345,-0.012551744,0.022233792,0.044426344,0.010183984,0.143154442,-0.156436935,0.107562907,-0.070655167,0.018314393,-0.036701396,0.058089398,-0.102797396,-0.018439358,0.107283875,-0.178885967,0.215332955,0.164262086,0.10947305,0.036060888,0.169134602,0.062639177,-0.017896663,-0.011810305,-0.234528512,-0.073840715,0.13892968,-0.030757383,0.126208961,0.028663222,dog_girl
by14,-0.099643409,0.08270558,0.0378206,-0.113499276,-0.137643889,0.018217728,-0.07680694,-0.098407,0.127670869,-0.170937181,0.186716169,-0.13706696,-0.224591658,0.011412065,-0.076819599,0.261695027,-0.227047265,-0.156906709,-0.01207834,0.017570883,0.087381192,0.042465862,-0.062271621,0.060819801,-0.131522626,-0.332667053,-0.084154479,-0.032843888,-0.028746841,-0.076477185,-0.034968823,0.065918177,-0.153999314,0.002014339,0.034148347,0.101144031,0.046943054,-0.108732916,0.154756084,0.05676952,-0.310619801,0.05778493,0.120314956,0.201380432,0.133132115,0.017303845,-0.0198546,-0.132736117,0.096355259,-0.158239841,-0.018910589,0.108620018,0.060045864,0.05439204,0.015949262,-0.123205476,0.055008791,0.123024128,-0.161618292,-0.005206384,0.131245226,-0.0762408,0.045669172,-0.083027303,0.184960544,0.086025782,-0.057247475,-0.232985914,0.159668982,-0.124516122,-0.133694515,0.087654576,-0.10494595,-0.136535898,-0.25719437,-0.031192468,0.326544434,0.136973113,-0.160170645,0.049139,0.018778946,-0.026447305,0.154974073,0.150950521,0.034361824,-0.00547989,-0.053766303,-0.015644845,0.258389771,-0.003279807,-0.000280989,0.215966046,-0.003949996,0.026005596,0.026448958,0.024019206,-0.100118823,0.064133272,-0.099354662,-0.047508653,0.028391842,-0.023184318,0.005181067,0.16692996,-0.168324307,0.1030313,-0.062760726,0.004721033,0.011982877,0.088212095,-0.04629387,-0.017460225,0.131518379,-0.210424989,0.153247148,0.16919072,0.015794167,0.039849218,0.125738591,0.101170309,-0.012641462,-0.027920362,-0.246065602,-0.060180876,0.102343634,-0.078390121,0.105254091,0.010163669,dog_girl
by15,-0.067660362,0.06583184,0.005909227,-0.098340541,-0.133072719,-0.018365644,-0.099337749,-0.109849498,0.137951314,-0.13966237,0.171420619,-0.097060449,-0.239014193,-0.028147094,-0.101680122,0.225283459,-0.139573336,-0.176280111,-0.066934057,0.039064515,0.078473799,0.08069665,-0.064994924,0.035130322,-0.0793816,-0.319143713,-0.083174244,0.006963442,-0.030551944,-0.032982633,-0.025564173,0.078414775,-0.163601518,-0.011584792,0.11803706,0.134791926,0.038704734,-0.085573018,0.094553053,-0.006251557,-0.294259697,0.056278028,0.139377967,0.215411127,0.154340386,-0.002153195,0.007009933,-0.193274781,0.060413659,-0.170911849,7.20825E-05,0.141798869,0.071434945,0.046645414,0.04479026,-0.145409465,0.039385192,0.126915902,-0.126433119,-0.006807285,0.185550094,-0.040542319,-0.036675252,-0.142111719,0.169843197,0.024815895,-0.141259909,-0.242864013,0.127007291,-0.168692082,-0.086956516,0.071504898,-0.139101028,-0.187505424,-0.292459935,0.005385688,0.331962377,0.200022221,-0.159984261,0.103543706,0.020413671,0.073268168,0.102339216,0.108789444,0.017870625,0.040291991,-0.075397126,0.035361417,0.241944373,-0.028409779,0.011876177,0.199317798,-0.009746259,0.025424343,-0.008841227,0.011901465,-0.046369497,0.017868988,-0.166045666,0.012882995,0.001361939,-0.001575123,0.038290821,0.142317146,-0.094210051,0.086376727,-0.040596157,0.016686173,0.003949465,0.049660593,-0.086104155,-0.040593036,0.129413918,-0.190961674,0.188973784,0.13057217,0.133631676,0.052330617,0.164384425,0.102375127,0.013979605,-0.042528793,-0.204291239,-0.057642553,0.060632393,-0.073719531,0.104207434,0.005322799,dog_girl
by16,-0.081724674,0.047898777,0.047110587,-0.127592385,-0.112811573,-0.002732918,-0.026672127,-0.06038142,0.124154709,-0.139993846,0.251202196,-0.146092236,-0.245516986,-0.037136972,-0.115182422,0.239422321,-0.198988318,-0.164684296,-0.065035626,0.055801809,0.098266281,0.064984649,-0.065536737,0.054779813,-0.091468923,-0.355654776,-0.07634031,-0.045829747,-0.01922439,-0.057797894,0.018466869,0.020512756,-0.178558812,-0.021841442,0.071298078,0.079344831,0.0172117,-0.113322914,0.152097061,0.028880468,-0.334300131,0.051878463,0.134809911,0.244514257,0.114047617,0.062563121,-0.03222489,-0.158690587,0.107278049,-0.189705774,-0.019953307,0.126712367,0.085085362,0.056013115,0.013065958,-0.1648314,0.070172228,0.129768848,-0.163081631,-0.033474479,0.065600961,-0.049668688,0.053087432,-0.099640138,0.201516137,0.001283323,-0.123545319,-0.202301949,0.136025295,-0.147587165,-0.077930391,0.094007239,-0.138743594,-0.16323036,-0.302258909,-0.028892098,0.33690092,0.113668233,-0.146382794,0.083905049,-0.014499066,0.043988239,0.103073582,0.174572736,0.023608537,0.058360286,-0.074215315,-0.02093146,0.228400663,-0.079069249,0.011231286,0.233375922,-0.026370814,0.036548711,0.004752099,-0.012459834,-0.090151347,0.054103546,-0.102289431,-0.00316049,0.023106828,0.020715477,0.025918821,0.12711826,-0.187684998,0.077527873,-0.028199278,0.007917617,0.022262979,0.03616368,-0.036545023,-0.058133315,0.118800387,-0.230133697,0.194044217,0.186953336,0.078542411,0.074000195,0.169827849,0.038288109,-0.009677974,-0.030278528,-0.238600463,-0.030662816,0.094658166,-0.07257393,0.105553798,-0.024678528,dog_girl
by17,-0.124346569,0.034074858,0.086318374,-0.076911874,-0.0981161,-0.010749275,-0.058075435,-0.131122336,0.136725351,-0.182120025,0.18897,-0.140584722,-0.229306832,-0.010838964,-0.131035417,0.305530876,-0.181714237,-0.179356173,-0.013223531,0.011427185,0.079547912,0.040971436,-0.0348453,0.06916479,-0.097745821,-0.320992947,-0.110061839,-0.022669692,-0.029378917,-0.075675152,-0.063035831,0.071309857,-0.17822504,-0.011358833,0.051485192,0.131910905,0.055055581,-0.148069292,0.148642465,0.022496443,-0.302403152,0.046135809,0.143700317,0.204567656,0.100133426,0.029295379,-0.014412271,-0.156721592,0.09870895,-0.189307511,0.009059329,0.074813001,0.114862405,0.044523519,0.001108756,-0.190274164,0.057688743,0.10639222,-0.12959224,0.010613034,0.096360825,-0.083027713,0.050340869,-0.074320033,0.157389328,0.080308966,-0.066993326,-0.187026918,0.187106758,-0.129645512,-0.045298692,0.067800805,-0.122115716,-0.168580607,-0.278884023,-0.043769233,0.34104237,0.110683784,-0.157731295,0.055889074,0.02560756,0.032698236,0.107789516,0.189121544,0.035905778,0.004479437,-0.067464985,-0.010566407,0.260122687,-0.049838811,0.008070236,0.19954744,-0.005112969,0.026281308,-0.003043559,0.019837974,-0.06635996,0.067313008,-0.090607882,0.018283945,-0.02520917,0.001609731,-0.009162426,0.136646822,-0.179400444,0.061452359,-0.039819695,-0.032645427,0.006416698,0.067101501,-0.052994274,-0.042817451,0.111175857,-0.20871672,0.154842556,0.216740236,0.013663062,0.095566466,0.100059152,0.13143152,0.032282472,-0.038362861,-0.223856628,-0.050077908,0.111403093,-0.095848069,0.058737285,0.025295937,dog_girl
by18,-0.112207122,0.124892339,-0.005064458,-0.084915176,-0.082151182,-0.002014586,-0.053442799,-0.092174299,0.124716379,-0.139639765,0.210706517,-0.120761156,-0.241852969,-0.061788697,-0.104187258,0.239783302,-0.176553011,-0.158436656,-0.053007845,0.018035056,0.098123476,0.040813137,-0.058212604,0.068505153,-0.108233206,-0.318126231,-0.074940853,-0.044188485,-0.009046053,-0.054342039,-0.052880384,0.045012284,-0.18516086,-0.043133929,0.051969111,0.106228195,-0.011271392,-0.056788675,0.160637274,0.011682421,-0.287117094,0.086367749,0.122479625,0.294936091,0.185375541,0.015754376,0.013243319,-0.161528543,0.101709932,-0.153095022,0.011494923,0.140116513,0.088902913,0.065240271,0.010250961,-0.132780537,0.034674298,0.1329007,-0.149870738,-0.000305334,0.151942581,-0.064642191,-0.007572776,-0.098076388,0.190190405,0.032309249,-0.129931599,-0.232501715,0.142614469,-0.184023634,-0.071917206,0.091072232,-0.11062064,-0.179694667,-0.297127277,0.009915738,0.338098556,0.172719046,-0.145550698,0.128506497,0.009848783,0.010313827,0.165590614,0.175295785,0.01950361,0.05582824,-0.068808652,0.008225772,0.240846589,-0.01975704,-0.015156339,0.20427531,0.003203479,0.004521403,0.035916667,0.015382007,-0.089355841,0.025088185,-0.137422234,-0.000612115,-0.022211812,-0.04339774,-0.002880258,0.099319026,-0.12793231,0.143198743,-0.026852254,0.0659272,-0.026612112,0.022475459,-0.068435937,-0.003051252,0.117793247,-0.225853428,0.184499159,0.126734868,0.070889011,0.071052894,0.194067419,0.081865437,0.009741379,-0.025524624,-0.247829586,-0.056693275,0.103175379,-0.073556021,0.178115547,-0.00167566,dog_girl
by19,-0.05892048,0.096798502,0.032038651,-0.102585286,-0.151959822,-0.024184078,-0.106447622,-0.128065646,0.132547393,-0.153515428,0.169449776,-0.084337957,-0.231653363,-0.040526439,-0.082242049,0.240559474,-0.161984712,-0.192301288,-0.040439203,0.026915938,0.075010091,0.075260378,0.01782776,0.012832586,-0.103520982,-0.344357878,-0.080673791,-0.046315961,-0.039259363,-0.050959259,-0.006041137,0.060661692,-0.176227704,0.006452056,0.069753304,0.094745569,0.008289164,-0.083143532,0.137100741,-0.001750165,-0.35742414,0.026564924,0.105962291,0.232894689,0.175163344,-0.01108483,-0.004647378,-0.14432089,0.086989418,-0.144785717,0.018673502,0.114538394,0.038520951,0.04082701,0.033061702,-0.123028696,0.045219988,0.124473624,-0.144191474,-0.011124934,0.155188113,-0.076317616,0.004149808,-0.10712681,0.181591883,0.017211609,-0.112050936,-0.240394026,0.111302584,-0.158232942,-0.079808041,0.114831395,-0.166441903,-0.197011024,-0.293129802,-0.031016488,0.303526133,0.161014959,-0.126795486,0.076610282,0.047835246,0.039491378,0.117118321,0.17596297,0.065359555,0.079382129,-0.080719084,0.041024059,0.240927845,-0.102562234,-0.033006169,0.258448094,-0.042218514,0.050113063,-0.030655643,0.029441606,-0.056501284,0.067710511,-0.157482132,-0.001034816,0.032288972,0.030202392,0.016982928,0.126076698,-0.080437317,0.072216503,-0.035270482,0.064342551,-0.026275601,0.018390037,-0.074235789,-0.076497242,0.12420398,-0.172005802,0.209218934,0.170126796,0.095431671,0.044421729,0.157558322,0.036736656,0.031862281,-0.066192567,-0.228137985,-0.015795315,0.09764304,-0.051278453,0.109549001,0.01768782,dog_girl
by20,-0.07849858,0.068723015,0.030190481,-0.115317211,-0.119206481,-0.029646622,-0.111774206,-0.099777721,0.108022101,-0.170508713,0.187974408,-0.118868113,-0.191920668,-0.035572004,-0.081133679,0.243226022,-0.187103778,-0.175273925,-0.016141925,0.056895386,0.084894061,0.01686129,-0.019493297,0.05922414,-0.121422671,-0.328998685,-0.087195836,-0.027115796,-0.015629413,-0.038112104,-0.032345913,0.019376658,-0.173759669,0.011987923,0.054949578,0.11435236,0.013008411,-0.128237337,0.156077862,0.011587306,-0.328881234,0.034464866,0.11333888,0.210649431,0.157196805,0.017071806,0.026476568,-0.182198122,0.116992682,-0.144937977,-0.004907526,0.117332064,0.052802198,0.039838597,0.026498234,-0.122809261,0.077981114,0.135944456,-0.153622851,-0.002613232,0.120704554,-0.009687192,0.018183302,-0.123715885,0.201798066,0.066656552,-0.12338838,-0.226640075,0.154175043,-0.155246437,-0.105081774,0.092835084,-0.119720198,-0.189471662,-0.287005067,-0.062215932,0.32401672,0.16676113,-0.166055381,0.073009662,0.040476136,0.00717542,0.147670627,0.197171018,0.019366076,0.056901094,-0.070537977,-0.00550933,0.262272924,-0.039928317,-0.004026762,0.197235391,-0.00683075,0.033768393,0.002940085,0.039425012,-0.101690061,0.073391929,-0.134945408,-0.017059831,0.034501705,0.000508814,0.012870966,0.148447409,-0.123839773,0.114625365,-0.040350523,0.025932873,0.003718248,0.063700184,-0.062095463,-0.043112643,0.100980453,-0.187798947,0.167533427,0.15762192,0.074924901,0.054082107,0.173957214,0.101589687,0.002888009,-0.029501341,-0.23743917,-0.046944905,0.05765776,-0.067981437,0.142031759,0.006316704,dog_girl
by21,-0.106604852,0.071400367,0.042817578,-0.099478088,-0.1323466,-0.037242312,-0.072047554,-0.068592973,0.116922632,-0.188854933,0.160528839,-0.132564381,-0.189099029,0.000115922,-0.054720674,0.29006663,-0.2025197,-0.152725697,-0.060092863,0.031257834,0.103251822,0.071342207,-0.069198579,0.089392103,-0.088688128,-0.32090494,-0.095108584,-0.007753306,-0.042439707,-0.045597833,-0.074457988,0.037229687,-0.137092367,-0.017366815,0.064185761,0.112909153,0.021117847,-0.108044602,0.14077343,0.040983506,-0.31115216,0.090148829,0.11868716,0.210455939,0.184007972,0.020274166,0.012680268,-0.145716861,0.130848959,-0.207499579,0.001803756,0.116510615,0.097972021,0.057254814,0.012938642,-0.166717157,0.052081306,0.141944587,-0.159313455,-0.03355379,0.116567917,-0.049050003,0.030263498,-0.071031734,0.197900236,0.093030609,-0.105494916,-0.261102587,0.154157639,-0.150837719,-0.105303854,0.052445788,-0.15758045,-0.149820477,-0.307727158,-0.011384325,0.344744086,0.124071948,-0.161973119,0.086633503,-0.007357793,0.025282759,0.093684576,0.166606992,0.013435069,-0.007439366,-0.073099993,-0.005474057,0.227603137,-0.03963894,-0.002784115,0.185818627,0.030258559,0.027142417,0.014896162,0.010498289,-0.097281806,0.034986254,-0.104318582,-0.013716156,-0.015788661,-0.010249412,-0.008270439,0.178096101,-0.177834094,0.163017169,-0.084379226,0.009092615,-0.037053611,0.069032393,-0.06404829,-0.008730106,0.09997683,-0.173097819,0.140320882,0.174295932,0.047465343,0.074984491,0.126128331,0.107767478,-0.003429015,0.022391032,-0.261012346,-0.037922841,0.103169225,-0.067844346,0.100070193,0.037934441,dog_girl
by22,-0.104516529,0.056650478,0.00757043,-0.123332769,-0.121634535,-0.018054683,-0.057373866,-0.132828131,0.11548648,-0.174439132,0.186503604,-0.088471211,-0.196056202,-0.023885323,-0.077229202,0.266071588,-0.210579216,-0.17479603,-0.02106094,0.02498953,0.107544258,0.059359677,-0.033253271,0.10684292,-0.111547329,-0.295498461,-0.106297925,-0.032537453,-0.010240703,-0.051494367,-0.05938378,0.019393675,-0.177132651,0.020429632,0.06394767,0.081468582,0.022824388,-0.127456695,0.152975038,0.030236242,-0.316344559,0.089272216,0.129980609,0.176505074,0.178419784,0.03052729,-0.013828261,-0.169258431,0.123814747,-0.188259259,0.034494802,0.099451631,0.044460092,0.053349182,-0.028148541,-0.150136277,0.048683356,0.128422782,-0.16548267,-0.020012252,0.131565601,-0.069093041,0.011373854,-0.083004043,0.147986546,0.104167119,-0.07913924,-0.258469462,0.174272507,-0.198874116,-0.11627543,0.087862015,-0.128697366,-0.157141924,-0.256411463,-0.023526151,0.311694801,0.170710593,-0.126172051,0.062486798,0.018609745,0.048579659,0.130383089,0.131122664,0.03550142,-0.031722374,-0.070269562,-0.010327979,0.279935271,-0.013698364,-0.001096801,0.239255354,0.019621583,0.034553699,0.024871917,0.038500272,-0.061039619,0.04691384,-0.10744679,0.001455122,-0.029229697,0.01629596,0.002511963,0.17629762,-0.170450047,0.146561861,-0.078787327,-0.000311503,-0.013303438,0.051699307,-0.048931722,-0.015771162,0.08039064,-0.17343913,0.196068376,0.174463585,0.092910901,0.057509895,0.10336069,0.091396332,-0.009090842,-0.051108204,-0.282611251,-0.047214866,0.124980204,-0.103447825,0.11255981,0.014216557,dog_girl
by23,-0.103090972,0.109962612,-0.006818782,-0.080651872,-0.155349508,-0.022301765,-0.10981217,-0.109175988,0.069012448,-0.155016586,0.138560444,-0.116298974,-0.196130589,-0.025109511,-0.072075896,0.232264891,-0.171746746,-0.205799073,-0.042841412,0.004255741,0.063770793,0.084608138,-0.027546527,0.069303207,-0.13443768,-0.30888164,-0.06959635,-0.044460423,-0.028051753,-0.014460419,-0.028454773,0.032450009,-0.177270994,0.006253609,0.115856327,0.12820974,0.046559691,-0.091171406,0.157962486,0.02163418,-0.306934953,0.048560176,0.121605851,0.246299416,0.13744089,-0.000195133,-0.001942266,-0.139503047,0.126636624,-0.135257453,0.033233535,0.145674109,0.079625659,0.042986609,0.022943765,-0.134120464,0.055551797,0.147028923,-0.13711606,-0.036040377,0.111206569,-0.00690535,0.009079535,-0.149267957,0.178978264,0.04619728,-0.099471934,-0.261701643,0.143683493,-0.160752133,-0.11739023,0.096558124,-0.156388536,-0.155005962,-0.301933885,-0.01927492,0.300000548,0.171314463,-0.14013198,0.065380953,0.056478698,0.019344367,0.089308254,0.154252112,0.017109027,0.040023059,-0.034746286,0.019706231,0.266067564,-0.039477132,-0.04191567,0.182117119,-0.011101058,0.024362065,-0.00068882,-0.000207398,-0.068756223,0.037504487,-0.115589991,0.015949808,0.000583731,-0.007557003,-0.00242321,0.176481694,-0.155737311,0.086244926,-0.063553415,0.01258807,-0.046074636,0.079324558,-0.093086764,-0.039423391,0.122473717,-0.18525371,0.199356705,0.175924644,0.073178761,0.045859531,0.146211341,0.052270729,0.018468035,-0.009326429,-0.243603662,-0.089223161,0.107144855,-0.087611228,0.093716845,0.017360238,dog_girl
by24,-0.072763808,0.11024119,0.012269202,-0.109729365,-0.182977036,0.022569407,-0.053707343,-0.069970571,0.120519675,-0.146218687,0.136266351,-0.12174166,-0.244405627,-0.004100733,-0.064086862,0.25657329,-0.177494958,-0.209878862,-0.04100512,-0.00055803,0.076266468,0.105726235,-0.055494968,0.074581504,-0.120533563,-0.338687122,-0.051422667,-0.034814443,-0.032564253,-0.08697883,-0.030703537,0.050196946,-0.162372082,-0.005713223,0.073467389,0.10198985,-0.002933862,-0.102228433,0.139891386,0.011070276,-0.34404397,0.069110401,0.131064355,0.240498617,0.15626809,-0.003181866,-0.007513275,-0.138695121,0.087495409,-0.166549399,-0.026805744,0.129621491,0.046058606,0.051632524,0.012451602,-0.143937185,0.019116506,0.105228558,-0.107800022,-0.04233193,0.109799854,-0.04048802,0.046884827,-0.126382887,0.190179154,-0.002535725,-0.086132593,-0.233331904,0.116738729,-0.180946782,-0.128203779,0.105116569,-0.129625559,-0.136787638,-0.278314352,-0.039330751,0.330261022,0.137577146,-0.135297701,0.07689859,0.033537243,0.03183471,0.103502445,0.153559908,0.007901622,0.055067714,-0.064584322,0.044064645,0.278380156,-0.053617194,-0.015070116,0.201751739,0.013748474,0.065306522,0.024265662,0.019818792,-0.065009862,0.045694314,-0.11768458,0.003047475,0.015966237,-0.015049296,0.013956863,0.180874631,-0.150711045,0.125196874,-0.048852693,0.032864127,-0.030892204,0.099535026,-0.063590117,-0.026405744,0.140292034,-0.184139878,0.168566197,0.183621153,0.040192083,0.033463895,0.136309683,0.049008191,-0.023321144,-0.030837359,-0.252774686,-0.043594986,0.119316213,-0.091158256,0.122771651,0.017781589,dog_girl
by25,-0.090895206,0.076545306,0.008396058,-0.116576336,-0.139751643,-0.004113675,-0.080197699,-0.106535532,0.141449079,-0.185149804,0.161464423,-0.098326609,-0.196158811,-0.015089365,-0.091360644,0.254280359,-0.179556653,-0.154726475,-0.011329296,0.008797393,0.082644574,0.050294217,-0.028614677,0.09914659,-0.093344465,-0.315992653,-0.127379566,-0.030562622,-0.01291932,-0.085758686,-0.036420129,0.056224089,-0.186788291,0.006053699,0.025391951,0.112354241,0.034193624,-0.077493109,0.142578438,0.040695067,-0.267702192,0.075546697,0.094483361,0.208017081,0.140576527,0.056174688,-0.006360559,-0.171277076,0.10305956,-0.150287226,0.0252405,0.094053827,0.055440351,0.013676247,0.001626804,-0.150848061,0.048387818,0.124323167,-0.200868174,0.0059514,0.119389385,-0.056637682,-0.018132219,-0.132426843,0.203312814,0.11312215,-0.079604402,-0.264655679,0.187421113,-0.195666417,-0.091426827,0.094732516,-0.103164122,-0.147276089,-0.276348203,-0.022879634,0.325893879,0.190325215,-0.134825066,0.075372182,0.026597258,-0.012056509,0.102449924,0.153524935,-0.000223434,0.016599296,-0.061972879,0.012795905,0.219586566,0.006855216,-0.003382029,0.206856906,-0.005768618,0.07049866,-0.007929184,-0.012778849,-0.119259894,0.049764052,-0.121625006,-0.021541627,-0.04089839,0.010313942,-0.001930402,0.161796913,-0.126164839,0.15932627,-0.093903691,-0.017953172,-0.054841034,0.06207747,-0.078849688,-0.000507336,0.135739133,-0.20115526,0.162248909,0.140948892,0.061934449,0.066902727,0.135780081,0.12886034,-0.017574154,-0.036219742,-0.307022512,-0.025198963,0.122270152,-0.158987775,0.148422018,0.020732529,dog_girl
by26,-0.049448352,0.051303096,0.033726819,-0.084721074,-0.10817758,-0.013647097,-0.062931091,-0.136649072,0.139652476,-0.178938076,0.182765469,-0.111011654,-0.242551103,-0.032324422,-0.095258869,0.240286723,-0.154188946,-0.183384851,-0.063377731,0.020880282,0.08827053,0.09052372,-0.041283868,0.059895579,-0.119061895,-0.305647463,-0.087834194,-0.010438261,-0.035737768,-0.042822372,-0.061351452,0.074742414,-0.194030643,-0.003370592,0.086108193,0.142598063,0.029292345,-0.118898526,0.104335062,0.039134182,-0.292410374,0.076034464,0.092321791,0.217231691,0.130019069,0.02569771,0.004284689,-0.18532531,0.103362747,-0.154726133,-0.005430032,0.130591199,0.052212045,0.043358482,0.009637522,-0.169448301,0.059934005,0.09447366,-0.152295947,-0.011984449,0.140907183,-0.068274468,-0.013316223,-0.1211292,0.13914068,0.044471096,-0.078625895,-0.260949075,0.151003033,-0.211091533,-0.111392818,0.067798465,-0.154177427,-0.177239552,-0.303646266,-0.022096135,0.308264494,0.192190051,-0.154313639,0.113763809,0.071291551,0.07820449,0.131736085,0.177421644,0.032675955,0.100027762,-0.080580615,0.025063731,0.249401748,-0.048213158,-0.019582441,0.233633161,-0.010332474,0.030626774,0.032759335,-0.039231401,-0.054175004,0.039419513,-0.147468865,0.00774493,0.013815592,0.021986751,0.019620527,0.136215031,-0.108141035,0.102037601,-0.080315404,0.001630365,-0.017019931,0.031060068,-0.09031684,-0.043925636,0.119412169,-0.189745247,0.174637184,0.171351358,0.102484137,0.059708692,0.146720067,0.107061237,0.011277585,-0.000622956,-0.244888037,-0.068300538,0.101040974,-0.078740738,0.116213605,-0.00450464,dog_girl
by27,-0.077909775,0.131035298,0.061048873,-0.098315604,-0.126811475,0.00715371,-0.069992632,-0.1174182,0.095588587,-0.195268124,0.202192664,-0.133657694,-0.226656809,-0.015469827,-0.06615001,0.250750661,-0.202672228,-0.165234342,-0.032877602,0.032359928,0.066867813,0.068922952,-0.010470454,0.078979015,-0.073727518,-0.331981182,-0.112742402,-0.045602806,-0.011932097,-0.04603355,-0.060981557,0.0221547,-0.161434874,-0.03264498,0.035128687,0.100266457,-0.025543857,-0.093869284,0.147603303,-0.037031479,-0.278964221,0.086348861,0.152636304,0.23807393,0.154507726,0.075932659,-0.012096504,-0.145526588,0.092397228,-0.179529741,0.039300419,0.090872236,0.062380869,0.078699455,0.030965995,-0.169994906,0.048221499,0.13437061,-0.13508971,-0.001057541,0.123348817,-0.046203181,0.063997135,-0.118091241,0.254387647,0.069356874,-0.088041633,-0.222797304,0.148431972,-0.17014724,-0.105404034,0.10257519,-0.134713411,-0.122215994,-0.27720052,-0.019760059,0.295555115,0.157120481,-0.097520731,0.059026949,0.03530331,0.016319655,0.09833616,0.150270045,0.002859633,0.00357789,-0.075984329,0.009291535,0.240971088,-0.041279752,-0.009130117,0.220447674,-0.005337434,0.032142147,0.020983391,0.003153193,-0.101033062,0.043784257,-0.154681221,0.012983007,-0.013308362,-0.011945625,-0.019955957,0.166648716,-0.147940874,0.11337135,-0.091383949,0.024606172,-0.021486565,0.049849328,-0.078723982,-0.008367497,0.141244873,-0.206958041,0.17691718,0.151905715,0.057047948,0.055414036,0.139737234,0.097533889,-0.023485713,-0.036910128,-0.298799783,-0.04555605,0.154601201,-0.107903853,0.145180285,0.039254427,dog_girl
by28,-0.131473958,0.0790428,0.018693835,-0.088344142,-0.137589276,-0.030109962,-0.043027475,-0.097616352,0.061430734,-0.114748523,0.19547838,-0.134537831,-0.219571218,-0.05056192,-0.096308492,0.251685381,-0.188973218,-0.20418787,-0.061583146,-0.008641065,0.096787706,0.062088553,-0.048495844,0.076542415,-0.157925993,-0.352214754,-0.103310488,-0.061836056,-0.025018353,-0.019268954,-0.029302284,0.059759937,-0.203469977,-0.006778862,0.083264895,0.087527007,0.040386572,-0.073474653,0.168648466,0.005861629,-0.321871847,0.100546971,0.195956677,0.252653241,0.153369188,0.027170725,0.032068778,-0.092353426,0.093458213,-0.141829073,0.019267324,0.1426135,0.110313155,0.04203273,0.007673134,-0.093386836,0.035634495,0.137150347,-0.189164698,-0.008817188,0.146411926,-0.089716762,-0.006765885,-0.110016994,0.174372345,0.068334855,-0.089838572,-0.260847181,0.166064143,-0.212564602,-0.096470349,0.087993383,-0.138293982,-0.135430485,-0.309868038,-0.012605751,0.320692778,0.151288554,-0.114682339,0.126808926,0.037375391,0.029371347,0.117034748,0.142714247,0.016001144,0.057277441,-0.081504241,0.03780761,0.272594124,-0.024926292,0.00733039,0.201337159,0.01180477,-0.006874728,0.029377967,0.013676262,-0.081444651,0.004423904,-0.08662273,0.047045521,-0.039910547,0.010108005,0.008978491,0.106622182,-0.123245493,0.092045039,-0.090281673,0.019225497,-0.091781549,0.038009886,-0.04002038,-0.021041309,0.074501634,-0.204567418,0.169112712,0.138043568,0.012343986,0.044654503,0.135313809,0.051325463,-0.012755794,-0.03422381,-0.25639379,-0.084971189,0.135056496,-0.117591828,0.167277619,0.011388611,dog_girl
by29,-0.124521449,0.096349224,-0.011319365,-0.114154622,-0.134094834,-0.014859565,-0.086367726,-0.073680006,0.132627144,-0.119580448,0.170313358,-0.104707599,-0.207540959,-0.038403548,-0.086674176,0.23591134,-0.196184546,-0.197445795,-0.028436024,-0.002178562,0.102389082,0.028534302,-0.042985659,0.104394466,-0.109510228,-0.342960149,-0.080241829,-0.029396296,0.009462491,-0.064969108,-0.030482762,-0.005612201,-0.250555336,-0.034495447,0.065778688,0.102659084,0.002293538,-0.120170332,0.147933751,-0.006968817,-0.244772077,0.053167153,0.128378436,0.197554916,0.157358304,0.077868804,-0.001568822,-0.1613736,0.120442554,-0.145115957,0.00450037,0.121245049,0.065346487,0.033115968,-0.01069725,-0.158342466,0.042843305,0.163342834,-0.158331469,0.006789263,0.062602274,-0.074151993,-0.018884094,-0.127795473,0.225165635,0.05636894,-0.093328938,-0.238108695,0.189269766,-0.149537027,-0.081917301,0.062091693,-0.08659973,-0.154643208,-0.280159712,-0.001412248,0.335344017,0.131572694,-0.154827982,0.09566927,0.03018753,0.020435665,0.079216942,0.134948835,-0.042141162,-0.001332061,-0.099992633,0.0038304,0.2753371,0.000412504,0.004144974,0.180386469,-0.017881589,0.057867829,0.023234669,0.010226659,-0.13220945,0.048593789,-0.118906416,-0.020721031,0.019195359,-0.003221545,-0.010166192,0.15745692,-0.125757813,0.080678597,-0.062311001,-0.007206152,-0.04455258,0.052243382,-0.087994605,-0.045707785,0.094310597,-0.19457534,0.216122106,0.153700069,0.083444849,0.101490803,0.162649468,0.086911462,0.014565262,-0.014418121,-0.262471527,-0.056824911,0.125327989,-0.091327392,0.153644025,0.016835742,dog_girl
by30,-0.099643409,0.08270558,0.0378206,-0.113499276,-0.137643889,0.018217728,-0.07680694,-0.098407,0.127670869,-0.170937181,0.186716169,-0.13706696,-0.224591658,0.011412065,-0.076819599,0.261695027,-0.227047265,-0.156906709,-0.01207834,0.017570883,0.087381192,0.042465862,-0.062271621,0.060819801,-0.131522626,-0.332667053,-0.084154479,-0.032843888,-0.028746841,-0.076477185,-0.034968823,0.065918177,-0.153999314,0.002014339,0.034148347,0.101144031,0.046943054,-0.108732916,0.154756084,0.05676952,-0.310619801,0.05778493,0.120314956,0.201380432,0.133132115,0.017303845,-0.0198546,-0.132736117,0.096355259,-0.158239841,-0.018910589,0.108620018,0.060045864,0.05439204,0.015949262,-0.123205476,0.055008791,0.123024128,-0.161618292,-0.005206384,0.131245226,-0.0762408,0.045669172,-0.083027303,0.184960544,0.086025782,-0.057247475,-0.232985914,0.159668982,-0.124516122,-0.133694515,0.087654576,-0.10494595,-0.136535898,-0.25719437,-0.031192468,0.326544434,0.136973113,-0.160170645,0.049139,0.018778946,-0.026447305,0.154974073,0.150950521,0.034361824,-0.00547989,-0.053766303,-0.015644845,0.258389771,-0.003279807,-0.000280989,0.215966046,-0.003949996,0.026005596,0.026448958,0.024019206,-0.100118823,0.064133272,-0.099354662,-0.047508653,0.028391842,-0.023184318,0.005181067,0.16692996,-0.168324307,0.1030313,-0.062760726,0.004721033,0.011982877,0.088212095,-0.04629387,-0.017460225,0.131518379,-0.210424989,0.153247148,0.16919072,0.015794167,0.039849218,0.125738591,0.101170309,-0.012641462,-0.027920362,-0.246065602,-0.060180876,0.102343634,-0.078390121,0.105254091,0.010163669,dog_girl
by31,-0.078407302,0.096117064,0.008893401,-0.08646775,-0.100201167,-0.089692704,-0.079674289,-0.108731292,0.111738943,-0.156603485,0.205669984,-0.105776697,-0.163711488,-0.044847917,-0.058304213,0.206855103,-0.236059204,-0.128551677,-0.061803296,0.002430794,0.126013368,0.09534701,-0.031624418,0.056725398,-0.125617445,-0.325955898,-0.083715647,-0.065251686,0.01954955,0.000149343,-0.037985981,0.037534583,-0.176616967,-0.046304535,0.076529212,0.07587637,-0.011791011,-0.062924422,0.174851,0.004883764,-0.276288956,0.087608956,0.144305378,0.235192865,0.190124527,0.023014195,0.008778032,-0.189761117,0.130706266,-0.144884497,0.014660057,0.128415704,0.066394903,0.089940406,0.058835175,-0.102707498,0.057734698,0.14539285,-0.144408017,-0.017183473,0.126436159,-0.058401324,-0.00418584,-0.097986132,0.221134454,0.023866897,-0.093551196,-0.214816526,0.118712023,-0.172856823,-0.157508552,0.090690449,-0.10861551,-0.124939099,-0.315770477,-0.046600409,0.331110358,0.125281483,-0.163443983,0.126202449,0.007978038,-0.022135809,0.186599657,0.158665642,0.015695412,0.022094801,-0.053288188,0.020306656,0.256535053,-0.040404961,0.00325867,0.213987961,0.019627813,0.05178497,0.032678664,-0.019853657,-0.101982743,0.01423085,-0.127992779,-0.025338441,0.041426308,0.016590111,-0.018168064,0.136851102,-0.161765411,0.132346451,-0.029937951,0.027689684,0.015943391,0.006005305,-0.042678878,-0.017082524,0.092956781,-0.200877205,0.198176622,0.116985299,0.057665609,0.077937819,0.124030523,0.043020718,-0.040045895,-0.016921557,-0.280377954,-0.029679937,0.127489761,-0.060124837,0.142815068,-0.012563396,dog_girl
by32,-0.081724674,0.047898777,0.047110587,-0.127592385,-0.112811573,-0.002732918,-0.026672127,-0.06038142,0.124154709,-0.139993846,0.251202196,-0.146092236,-0.245516986,-0.037136972,-0.115182422,0.239422321,-0.198988318,-0.164684296,-0.065035626,0.055801809,0.098266281,0.064984649,-0.065536737,0.054779813,-0.091468923,-0.355654776,-0.07634031,-0.045829747,-0.01922439,-0.057797894,0.018466869,0.020512756,-0.178558812,-0.021841442,0.071298078,0.079344831,0.0172117,-0.113322914,0.152097061,0.028880468,-0.334300131,0.051878463,0.134809911,0.244514257,0.114047617,0.062563121,-0.03222489,-0.158690587,0.107278049,-0.189705774,-0.019953307,0.126712367,0.085085362,0.056013115,0.013065958,-0.1648314,0.070172228,0.129768848,-0.163081631,-0.033474479,0.065600961,-0.049668688,0.053087432,-0.099640138,0.201516137,0.001283323,-0.123545319,-0.202301949,0.136025295,-0.147587165,-0.077930391,0.094007239,-0.138743594,-0.16323036,-0.302258909,-0.028892098,0.33690092,0.113668233,-0.146382794,0.083905049,-0.014499066,0.043988239,0.103073582,0.174572736,0.023608537,0.058360286,-0.074215315,-0.02093146,0.228400663,-0.079069249,0.011231286,0.233375922,-0.026370814,0.036548711,0.004752099,-0.012459834,-0.090151347,0.054103546,-0.102289431,-0.00316049,0.023106828,0.020715477,0.025918821,0.12711826,-0.187684998,0.077527873,-0.028199278,0.007917617,0.022262979,0.03616368,-0.036545023,-0.058133315,0.118800387,-0.230133697,0.194044217,0.186953336,0.078542411,0.074000195,0.169827849,0.038288109,-0.009677974,-0.030278528,-0.238600463,-0.030662816,0.094658166,-0.07257393,0.105553798,-0.024678528,dog_girl
by33,-0.067660362,0.06583184,0.005909227,-0.098340541,-0.133072719,-0.018365644,-0.099337749,-0.109849498,0.137951314,-0.13966237,0.171420619,-0.097060449,-0.239014193,-0.028147094,-0.101680122,0.225283459,-0.139573336,-0.176280111,-0.066934057,0.039064515,0.078473799,0.08069665,-0.064994924,0.035130322,-0.0793816,-0.319143713,-0.083174244,0.006963442,-0.030551944,-0.032982633,-0.025564173,0.078414775,-0.163601518,-0.011584792,0.11803706,0.134791926,0.038704734,-0.085573018,0.094553053,-0.006251557,-0.294259697,0.056278028,0.139377967,0.215411127,0.154340386,-0.002153195,0.007009933,-0.193274781,0.060413659,-0.170911849,7.20825E-05,0.141798869,0.071434945,0.046645414,0.04479026,-0.145409465,0.039385192,0.126915902,-0.126433119,-0.006807285,0.185550094,-0.040542319,-0.036675252,-0.142111719,0.169843197,0.024815895,-0.141259909,-0.242864013,0.127007291,-0.168692082,-0.086956516,0.071504898,-0.139101028,-0.187505424,-0.292459935,0.005385688,0.331962377,0.200022221,-0.159984261,0.103543706,0.020413671,0.073268168,0.102339216,0.108789444,0.017870625,0.040291991,-0.075397126,0.035361417,0.241944373,-0.028409779,0.011876177,0.199317798,-0.009746259,0.025424343,-0.008841227,0.011901465,-0.046369497,0.017868988,-0.166045666,0.012882995,0.001361939,-0.001575123,0.038290821,0.142317146,-0.094210051,0.086376727,-0.040596157,0.016686173,0.003949465,0.049660593,-0.086104155,-0.040593036,0.129413918,-0.190961674,0.188973784,0.13057217,0.133631676,0.052330617,0.164384425,0.102375127,0.013979605,-0.042528793,-0.204291239,-0.057642553,0.060632393,-0.073719531,0.104207434,0.005322799,dog_girl
by34,-0.072807163,0.084225856,0.039314877,-0.127410218,-0.115661241,0.034672432,-0.031792074,-0.098272659,0.136449501,-0.222410396,0.180389687,-0.13183412,-0.26961863,0.006784491,-0.105932161,0.243815944,-0.124341227,-0.178692937,-0.075748838,0.030479245,0.065758303,0.101394765,-0.04989041,0.069126464,-0.093994915,-0.354535908,-0.107048325,-0.024936635,-0.070482157,-0.029221928,-0.029502966,0.036887474,-0.146813676,0.00638264,0.042059202,0.109612592,0.010694771,-0.123293556,0.140110523,0.04535412,-0.320367575,0.102945253,0.12504366,0.290252835,0.130439147,-0.022814717,0.018503277,-0.167410016,0.135399774,-0.190812349,0.002196493,0.10132733,0.087133363,0.067283951,-0.008162863,-0.126567304,0.042867746,0.149682522,-0.136868343,0.015452209,0.132357463,-0.060228057,0.022841509,-0.092692614,0.181348756,0.066589087,-0.125516191,-0.241514906,0.11627993,-0.189058959,-0.076054178,0.077333316,-0.184171736,-0.169145629,-0.273525298,0.026566176,0.309984475,0.198045716,-0.119820409,0.076826386,-0.018139353,0.097896188,0.120865509,0.192810342,0.045788854,0.046503723,-0.082785815,0.051608406,0.275641501,-0.088343553,-0.035229512,0.259629011,0.012737828,0.041598532,-0.012380773,0.012749958,-0.11819391,0.024709588,-0.154204145,0.007053741,0.006472563,0.045106109,0.034900311,0.135653734,-0.146119192,0.140467852,-0.068632104,0.028353356,0.024756033,0.043198369,-0.054040533,-0.042640533,0.121508025,-0.146744579,0.140651345,0.143133938,0.095830724,0.065992288,0.194707051,0.055802163,0.013565168,-0.031473309,-0.242348507,-0.028823674,0.127854198,-0.021246232,0.130529195,-0.013012035,dog_girl
by35,-0.17297937,0.087353729,0.026252016,-0.106583215,-0.111022726,-0.015978191,-0.067851841,-0.091576442,0.122404881,-0.084548548,0.20873639,-0.100892454,-0.249236912,-0.069127567,-0.119310342,0.244892776,-0.213051796,-0.182614207,-0.013831298,0.025247965,0.130672351,0.015954074,-0.040098246,0.051721368,-0.142030358,-0.344409078,-0.080940835,-0.020818312,-0.041417334,-0.058447085,-0.013126873,-0.009693434,-0.223936483,-0.012068942,0.065704919,0.126914576,0.000406202,-0.128394753,0.122764386,-0.016033923,-0.296948522,0.025032552,0.157264888,0.19907096,0.159106106,0.056323018,-0.006594058,-0.163479254,0.095711492,-0.170963004,0.004515694,0.146270648,0.034115911,0.065454647,-0.019314144,-0.145567879,0.024042971,0.160803303,-0.152616873,-0.031176772,0.097658411,-0.0575829,-0.028811071,-0.152828604,0.180514663,0.07991574,-0.151710272,-0.244898453,0.144386217,-0.165185377,-0.086731523,0.084803045,-0.114576958,-0.196276352,-0.293098658,0.004266645,0.332982868,0.102723762,-0.123597942,0.056324281,0.013696535,0.031308204,0.078997388,0.152135834,0.015387809,0.039532386,-0.073366918,-0.017676458,0.276217103,-0.024154315,-0.000142542,0.187198922,-0.026329186,0.023859859,0.004767175,0.058854997,-0.079532981,0.069302246,-0.102328576,0.013932727,0.00616357,-0.03816352,-0.011090865,0.113129146,-0.125495881,0.089244723,-0.0169762,0.021125395,-0.020260796,-0.001697899,-0.085853301,-0.032061815,0.104283243,-0.23303023,0.255564302,0.186548531,0.094449498,0.095391184,0.161872372,0.091689035,0.007212047,-0.017763976,-0.216963708,-0.056472935,0.088437662,-0.093501493,0.128558949,-0.015126633,dog_girl
by36,-0.116633892,0.05826693,0.021221217,-0.13253215,-0.085015647,-0.007465782,-0.078757316,-0.0922741,0.123042509,-0.178311765,0.183307067,-0.133315548,-0.203675315,-0.017020117,-0.069074892,0.229656309,-0.181259841,-0.148999646,-0.022535315,0.006675022,0.074012272,0.033951402,-0.089666903,0.056991454,-0.09109506,-0.298295975,-0.115118206,-0.020719724,-0.03884485,-0.056364048,-0.057969783,0.045009904,-0.179059267,-0.008882539,0.055871677,0.144177809,-0.012287803,-0.101543412,0.125694096,-0.000503453,-0.240472764,0.078957573,0.134959593,0.208144024,0.138217434,0.011551387,-0.015799496,-0.148121059,0.108764403,-0.162297964,0.035974167,0.12049374,0.09346962,0.082858272,0.02601124,-0.129518345,0.044526659,0.13153851,-0.163440064,0.025260156,0.142179638,-0.051480655,-0.023553986,-0.118562706,0.18294701,0.126786143,-0.112776518,-0.267067432,0.15951708,-0.156035051,-0.083297782,0.090341464,-0.119331174,-0.18436867,-0.220548227,0.032716572,0.286550403,0.165383458,-0.149063498,0.076172993,0.032480396,-0.020474751,0.12706852,0.146658942,0.036402587,0.023338344,-0.038041979,0.020491466,0.2524212,-0.010445975,-0.012095984,0.187232226,-0.013791001,0.016209729,0.010133235,0.002748723,-0.070172518,0.033972722,-0.140300557,-0.008736225,-0.001566646,-0.037990466,-0.034824841,0.131183237,-0.105171949,0.146147028,-0.055077057,0.009421954,-0.039066296,0.031644236,-0.072710685,0.008272989,0.121440902,-0.211332873,0.191916823,0.1172814,0.076517992,0.065111704,0.128284216,0.109272391,0.033446029,-0.035003312,-0.254460722,-0.056199178,0.093917333,-0.055541165,0.120438211,0.007224315,dog_girl
by37,-0.082497746,0.076848276,0.027987074,-0.107206225,-0.093891427,0.010127993,-0.095503829,-0.092790082,0.140108868,-0.149586633,0.195489332,-0.103555553,-0.245851964,-0.020686263,-0.047593929,0.243550807,-0.214759916,-0.142718971,-0.007857529,0.008534319,0.071475424,0.032251403,-0.058255527,0.054071441,-0.104269974,-0.308860749,-0.102049969,-0.035691373,-0.074434713,-0.056026712,-0.058929838,0.055786002,-0.168673992,-0.016274437,0.052509405,0.129644275,-0.006795592,-0.108388573,0.120590001,-0.018040778,-0.247174442,0.069787115,0.13337189,0.204784319,0.148427621,-0.022652911,-0.009321526,-0.164545983,0.099377587,-0.165852755,0.033848807,0.121603087,0.099934518,0.067068636,0.023114793,-0.171441212,0.036042351,0.11752893,-0.166552216,0.00876223,0.138354018,-0.061877526,0.019580493,-0.125100657,0.185469374,0.113050334,-0.109471865,-0.27464205,0.114259183,-0.128957033,-0.076686352,0.083092265,-0.15276964,-0.210721582,-0.279729128,0.007167866,0.293800235,0.139111489,-0.158305824,0.088597603,0.009774117,-0.041238464,0.110497519,0.164116964,0.061129473,0.024169639,-0.070567913,0.050518733,0.239965856,-0.055656992,-0.019450719,0.188535571,-0.02864879,0.036556087,0.004285556,0.012511965,-0.088204965,0.070037387,-0.161516964,0.014569263,-0.051560994,-0.025966711,-0.022318272,0.111724302,-0.091980852,0.107543804,-0.020523861,0.003572032,-0.059063859,0.00660596,-0.105607532,-0.008535256,0.148086995,-0.227613002,0.197858796,0.114282921,0.093984894,0.088739991,0.122688279,0.107907534,0.011554863,-0.041122653,-0.256258845,0.004420646,0.090007566,-0.054575101,0.123745888,0.028072987,dog_girl
by38,-0.033154313,0.109763563,0.045714963,-0.088818297,-0.155378386,0.004706176,-0.074869916,-0.111312672,0.114653297,-0.12020538,0.2014824,-0.068392664,-0.214344457,-0.066948585,-0.047568679,0.267651021,-0.245335445,-0.198715687,-0.008397395,-0.004291167,0.047710683,0.052940685,0.02223875,0.053856753,-0.14101547,-0.32388556,-0.033162378,-0.056614075,-0.011997619,-0.099800915,-0.038781013,0.021630486,-0.183594987,0.032380804,0.088964656,0.097802438,-0.016590003,-0.104382277,0.161696136,-0.000909016,-0.301143169,0.040439423,0.148278162,0.178057715,0.159085318,0.044902671,-0.009341188,-0.164107442,0.143313348,-0.164802402,0.039702043,0.13165459,0.084528327,0.022683185,0.024754912,-0.143713459,0.012536454,0.112440571,-0.136383295,0.006102531,0.123715207,-0.01924685,0.021546792,-0.118093126,0.199217647,0.020855945,-0.098571785,-0.213846445,0.143062174,-0.151480988,-0.144275069,0.097748533,-0.117340066,-0.184053913,-0.279860854,-0.052327614,0.308235526,0.136321366,-0.160083532,0.025229089,0.033431198,0.010965532,0.082830384,0.153088003,0.005232198,0.010600712,-0.100462548,-0.008151395,0.281174064,-0.076254785,-0.00827011,0.217888162,-0.00527824,0.071495928,-0.031166537,-0.010566845,-0.085853808,0.082915187,-0.14832522,-0.038872011,-0.01999934,0.014096688,-0.005976279,0.159016639,-0.140681133,0.073414572,-0.036074176,-0.006291965,-0.010660695,0.09282735,-0.109890312,-0.09990824,0.111431621,-0.208309919,0.217708081,0.200153276,0.095066011,0.038790822,0.127804652,0.086221226,0.019202124,-0.047827166,-0.216016695,-0.04784666,0.102287196,-0.108940251,0.097873718,0.016418552,dog_girl
by39,-0.093312256,0.055796251,-0.002799545,-0.090486303,-0.095352218,-0.022497851,-0.060060911,-0.100455709,0.119248971,-0.165631533,0.159603581,-0.159522921,-0.222498402,0.018367469,-0.061990216,0.234406143,-0.132898748,-0.149963781,-0.064666755,0.012314033,0.080595829,0.059267346,-0.06230608,0.118958928,-0.085028663,-0.301645488,-0.127687305,-0.035473529,-0.004984394,-0.052842248,-0.095734991,0.077333711,-0.167312607,-0.039354827,0.043405145,0.100631408,0.0489453,-0.071289197,0.156632408,0.020148493,-0.285553217,0.099020183,0.134427398,0.236102134,0.129352018,0.022923589,-0.001571633,-0.122202262,0.087108895,-0.151464775,0.026387282,0.113163203,0.107937314,0.06553033,0.00423567,-0.143300772,0.058648951,0.115487427,-0.16898942,0.043245986,0.130032957,-0.073104918,0.002506984,-0.079813294,0.193671897,0.088883281,-0.067127481,-0.247505248,0.160364896,-0.187997565,-0.084153436,0.07735128,-0.142541826,-0.146944553,-0.273510098,0.00479817,0.312256575,0.145541906,-0.164038032,0.155902788,0.037429556,-0.01397045,0.136372685,0.161556005,0.027444283,0.04158625,-0.047974892,0.030202664,0.25315848,-0.019736897,0.013374575,0.215025276,0.013737895,0.032334499,0.050145969,0.020005003,-0.060516704,-0.004440418,-0.114291891,0.027929712,-0.001199109,-0.026484102,-0.016928447,0.115472518,-0.157248586,0.14112106,-0.059509102,0.011602812,-0.031264592,0.078140013,-0.050159648,-0.019212207,0.12936005,-0.203848571,0.156030506,0.13327381,0.037811588,0.04608833,0.097394198,0.115019478,0.02700194,0.003489975,-0.264283866,-0.054682806,0.143295705,-0.100818336,0.105585366,0.045244165,dog_girl
by40,-0.085449845,0.069892101,0.047554314,-0.08984562,-0.119350642,0.009098142,-0.081239045,-0.12958467,0.138926417,-0.179109022,0.197824448,-0.061475862,-0.173750728,0.008431171,0.003349976,0.223171562,-0.245039627,-0.163825333,-0.000172745,0.015466043,0.082498737,0.099075563,-0.065968029,0.048626777,-0.136408463,-0.33057642,-0.104154013,-0.038682416,-0.003771638,-0.036707185,-0.064290106,0.062207475,-0.178108171,0.010723334,0.080895171,0.135255143,0.042596202,-0.134778515,0.108999766,0.043032281,-0.327095151,0.094446346,0.10254097,0.173624262,0.162450463,-0.011612952,-0.037072923,-0.159660801,0.107530609,-0.161744386,0.031721599,0.128317177,0.029442033,0.063401237,0.008260842,-0.155452102,0.012276583,0.118387297,-0.176654816,-0.008040093,0.137382343,-0.067256078,0.068122946,-0.112344317,0.144996256,0.1451215,-0.058790989,-0.277434051,0.1223175,-0.175524458,-0.148776978,0.094524018,-0.150844321,-0.174487427,-0.25897333,0.006219574,0.332485378,0.141898558,-0.153229713,0.051830117,0.031738579,-0.015140997,0.166401327,0.173496738,0.077767253,-0.012365743,-0.026626552,-0.006990488,0.313464999,0.008706291,-0.022776378,0.238422886,-0.052229617,0.022693541,0.0403862,0.022922013,-0.051895514,0.041986708,-0.12658152,-0.046061285,-0.039079111,-0.036096804,-0.018621128,0.208550781,-0.16813159,0.096607417,-0.062882572,-0.002223099,0.029845338,0.066519633,-0.052853186,-0.042932786,0.131641105,-0.21076791,0.227125749,0.168245196,0.047031857,0.077629477,0.076975249,0.128444821,-0.02204315,-0.035569206,-0.256714702,-0.034668062,0.097894959,-0.052620739,0.075726852,-0.00806607,dog_girl
by41,-0.060994208,0.071554482,0.001727324,-0.090471983,-0.121569611,-0.008368067,-0.083960384,-0.088225633,0.123048291,-0.153835669,0.148680925,-0.06600567,-0.194598913,-0.0540636,-0.072431669,0.248959169,-0.161828101,-0.197564319,-0.088270754,0.032132737,0.099002607,0.083153151,-0.057838824,0.07960137,-0.092333503,-0.287989765,-0.086707488,-0.033718877,-0.052696586,-0.031938907,-0.063881122,0.022563349,-0.173678488,-0.03320016,0.094505936,0.093323693,0.035273939,-0.085530505,0.159065753,0.065252557,-0.30204618,0.134466648,0.098565198,0.238218412,0.161311954,0.038327426,0.005378902,-0.159836218,0.14948459,-0.197963819,0.04011713,0.149420768,0.090310782,0.062873498,0.022709057,-0.152295589,0.049704254,0.116547912,-0.107767619,-2.82482E-05,0.107937254,-0.072762169,0.008865191,-0.126272783,0.18715927,0.030334607,-0.102635197,-0.260211945,0.107808508,-0.138393179,-0.142329603,0.084051624,-0.168763459,-0.139595032,-0.328447729,0.02367446,0.34122023,0.176442012,-0.194325939,0.097565606,-0.021440487,0.062279839,0.09507899,0.14971894,0.043804862,0.040946204,-0.080986477,-0.005662644,0.274698257,-0.056898527,-0.028339332,0.226377606,0.02082058,0.069077052,-0.004562355,-0.013769904,-0.053730402,0.006658544,-0.128774345,-0.012551744,0.022233792,0.044426344,0.010183984,0.143154442,-0.156436935,0.107562907,-0.070655167,0.018314393,-0.036701396,0.058089398,-0.102797396,-0.018439358,0.107283875,-0.178885967,0.215332955,0.164262086,0.10947305,0.036060888,0.169134602,0.062639177,-0.017896663,-0.011810305,-0.234528512,-0.073840715,0.13892968,-0.030757383,0.126208961,0.028663222,dog_girl
by42,-0.089420013,0.053489871,0.034728386,-0.085305713,-0.129939541,-0.031235337,-0.04803025,-0.127768815,0.126740426,-0.170716628,0.19756496,-0.129230946,-0.247299224,-0.033597436,-0.095132686,0.268535018,-0.195995376,-0.143427074,-0.034335505,0.020011555,0.090419352,0.032210946,-0.064536907,0.065407023,-0.101625994,-0.316794723,-0.096347913,-0.012687157,-0.052795544,-0.066195622,-0.045944519,0.065367483,-0.177809462,-0.026739331,0.052478522,0.103096478,0.022993986,-0.145515174,0.142319694,0.013580711,-0.291397661,0.042857077,0.152282909,0.188351065,0.123209022,0.018918151,0.003190378,-0.161194235,0.127306283,-0.16337724,-0.014079345,0.088559829,0.074698813,0.036854967,-0.002915287,-0.171635613,0.041630208,0.146058589,-0.17220363,-0.006305297,0.151705354,-0.070631646,-0.006984007,-0.109192781,0.167245701,0.103701547,-0.0920408,-0.214169607,0.202761903,-0.165937975,-0.090911552,0.052242849,-0.122519948,-0.168724328,-0.286474019,-0.038880609,0.35813728,0.145326704,-0.141983807,0.009917166,0.025890831,0.024645694,0.137129128,0.154656768,0.029109731,-0.009180914,-0.067868061,0.003259836,0.27125746,0.007423037,-0.00771529,0.18979308,0.01441023,0.01156459,0.000483795,-0.006566565,-0.08500848,0.047769994,-0.132210091,0.021582037,-0.036649778,-0.037727199,-0.004759872,0.167521566,-0.133137777,0.105207391,-0.036624242,-0.010832667,-0.021883052,0.048293829,-0.077012472,-0.001416099,0.105060399,-0.180602551,0.170009241,0.151721388,0.080648385,0.069629721,0.103555195,0.11687874,-0.000505872,-0.052334055,-0.273832202,-0.072584063,0.094459429,-0.100130633,0.134379148,0.001104079,dog_girl
by43,-0.101912767,0.101597786,0.033475023,-0.130846918,-0.141829655,-0.005577832,-0.066839449,-0.069299318,0.151759833,-0.182652324,0.189428255,-0.148369193,-0.21291633,0.010595361,-0.074921116,0.250002623,-0.164706215,-0.184178367,-0.099507414,0.025618928,0.072238117,0.071218871,-0.037000492,0.06985914,-0.090240657,-0.335252523,-0.053310432,-0.025852371,-0.003678198,-0.064555161,-0.066823065,0.09970279,-0.19520627,-0.032812648,0.063129939,0.153317943,-0.00874616,-0.074367516,0.117136836,-0.014959855,-0.352957934,0.067484275,0.113874674,0.244930014,0.188535437,0.015173615,-0.04035303,-0.105138585,0.069362484,-0.207097143,0.033961926,0.126860648,0.064569935,0.081036121,0.046793364,-0.148175418,0.069166675,0.109213307,-0.113451242,-0.01440817,0.166379049,-0.085103936,0.036731627,-0.094246186,0.189524844,0.060971055,-0.095753781,-0.23369576,0.124810688,-0.159555882,-0.059125312,0.131940871,-0.145004869,-0.15535067,-0.25910309,-0.013252402,0.329532206,0.173513889,-0.1304546,0.082736373,0.043933034,0.04122987,0.132873729,0.15659453,0.030047348,0.042018846,-0.078168154,0.044437386,0.237781376,-0.041630529,-0.028360106,0.241717443,-0.014879799,0.007659828,0.011975601,0.021099655,-0.041569155,0.027483638,-0.139708474,0.015956102,0.023040993,-0.014032076,-0.04145864,0.138572767,-0.113150261,0.098732725,-0.069579884,0.086761825,-0.014313264,0.060278125,-0.043294877,-0.038003903,0.114313267,-0.189189777,0.180989921,0.163315013,0.055923875,0.034053557,0.146746546,0.063275039,0.048626527,-0.038328711,-0.246940672,-0.052727871,0.107955784,-0.06404116,0.105233908,0.037090413,dog_girl
sh1,-0.126984105,0.033605739,0.070213638,-0.076898724,-0.096587762,-0.03040717,-0.066696092,-0.110788479,0.098534785,-0.190711871,0.169680014,-0.100880958,-0.175599203,0.003290053,-0.048704039,0.240511864,-0.163116947,-0.148336709,-0.047614105,0.018611319,0.087243997,0.065175712,-0.041484389,0.047174934,-0.17401582,-0.292982191,-0.124314137,-0.00807788,-0.056910913,-0.092895009,-0.04993955,0.122586638,-0.162917286,0.028720248,0.000655176,0.127664745,0.037159771,-0.082763366,0.126484662,0.061375145,-0.297997564,0.124483511,0.057549588,0.244377017,0.153677359,-0.020042863,0.004561506,-0.132436037,0.085328355,-0.164268985,-0.002373988,0.09193296,0.076376356,0.077309579,0.003471767,-0.12044771,0.050231908,0.085284323,-0.157064006,-0.008952378,0.090152308,-0.069106244,0.057568088,-0.09384235,0.140857801,0.082475469,-0.093566604,-0.17006205,0.123573512,-0.127239615,-0.076339573,0.080314808,-0.147780493,-0.186693802,-0.288118929,0.010918217,0.303146392,0.125908643,-0.184596226,0.072902024,0.031123238,-0.014424305,0.115028553,0.187944248,0.031541102,0.040031344,-0.024685662,0.065037496,0.239878848,-0.031338498,-0.009012181,0.228265464,0.030235803,0.016891237,0.018090189,0.043948323,-0.046637207,0.036672082,-0.076699086,0.034744564,-0.013975371,-0.031336352,-0.023244182,0.142004013,-0.128192365,0.189795226,-0.029886382,0.004180557,-0.035590447,0.067547075,-0.048056573,-0.015730845,0.084911041,-0.228158996,0.130446732,0.192038432,-0.011261207,0.081154689,0.075101987,0.122920945,-0.03097073,0.024363771,-0.212275639,-0.028519131,0.139579758,-0.046488598,0.085732266,0.03755017,dog_girl
sh2,-0.11366713,0.044541243,0.053020891,-0.061502546,-0.079324245,-0.044967178,-0.091535807,-0.143814579,0.088022858,-0.168783829,0.179395869,-0.075994097,-0.148609489,-0.0318949,-0.055477925,0.160659343,-0.145803764,-0.150970683,-0.036989763,0.040646371,0.118889384,0.057903856,-0.022468396,0.047863137,-0.190632924,-0.282574743,-0.114994466,0.005559495,-0.058707375,-0.018654838,-0.052064087,0.060716458,-0.19591333,0.029928306,0.026698118,0.166248336,-0.028867802,-0.035261676,0.122460946,0.02216975,-0.285201222,0.059078291,0.093987003,0.231749192,0.228927076,-0.033813041,-0.017722141,-0.158968523,0.08658541,-0.161763415,0.038146526,0.163387358,0.058152106,0.088056803,0.047611821,-0.098554708,0.048771434,0.14857547,-0.077373877,0.009598048,0.089190513,-0.079969577,0.018316332,-0.104186565,0.135963142,0.041674223,-0.10078796,-0.21703428,0.105226427,-0.170008361,-0.111716338,0.110378355,-0.146574214,-0.197929859,-0.336192966,-0.029575322,0.3259978,0.128861874,-0.192281201,0.113666892,0.004529542,-0.010332353,0.150060236,0.166390032,0.048392229,0.044277862,-0.095392361,0.028321125,0.243467808,-0.032499239,0.014819128,0.227715626,0.004724652,0.017552415,0.050717648,0.026615994,-0.08044716,0.026408007,-0.127743408,-0.030438356,-0.012866038,-0.045593675,-0.02406464,0.152962834,-0.144365981,0.178876624,-0.008287791,0.056924194,0.029080067,0.002308983,-0.071526363,-0.055985924,0.1053074,-0.21695891,0.122002102,0.133327618,0.032489032,0.081698857,0.12404342,0.133362696,-0.057525408,0.033675272,-0.232392162,0.024853719,0.048556481,-0.052614979,0.071700513,0.023242069,dog_girl
sh3,-0.087542564,0.051050339,0.049837634,-0.069910787,-0.096974485,-0.006362583,-0.07446488,-0.0700192,0.142046705,-0.163300589,0.198876441,-0.070228674,-0.158437595,-0.041882556,-0.047264934,0.222691402,-0.161808535,-0.171294108,-0.024672978,0.004175722,0.088417746,0.057405423,-0.024687434,0.049802676,-0.200301558,-0.314940155,-0.074362636,-0.067806676,-0.045842342,-0.078359619,-0.040011808,0.068287991,-0.143634737,0.037106469,0.070802122,0.133142337,-0.00094425,-0.078726672,0.137691587,0.013394323,-0.315113246,0.022319261,0.057270452,0.259349316,0.188566715,-0.045091603,-0.012540059,-0.135460228,0.119609445,-0.167020753,0.007932559,0.133791521,0.021776345,0.074966878,0.030785337,-0.105455339,0.052699454,0.113627896,-0.107289463,-0.023629952,0.070149951,-0.064284757,0.021851636,-0.092844114,0.164585039,0.052913349,-0.130590975,-0.209329039,0.103283271,-0.151691601,-0.07370276,0.098971762,-0.183714151,-0.1844282,-0.302512079,-0.045094207,0.362250835,0.090265341,-0.172336996,0.063946418,0.028858133,0.015111412,0.133604825,0.214480147,0.030001815,0.043166962,-0.04551914,0.057460796,0.247648641,-0.061323896,-0.016886586,0.201309755,-0.041555241,0.046362858,0.015205601,0.042979114,-0.053580411,0.057918668,-0.078206293,0.014868836,0.019420329,-0.027189296,-0.005341687,0.172794908,-0.147824094,0.13770169,-0.012883052,0.070102714,0.036290832,0.057907443,-0.067048796,-0.066679776,0.117189489,-0.196435794,0.158760041,0.179978147,0.046428058,0.058226943,0.097070299,0.076973915,-0.026701909,0.006130739,-0.241595775,0.034078699,0.047337163,-0.061466724,0.048242986,-0.019137917,dog_girl
sh4,-0.100610316,2.36509E-05,0.063646674,-0.069983333,-0.082809359,-0.00296583,-0.083097421,-0.109040417,0.053025506,-0.168023989,0.170978472,-0.081083834,-0.162546679,-0.059992641,-0.047530226,0.190589041,-0.169417545,-0.17557916,-0.064030066,0.05145061,0.084191471,0.040375032,-0.014238463,0.068292059,-0.169066399,-0.304489434,-0.085406229,-0.02066092,-0.006829413,-0.03064153,-0.096741229,0.040789407,-0.198060468,0.043347295,0.010750425,0.145968601,0.019460382,-0.070531994,0.141418308,0.04597766,-0.301775962,0.095412157,0.035611551,0.207770497,0.238935813,0.017600093,-0.00141819,-0.147241175,0.135277569,-0.200856328,0.029258873,0.14991264,0.063137949,0.064469054,-0.018596578,-0.11133606,0.044206306,0.110773608,-0.13496314,-0.006139438,0.070352897,-0.053151652,0.062343869,-0.109745078,0.144157887,0.079370342,-0.110129923,-0.208720446,0.119678855,-0.199976042,-0.078778461,0.091731191,-0.129260138,-0.150268376,-0.308759481,-0.04077135,0.324205786,0.13154614,-0.211157575,0.04395432,-0.023803316,0.007776848,0.158057675,0.148275554,0.026023975,0.022120511,-0.094796844,-0.014244968,0.272192568,-0.023105964,0.013724254,0.217275903,0.034030207,0.026535733,0.067040205,0.062091548,-0.078760907,0.033047203,-0.096094139,0.021302154,-0.055372044,-0.028664093,0.004575402,0.129934669,-0.114980265,0.203126684,-0.053219162,0.043815754,0.015890865,0.011984288,-0.070543624,-0.053901035,0.095890373,-0.204139635,0.123096526,0.158623859,0.036800887,0.076501742,0.113845982,0.152049676,-0.093402632,0.033560291,-0.228177771,-0.023706308,0.077726051,-0.066510297,0.107305087,0.0214082,dog_girl
sh5,-0.087542564,0.051050339,0.049837634,-0.069910787,-0.096974485,-0.006362583,-0.07446488,-0.0700192,0.142046705,-0.163300589,0.198876441,-0.070228674,-0.158437595,-0.041882556,-0.047264934,0.222691402,-0.161808535,-0.171294108,-0.024672978,0.004175722,0.088417746,0.057405423,-0.024687434,0.049802676,-0.200301558,-0.314940155,-0.074362636,-0.067806676,-0.045842342,-0.078359619,-0.040011808,0.068287991,-0.143634737,0.037106469,0.070802122,0.133142337,-0.00094425,-0.078726672,0.137691587,0.013394323,-0.315113246,0.022319261,0.057270452,0.259349316,0.188566715,-0.045091603,-0.012540059,-0.135460228,0.119609445,-0.167020753,0.007932559,0.133791521,0.021776345,0.074966878,0.030785337,-0.105455339,0.052699454,0.113627896,-0.107289463,-0.023629952,0.070149951,-0.064284757,0.021851636,-0.092844114,0.164585039,0.052913349,-0.130590975,-0.209329039,0.103283271,-0.151691601,-0.07370276,0.098971762,-0.183714151,-0.1844282,-0.302512079,-0.045094207,0.362250835,0.090265341,-0.172336996,0.063946418,0.028858133,0.015111412,0.133604825,0.214480147,0.030001815,0.043166962,-0.04551914,0.057460796,0.247648641,-0.061323896,-0.016886586,0.201309755,-0.041555241,0.046362858,0.015205601,0.042979114,-0.053580411,0.057918668,-0.078206293,0.014868836,0.019420329,-0.027189296,-0.005341687,0.172794908,-0.147824094,0.13770169,-0.012883052,0.070102714,0.036290832,0.057907443,-0.067048796,-0.066679776,0.117189489,-0.196435794,0.158760041,0.179978147,0.046428058,0.058226943,0.097070299,0.076973915,-0.026701909,0.006130739,-0.241595775,0.034078699,0.047337163,-0.061466724,0.048242986,-0.019137917,dog_girl
sh6,-0.117978856,0.048844207,0.071413755,-0.054986596,-0.104256645,-0.007449535,-0.068850003,-0.128185004,0.081662633,-0.184069097,0.174676418,-0.115667842,-0.185067311,-0.032219078,-0.086303107,0.21491681,-0.154825985,-0.152815163,-0.039853677,0.04179601,0.10575293,0.077697471,-0.01616504,0.034136247,-0.174110532,-0.290876299,-0.111162655,0.001649225,-0.082828552,-0.037003838,-0.08281143,0.039143343,-0.170503587,0.038486488,0.030797997,0.153351694,-0.035659537,-0.073996544,0.116431341,0.04461918,-0.289254874,0.039100215,0.082578309,0.230160534,0.196707278,-0.004094898,-0.029958474,-0.136738643,0.070266083,-0.203824714,0.03226215,0.144877791,0.05027768,0.079714425,0.008975605,-0.094403766,0.033832889,0.166469306,-0.083175987,-3.39791E-05,0.098024927,-0.087382965,0.012543828,-0.087557361,0.147154897,0.094539918,-0.117397025,-0.22643666,0.109524131,-0.185791925,-0.129344389,0.076439977,-0.1256769,-0.18791537,-0.319563299,-0.044285171,0.319456756,0.122922324,-0.198090449,0.030392651,0.006493964,0.025810994,0.158439159,0.186615884,0.050459411,0.022517543,-0.107948579,-0.016903847,0.250946462,-0.061788589,-0.006028886,0.2381403,0.015169017,0.010927858,0.030140912,0.029179407,-0.062020533,0.039552871,-0.098663159,-0.012372838,-0.003641439,-0.035544172,-0.045845162,0.166937843,-0.142406881,0.181964129,-0.036428008,0.038169738,0.031154927,-0.026621429,-0.074832931,-0.040209096,0.112397239,-0.205257103,0.106062613,0.174309969,0.02328084,0.082903713,0.13160184,0.125297695,-0.031406306,0.018081089,-0.256784737,-0.018314186,0.06451752,-0.064795591,0.05172668,0.014311778,dog_girl
sh7,-0.11366713,0.044541243,0.053020891,-0.061502546,-0.079324245,-0.044967178,-0.091535807,-0.143814579,0.088022858,-0.168783829,0.179395869,-0.075994097,-0.148609489,-0.0318949,-0.055477925,0.160659343,-0.145803764,-0.150970683,-0.036989763,0.040646371,0.118889384,0.057903856,-0.022468396,0.047863137,-0.190632924,-0.282574743,-0.114994466,0.005559495,-0.058707375,-0.018654838,-0.052064087,0.060716458,-0.19591333,0.029928306,0.026698118,0.166248336,-0.028867802,-0.035261676,0.122460946,0.02216975,-0.285201222,0.059078291,0.093987003,0.231749192,0.228927076,-0.033813041,-0.017722141,-0.158968523,0.08658541,-0.161763415,0.038146526,0.163387358,0.058152106,0.088056803,0.047611821,-0.098554708,0.048771434,0.14857547,-0.077373877,0.009598048,0.089190513,-0.079969577,0.018316332,-0.104186565,0.135963142,0.041674223,-0.10078796,-0.21703428,0.105226427,-0.170008361,-0.111716338,0.110378355,-0.146574214,-0.197929859,-0.336192966,-0.029575322,0.3259978,0.128861874,-0.192281201,0.113666892,0.004529542,-0.010332353,0.150060236,0.166390032,0.048392229,0.044277862,-0.095392361,0.028321125,0.243467808,-0.032499239,0.014819128,0.227715626,0.004724652,0.017552415,0.050717648,0.026615994,-0.08044716,0.026408007,-0.127743408,-0.030438356,-0.012866038,-0.045593675,-0.02406464,0.152962834,-0.144365981,0.178876624,-0.008287791,0.056924194,0.029080067,0.002308983,-0.071526363,-0.055985924,0.1053074,-0.21695891,0.122002102,0.133327618,0.032489032,0.081698857,0.12404342,0.133362696,-0.057525408,0.033675272,-0.232392162,0.024853719,0.048556481,-0.052614979,0.071700513,0.023242069,dog_girl
sh8,-0.123606704,0.029828735,0.057201404,-0.047661413,-0.072681852,-0.015597491,-0.069652438,-0.111621276,0.072772577,-0.16451028,0.217917189,-0.083325386,-0.168718472,-0.066741191,-0.070866123,0.189838275,-0.181968793,-0.145633399,-0.04650376,0.044649415,0.132248491,0.085416645,-0.047837906,0.021544892,-0.141650572,-0.317281723,-0.095853209,-0.016177557,-0.023711968,-0.041748028,-0.020988397,0.044773269,-0.164708465,0.029271021,0.041241314,0.152651846,-0.00759927,-0.076091096,0.110341907,0.034538306,-0.259354562,0.022437148,0.086183824,0.241888389,0.223978415,0.00098722,-0.018745957,-0.151212305,0.107316665,-0.178481087,-0.007393515,0.120417371,0.088466838,0.11007566,0.025070552,-0.09423209,0.037417412,0.129034668,-0.098958269,-0.021940969,0.064350843,-0.087979279,0.055399939,-0.090064384,0.166313529,0.010131865,-0.115316816,-0.191843539,0.131757706,-0.17099829,-0.120444603,0.080215588,-0.135748222,-0.164499953,-0.323431581,-0.013105642,0.332728475,0.112142034,-0.175390601,0.048777081,0.007400738,0.007685336,0.133841038,0.174019217,0.044379063,0.007458759,-0.093004391,-0.009185418,0.25901106,-0.056164861,0.011244792,0.214387044,-0.004436134,0.013347618,0.047052778,0.017709218,-0.062906027,0.049080513,-0.094347164,-0.020620449,-0.024797263,-0.032135643,0.012703177,0.157958984,-0.104196653,0.145698175,-0.030327694,0.044399474,0.046055485,-0.008442152,-0.076589413,-0.071158312,0.096802108,-0.195365518,0.122507237,0.155879512,0.05665455,0.095052831,0.112550847,0.148035675,-0.061523106,0.021645769,-0.217765599,-0.000206432,0.056123354,-0.018562548,0.047519036,-0.013384722,dog_girl
sh9,-0.111915253,0.072702177,0.057434961,-0.121399567,-0.089103095,-0.030612931,-0.090533443,-0.139436975,0.136692435,-0.173522949,0.192583263,-0.086183704,-0.179933548,-0.024214031,-0.034704819,0.239575192,-0.21443288,-0.198821768,-0.011527584,0.056437325,0.10097719,0.041479237,-0.026938219,0.071174212,-0.174565092,-0.331228644,-0.130614206,-0.03533823,-0.067885838,-0.039189059,-0.06165855,0.054486874,-0.196719378,0.046627812,0.052662786,0.145360619,0.016954962,-0.095375896,0.115859523,0.045623355,-0.294830263,0.089851648,0.091593064,0.208439946,0.197859466,-0.046196695,0.011084393,-0.180398464,0.105745845,-0.179502875,0.024267444,0.126696274,0.065619588,0.063861504,0.033559263,-0.133798718,0.047339566,0.139478892,-0.133509383,-0.004133466,0.119953968,-0.053173054,0.011250657,-0.123187259,0.165692091,0.103711933,-0.108881362,-0.241546363,0.104199514,-0.141914591,-0.104734465,0.077215932,-0.184251115,-0.192551315,-0.314030409,-0.025860885,0.307712495,0.141202629,-0.1977707,0.09153609,0.008392223,0.026259646,0.107890822,0.171064854,0.029313311,0.050422061,-0.084364176,0.043570656,0.264984071,-0.037791636,0.024899485,0.227155834,-0.021253115,0.060921311,0.009112488,-0.016486753,-0.069108725,0.016638588,-0.1477274,-0.02069998,-0.085165419,0.021268051,-0.04316799,0.165982544,-0.148680925,0.124526367,-0.028608669,-0.007392043,-0.049435493,0.027287433,-0.054899592,-0.040723681,0.089157745,-0.200486019,0.144887507,0.171043858,0.073184408,0.063152827,0.101620071,0.085683741,-0.048764616,0.012163539,-0.249737069,0.043385975,0.107030123,-0.063020006,0.077277966,-0.005287036,dog_girl
sh10,-0.143545479,0.067168742,0.077621959,-0.088941924,-0.114273369,-0.037422337,-0.110530302,-0.145017043,0.094872698,-0.16654861,0.188189849,-0.0643612,-0.138903886,-0.038603641,-0.075442217,0.210224956,-0.198275089,-0.158162311,-0.039963234,0.026926778,0.110236987,0.092274971,0.022354567,0.045241997,-0.146130502,-0.304309815,-0.08862216,-0.041384183,0.013759469,-0.020771565,-0.044392139,0.048193589,-0.178185552,0.030452773,0.021262687,0.201547891,0.002992151,-0.116969191,0.114092425,0.018138099,-0.300169706,0.078823783,0.063660331,0.233640894,0.244989663,-0.032245584,0.027457278,-0.159817889,0.10900978,-0.155398875,0.022876829,0.089999586,0.053289551,0.034703918,0.045642052,-0.146896407,0.063047439,0.123262651,-0.137884513,-0.015064846,0.129959151,-0.074147865,0.067764558,-0.114146709,0.176912621,0.09359739,-0.08987239,-0.214842662,0.132072181,-0.176811844,-0.092424221,0.111123078,-0.149773568,-0.140217155,-0.309380531,-0.061792012,0.353543639,0.139818996,-0.167623907,0.073231108,0.030628035,0.028673556,0.154565856,0.189272389,0.022440156,0.050541326,-0.123534672,-0.005744176,0.262227774,-0.017268803,-0.031234508,0.203583017,0.011211709,-0.001742559,0.069229752,0.001543249,-0.093747556,0.026967751,-0.12445958,-0.022600356,-0.073947243,-0.046923585,-0.02476453,0.127540439,-0.089935839,0.149508268,-0.053792201,0.044213943,-0.034966305,-0.018553805,-0.059013326,-0.001009175,0.129330739,-0.17668061,0.14547725,0.139044672,0.066131927,0.118487492,0.141104311,0.141006321,-0.076950654,0.031254824,-0.218704835,-0.002385702,0.050470721,-0.077768452,0.16404061,0.044055097,dog_girl
sh11,-0.084347248,0.054740429,0.074712664,-0.089359492,-0.095895484,0.012553759,-0.073251665,-0.08157292,0.113457024,-0.165802032,0.183776572,-0.070620313,-0.183676139,-0.029353794,-0.065662742,0.25913167,-0.213815451,-0.166235626,-0.008485571,-0.007989446,0.061080083,0.0703924,-0.024641164,0.045443103,-0.174609303,-0.295793802,-0.067304514,-0.010039969,-0.074902408,-0.071889855,-0.028582368,0.112786017,-0.173491955,0.071243852,0.046560194,0.135949492,0.004645292,-0.057577357,0.148877814,0.038082756,-0.29406333,0.049192932,0.107002571,0.252808303,0.190648392,-0.025153372,-0.04074252,-0.114108115,0.073039889,-0.162186384,0.045063555,0.129703522,0.081399873,0.071940258,0.0067426,-0.123394065,0.025616273,0.107609354,-0.087886505,-0.033705778,0.091533214,-0.10426975,0.03861776,-0.113294981,0.162071824,0.048163749,-0.105796613,-0.201172501,0.119577736,-0.13117595,-0.108549468,0.072862104,-0.143982247,-0.162600443,-0.307097763,-0.028393939,0.271756619,0.118591599,-0.185270801,0.066656001,0.058891173,-0.007321537,0.120593145,0.221833095,0.030422622,0.034193408,-0.030671755,0.04642655,0.221168384,-0.040561844,-0.017147806,0.210522562,-0.011601131,0.014201617,0.002110838,-0.009346918,-0.025122188,0.077509329,-0.112733372,0.016282799,-0.039051905,-0.01588225,-0.016560627,0.162175477,-0.152371213,0.142185777,-0.013259159,0.024958618,0.011682808,0.06421867,-0.066299878,-0.060396299,0.111649022,-0.224667758,0.146798164,0.180722326,0.026682664,0.078775153,0.104450427,0.134234741,-0.014858139,-0.007739813,-0.23786968,0.01684203,0.102638841,-0.084732726,0.094424315,0.036668442,dog_girl
sh12,-0.118585624,0.06432429,0.06454064,-0.063012853,-0.091701023,0.003892231,-0.079133175,-0.110495552,0.124773026,-0.167160973,0.204409033,-0.064223319,-0.16903469,-0.074373484,-0.051674426,0.26408416,-0.216233686,-0.188398331,-0.057565626,0.037863079,0.088125661,0.076491825,-0.017303349,0.063665815,-0.19647488,-0.333785146,-0.09128949,-0.015789667,-0.05942525,-0.084393211,-0.080451794,0.125150487,-0.175728545,0.020973064,0.05089635,0.179147348,0.012677992,-0.023401331,0.107567556,0.027856786,-0.279873461,0.072784841,0.101517625,0.262112975,0.239266232,0.011265775,-0.019990379,-0.144739583,0.092557773,-0.204848707,0.011679208,0.132282719,0.088462785,0.104907744,0.014521394,-0.108805463,0.032767415,0.106716365,-0.113117628,-0.031155463,0.083681554,-0.100501359,0.043400623,-0.109672107,0.155147418,0.038321808,-0.107881516,-0.193494052,0.098864675,-0.1655837,-0.10725759,0.074866667,-0.149514183,-0.176953942,-0.351262063,-0.056658257,0.320733786,0.136184394,-0.207834497,0.06173005,0.032045323,-0.012647593,0.090743341,0.168209016,0.016026186,0.031183347,-0.091881104,0.051887192,0.249404982,-0.03751649,0.043494843,0.229346603,0.024525691,0.035554476,0.028339295,0.026864447,-0.05241318,0.042775366,-0.127770156,-0.000283826,-0.078702614,0.003896452,-0.012199042,0.142853871,-0.118774705,0.193314523,-0.0277909,0.038064752,-0.015044389,0.032182489,-0.06874229,-0.066736281,0.111884825,-0.199926645,0.100683942,0.196206585,0.025851928,0.084030375,0.083604686,0.151439682,-0.084120527,0.021297291,-0.230354443,0.013922983,0.111173071,-0.09781424,0.085966319,0.020847831,dog_girl
sh13,-0.099202909,0.044963948,0.029449711,-0.056031965,-0.109712958,-0.031230191,-0.09329439,-0.13792555,0.101862609,-0.153090715,0.187681288,-0.050238058,-0.168557405,-0.037593704,-0.082959443,0.211100355,-0.183914721,-0.161293238,-0.017949682,0.043255471,0.117414981,0.08668787,0.00205188,0.035683796,-0.202224106,-0.291273594,-0.084481359,-0.041333582,-0.05230451,-0.014139541,-0.007660905,0.063027628,-0.180940092,0.052363902,0.075769693,0.182460964,0.015244829,-0.054156795,0.135940269,0.039540138,-0.286158562,0.057041682,0.108258881,0.232452914,0.176888496,-0.042320181,0.015676063,-0.205169186,0.108536072,-0.177745849,0.022712853,0.110866509,0.050705768,0.077558048,0.046095416,-0.09255477,0.075696334,0.128889918,-0.134567454,0.004152824,0.147283882,-0.041635647,0.010950068,-0.129068553,0.151338831,0.010431226,-0.114021786,-0.208853409,0.096734151,-0.186598703,-0.128611088,0.125078112,-0.121690735,-0.200227022,-0.35024038,-0.032123037,0.339057624,0.183338806,-0.17534101,0.072346322,0.038881686,0.007086791,0.138663322,0.158437014,0.053124793,0.0573311,-0.099089906,0.037960526,0.269662827,-0.044761874,0.026086621,0.235851169,0.024051733,0.04000311,0.014602678,0.024837531,-0.083053388,0.026961677,-0.14035213,-0.012919059,-0.048189633,0.002221278,0.013623923,0.137281328,-0.1166398,0.144308716,-0.048136301,-0.012740847,-0.004647788,0.014575346,-0.089850925,-0.050931968,0.111280285,-0.19791624,0.130929485,0.142821491,0.085614704,0.073427305,0.124019958,0.119647361,-0.078319311,0.006631332,-0.227072939,0.000337158,0.054208808,-0.084582128,0.090397961,-0.006051856,dog_girl
sh14,-0.081382386,0.032056153,0.057348978,-0.059571661,-0.107059263,0.006040438,-0.107084103,-0.08753822,0.073785983,-0.185141921,0.219922185,-0.075049736,-0.149081931,-0.045587167,-0.039145496,0.226179823,-0.165655121,-0.173708305,-0.045252122,0.041625921,0.096900336,0.078624733,-0.008157152,0.077415429,-0.162697345,-0.346535206,-0.108279549,0.013862384,-0.033495754,-0.071068011,-0.059331097,0.081771642,-0.22174333,0.035204247,0.059889272,0.157903671,0.001641366,-0.088747188,0.117101483,0.0456216,-0.276447386,0.057418332,0.084418818,0.196654022,0.243173525,-0.016572339,-0.008132504,-0.152595103,0.092765488,-0.212033182,0.051191807,0.134280816,0.077374153,0.081670299,0.001096359,-0.094556518,0.027395476,0.166845456,-0.09813612,-0.032126684,0.067396171,-0.077738494,0.061101481,-0.116355918,0.159718812,0.084773965,-0.084147125,-0.22994104,0.137915045,-0.178184345,-0.096750841,0.079258569,-0.13326396,-0.16960606,-0.315611571,-0.017725538,0.327649444,0.141557351,-0.198437631,0.082263276,0.01746475,0.00477158,0.096618384,0.168656468,0.035448864,-0.008873941,-0.07453128,0.023347765,0.278664947,-0.012465472,0.021050341,0.229220003,-0.0101947,0.038560759,0.090212561,-0.001140508,-0.06258522,0.019070623,-0.119870029,-4.5422E-05,-0.138818458,-0.014117586,-0.030441126,0.165332347,-0.108116433,0.168295547,-0.072254442,0.012043286,0.013948744,0.028511947,-0.06108683,-0.086673081,0.082057372,-0.19737643,0.108245477,0.128495455,0.049207915,0.116165131,0.111661524,0.199666113,-0.052910641,0.007394907,-0.242441565,0.02295226,0.093320437,-0.080846399,0.062642507,-0.000890647,dog_girl
sh15,-0.093828917,0.071021453,0.050673991,-0.094116367,-0.101972327,0.010163322,-0.056691054,-0.071743049,0.154094607,-0.164805144,0.186015829,-0.098506451,-0.18064414,0.006842733,-0.034387946,0.240919545,-0.182268709,-0.17035681,-0.044583715,0.029379135,0.088212967,0.082816429,-0.037112843,0.054478474,-0.166539326,-0.320055246,-0.091743432,-0.008391308,-0.056998245,-0.074694701,-0.060760878,0.116802581,-0.169932395,0.02398411,0.047935136,0.142125249,-0.003013066,-0.043167736,0.130534679,0.03991456,-0.328179002,0.085930824,0.076484524,0.249369353,0.201774299,-0.017661858,-0.036251567,-0.134270623,0.066453673,-0.175397426,0.013821482,0.16035597,0.048433959,0.081876732,0.009861199,-0.093866095,0.027355652,0.092654355,-0.100954615,-0.026164239,0.121435776,-0.085739389,0.035526648,-0.109372213,0.127265885,0.041850649,-0.105170116,-0.214603022,0.095280267,-0.150398925,-0.10633713,0.092467286,-0.160302252,-0.187403843,-0.304119498,-0.02765164,0.314399511,0.096503153,-0.173126385,0.094016619,0.043308835,-0.005492249,0.118519723,0.192228809,0.02923933,0.044201404,-0.047481216,0.064565979,0.245916411,-0.048311457,0.010301683,0.236732751,-0.011177179,0.036099151,0.026372172,0.062008526,-0.012043421,0.044458829,-0.113762207,0.024323458,-0.008032333,-0.041837983,-0.037145749,0.157216445,-0.158424973,0.167182267,-0.023545995,0.05780929,0.008893058,0.063211672,-0.058984071,-0.052199848,0.125495508,-0.210752815,0.126374468,0.188721329,-0.001583057,0.047343329,0.099694945,0.121139802,-0.030922845,0.00620764,-0.255093157,0.000639459,0.091359578,-0.048311658,0.056083992,0.03017782,dog_girl
sh16,-0.091421515,0.064929433,0.075023495,-0.041616015,-0.093674488,-0.012706494,-0.085366972,-0.148861796,0.076189101,-0.164923713,0.20013845,-0.090014338,-0.18806529,-0.061737861,-0.087510213,0.204375997,-0.162586823,-0.147214577,-0.030935951,0.02965587,0.117915668,0.070447534,-0.00789014,0.046763174,-0.195641965,-0.277027696,-0.09182927,0.004977584,-0.066795148,-0.012493703,-0.097622827,0.058066711,-0.185240343,0.042510401,0.025367972,0.155639187,-0.016808489,-0.059378657,0.128620803,0.052607287,-0.244965211,0.071876347,0.060513049,0.236115456,0.21503225,-0.016026637,-0.000663528,-0.145985112,0.091438584,-0.199991956,0.031820212,0.152619645,0.055308852,0.081975579,0.006007012,-0.128621459,0.028092589,0.137282118,-0.075065292,-0.000176672,0.071145944,-0.077540725,0.007217918,-0.09933529,0.151896209,0.0708327,-0.100651719,-0.229550019,0.095655158,-0.173705861,-0.125948414,0.094446398,-0.152106196,-0.165314168,-0.344685018,-0.024519749,0.331250906,0.134927899,-0.222690612,0.048196271,0.002262986,0.027240317,0.161546618,0.155035317,0.044497196,0.03670077,-0.130816489,0.008670955,0.246805891,-0.064028069,-0.01972248,0.258104682,0.036322232,0.040468019,0.03960612,0.009421902,-0.060660034,0.038108472,-0.107591078,-0.018585451,0.006383438,-0.01670472,-0.020961294,0.157198146,-0.139705628,0.168643922,-0.040657416,0.047677301,0.02332662,-0.021342443,-0.101032399,-0.039541278,0.115667634,-0.21523869,0.108786948,0.159930587,0.045030307,0.077903554,0.129991606,0.118910372,-0.05574714,0.030617639,-0.222697333,-0.004241844,0.072768442,-0.065977193,0.07458657,0.019656016,dog_girl
sh17,-0.12369898,0.057570815,0.065081984,-0.079713255,-0.136543706,-0.043709394,-0.075798392,-0.086608998,0.133325636,-0.175822288,0.133326784,-0.078112289,-0.187112629,-0.050669726,-0.012503793,0.239045441,-0.143225789,-0.149202511,-0.056911763,0.050765559,0.086093068,0.061506439,-0.004365159,0.080626614,-0.150874585,-0.363364875,-0.107225016,-0.02083642,-0.057301249,-0.02946059,-0.085991129,0.140252993,-0.158597156,-0.047739524,0.037135139,0.167739674,0.011799298,-0.008323072,0.117397867,0.023708422,-0.324180096,0.071695179,0.096625447,0.239860311,0.174674883,0.016901588,0.025867641,-0.126589969,0.112027816,-0.206715703,0.027839951,0.127893373,0.051056273,0.078590214,0.066607222,-0.079664938,0.058962893,0.136051834,-0.152665675,0.011643426,0.114347503,-0.061595224,0.010695301,-0.108961828,0.176557079,0.084788829,-0.099865474,-0.192394227,0.118218273,-0.157180518,-0.117344446,0.075248919,-0.14810805,-0.157877535,-0.327780366,-0.020646311,0.35370779,0.159844443,-0.193486899,0.073430046,0.004768543,-0.030840036,0.127280608,0.172165319,0.040100452,0.033071086,-0.04605652,0.041678153,0.223514825,-0.023242187,0.040155843,0.236304015,0.068332732,0.074471846,0.011991337,0.039588213,-0.082270026,0.019340273,-0.164957091,-0.001907817,-0.004241695,-0.00258687,-0.007963309,0.132370979,-0.132631272,0.198238626,-0.021233484,0.041995566,0.002097544,0.07818532,-0.072749197,-0.056098543,0.086329423,-0.173623115,0.135102898,0.166882187,0.003231607,0.05697339,0.103592619,0.114619583,-0.021124549,-0.004597729,-0.217569292,-0.030333091,0.151456922,-0.086356789,0.069209442,0.029643161,dog_girl
sh18,-0.135949671,0.058769852,0.083107732,-0.099814892,-0.111992486,0.010638006,-0.081944928,-0.120863274,0.095156968,-0.204473957,0.192183763,-0.058233839,-0.166200712,-0.050784655,-0.061673235,0.206433788,-0.187422648,-0.173670545,-0.047199219,0.045378327,0.084412724,0.116124727,0.014286938,0.048038587,-0.128958762,-0.352009654,-0.123972885,-0.035715338,0.000123176,-0.046856187,-0.07491532,0.033401556,-0.19100672,0.020008789,0.034876179,0.206508338,0.001836106,-0.095292918,0.098196872,0.051064819,-0.276645362,0.085517019,0.053343896,0.23452954,0.242757142,-0.015553491,-0.002145126,-0.178364456,0.097496457,-0.190250427,0.041324362,0.120509118,0.071976162,0.043467786,0.030766416,-0.119870797,0.054731339,0.109023839,-0.146734044,-0.029806986,0.120546632,-0.066168666,0.036530793,-0.111043431,0.144732654,0.093466692,-0.084031314,-0.253415644,0.148527771,-0.207976684,-0.071875028,0.099767253,-0.153162733,-0.138528466,-0.276666701,-0.041152067,0.334631681,0.154015973,-0.152506396,0.074887224,-0.020195145,0.027324921,0.111047767,0.167444527,0.032908387,0.021121047,-0.096083164,0.030576643,0.224377543,-0.029194348,0.011355466,0.213343561,0.001646507,0.027357647,0.086517505,-0.002860819,-0.089027382,0.037727423,-0.114092968,0.004943132,-0.094484851,-0.049626686,-0.013915394,0.142914042,-0.114128262,0.169561058,-0.083027884,0.014314053,0.018534366,-0.034106456,-0.061249696,-0.03391264,0.136444196,-0.207645103,0.12797384,0.161652654,0.018510839,0.109781124,0.121688433,0.171558902,-0.077201858,0.014655627,-0.271725029,0.007824697,0.054540344,-0.097920023,0.086881191,0.004212442,dog_girl
sh19,-0.109400526,0.046915747,0.031628951,-0.090756923,-0.102401465,-0.021339677,-0.068717465,-0.134766623,0.07273069,-0.171306521,0.219287723,-0.058567569,-0.128890485,-0.045303728,-0.07412573,0.205407053,-0.1721953,-0.125483602,-0.031415228,0.038601801,0.124877401,0.086947948,-0.041269593,0.050634488,-0.16484192,-0.274575114,-0.110933006,0.009811562,-0.084102042,-0.00387975,-0.04594646,0.06562265,-0.179548889,0.044514522,0.056880105,0.149733037,-0.022525571,-0.057628393,0.106618538,0.06512522,-0.259208381,0.072815686,0.10605976,0.229670823,0.21964097,-0.021979837,-0.012135748,-0.125510737,0.102877796,-0.204985842,0.015825279,0.121152453,0.070465699,0.063049033,0.016020302,-0.100919291,0.042460945,0.13553457,-0.105101004,-0.019976631,0.08851859,-0.105735153,-0.013755171,-0.105486915,0.138260916,0.098370455,-0.12231984,-0.223078623,0.113786452,-0.159548476,-0.131508559,0.068726912,-0.147488937,-0.185087025,-0.3155258,-0.0104461,0.333053321,0.136545867,-0.182375491,0.067873888,0.01770927,0.037319377,0.139229715,0.157899737,0.058827646,0.004183967,-0.097757898,0.012204447,0.237912089,-0.049859233,-0.000291923,0.241875052,-0.008678016,0.024983622,0.028667238,0.030771108,-0.059504457,0.045314305,-0.088611417,0.005719543,-0.022425197,-0.045591895,-0.017476575,0.16685462,-0.151209041,0.179157883,-0.061819632,0.045807682,0.01861627,-0.023360606,-0.067037746,-0.016123286,0.076148622,-0.198383123,0.132606298,0.143421724,0.014414225,0.096192792,0.1251138,0.11713437,-0.046331096,0.010577003,-0.256147176,-0.023464557,0.052046251,-0.06862469,0.062250961,0.000698938,dog_girl
