name,1,2,3,4,5,6,7,8,9,10,11,12,13,14,15,16,17,18,19,20,21,22,23,24,25,26,27,28,29,30,31,32,33,34,35,36,37,38,39,40,41,42,43,44,45,46,47,48,49,50,51,52,53,54,55,56,57,58,59,60,61,62,63,64,65,66,67,68,69,70,71,72,73,74,75,76,77,78,79,80,81,82,83,84,85,86,87,88,89,90,91,92,93,94,95,96,97,98,99,100,101,102,103,104,105,106,107,108,109,110,111,112,113,114,115,116,117,118,119,120,121,122,123,124,125,126,127,128,result
gl1,-0.073010541,0.039946716,-0.050891049,-0.110640459,-0.073985994,-0.036078967,-0.078859106,-0.107812278,0.135071367,-0.111213326,0.20233041,-0.088311121,-0.20110403,-0.084172644,-0.104405679,0.21163483,-0.166284934,-0.176727816,-0.036068812,0.008546165,0.094304442,-0.01247073,-0.005621696,0.104854383,-0.093240097,-0.268145025,-0.099976331,-0.053202473,-0.018043613,-0.07399895,0.009691115,0.037672192,-0.224915519,-0.026653582,0.065279283,0.131257296,0.009401494,-0.118086606,0.181804061,0.040911458,-0.260874271,0.09079881,0.037469767,0.246756569,0.137908518,-0.009485147,0.007618958,-0.240692064,0.151050329,-0.152864039,0.058083102,0.160112172,0.032361511,0.035855472,-0.019786634,-0.11067199,0.090455391,0.171582162,-0.199109167,0.006416732,0.09149193,-0.038067266,-0.03590212,-0.148328692,0.165346369,0.109878317,-0.123615757,-0.266262233,0.144330114,-0.137801945,-0.083766773,0.142834842,-0.129056439,-0.204678789,-0.283955753,0.026134204,0.380419642,0.123196706,-0.176250502,0.105934009,-0.011558438,-0.008667262,0.130080983,0.191139027,0.02279976,0.049318861,-0.063699298,0.018717535,0.243375108,-0.028271057,-0.062216192,0.197675899,-0.023694538,0.049756732,0.047367074,0.048396137,-0.070215568,0.057378624,-0.146334097,-0.033792131,0.022302432,-0.012145772,-0.027600538,0.074822091,-0.104098387,0.12258976,-0.01482478,-0.005192233,-0.023310307,-0.027098443,-0.072371751,-0.005974146,0.124106005,-0.253651828,0.254979134,0.115473084,0.136930346,0.084364623,0.158685833,0.099084459,-0.001400325,-0.064871691,-0.228292227,-0.010071614,0.100023441,-0.013272548,0.140125811,-0.030270491,dog_man
gl2,-0.116029814,0.02065846,-0.042589862,-0.08364661,-0.09515696,-0.06134614,-0.031269342,-0.135444909,0.120205291,-0.072947539,0.230100289,-0.071458869,-0.16302219,-0.134007365,-0.070329994,0.162612751,-0.193237916,-0.192139611,-0.026199821,0.023628412,0.098079428,-0.046820138,0.031737816,0.116076469,-0.093696125,-0.312919766,-0.087485462,-0.096362695,-0.002727089,-0.044796217,0.029827636,-0.001451238,-0.22923255,-0.030974338,0.014281998,0.127151504,-0.007202311,-0.103209101,0.201923311,-0.00752377,-0.272393912,0.05808397,0.06105087,0.248990044,0.189557374,0.01420416,-0.004212225,-0.18446511,0.119571179,-0.14178513,0.02048609,0.164204657,0.065798834,0.007390783,-0.02887544,-0.079592749,0.054270767,0.191209719,-0.187158719,0.001555625,0.068042673,-0.03190425,-0.013991162,-0.151228324,0.246083871,0.109849446,-0.15339756,-0.199066192,0.14217557,-0.155124515,-0.143417418,0.101731293,-0.150324613,-0.204435647,-0.315228403,0.006484344,0.394036055,0.102507867,-0.198699251,0.042345487,-0.063294798,0.028416734,0.136522695,0.190109402,0.020447198,-0.000586259,-0.127765313,-0.037037611,0.22267966,-0.020622773,-0.050159015,0.18104744,-0.007822799,0.055874623,0.009238159,0.046770353,-0.074856497,0.095612757,-0.161006749,-0.026444327,0.002548452,0.028540555,0.005908777,0.110236444,-0.10062176,0.089314103,0.013314073,0.01264724,0.012530055,-0.021551808,-0.056153197,-0.054168206,0.088426612,-0.252352864,0.245037675,0.14674437,0.11923518,0.099421494,0.144583106,0.089965358,-0.033334721,-0.034520395,-0.259452522,0.027013136,0.073853686,-0.026628312,0.136915222,-0.004415601,dog_man
gl3,-0.08613269,0.049031846,-0.00595349,-0.059442628,-0.081238344,0.031752221,-0.077195868,-0.081313103,0.08848343,-0.12065728,0.200633347,-0.131418869,-0.211541697,-0.088259637,-0.030646339,0.210052744,-0.222437367,-0.166518226,-0.008294917,0.038513988,0.007358396,0.011081988,-0.016958958,0.111172639,-0.119345032,-0.326581717,-0.042938404,-0.118655391,0.001269027,-0.02297245,-0.018879222,0.04752535,-0.160614789,-0.014760125,0.047136296,0.123908684,-0.048804201,-0.105863094,0.169972226,-0.010540314,-0.23590219,0.057368509,0.083911665,0.263426155,0.187823787,0.006726411,0.003562594,-0.150364816,0.115999989,-0.219275698,0.054622404,0.134581462,0.037559144,0.082826748,0.040778048,-0.121933416,0.058684677,0.140617564,-0.175962836,0.020549977,0.049665712,0.016325049,0.077214874,-0.117108159,0.228635952,0.074781448,-0.091659553,-0.158125043,0.148030505,-0.171140015,-0.096704453,0.087131925,-0.106323801,-0.20225957,-0.267273992,0.0173728,0.308139771,0.169771075,-0.15119341,0.101820581,0.052176405,-0.062617131,0.13326104,0.186865941,0.035102762,-0.025198031,-0.017799307,-0.024028622,0.240316793,-0.016232133,0.002238019,0.204570755,-0.005215844,-0.053408638,0.10185051,-0.010774868,-0.046545714,0.037737168,-0.16325289,-0.02287687,-0.035942107,-0.062876217,-0.00024967,0.065284364,-0.14847216,0.124754734,-0.006011879,-0.017370608,0.024538379,0.01381648,-0.069447964,-0.009919975,0.169178247,-0.244980797,0.217847168,0.105696753,0.126985669,0.12950334,0.107302792,0.115101419,-0.025791839,-0.022769675,-0.185518667,-0.032094091,0.09493944,-0.038003456,0.110690936,0.021110304,dog_man
gl4,-0.071736962,0.064167112,-0.004818335,-0.070480958,-0.086249083,-0.0266598,-0.079158686,-0.106928416,0.129442632,-0.084832318,0.261262119,-0.109473385,-0.232918844,-0.07961344,-0.073062703,0.168443084,-0.171251968,-0.128779411,0.021370484,0.063248709,0.132648319,0.02275219,0.021469731,0.06952434,-0.096218631,-0.319936603,-0.090549864,-0.07300359,-0.060437609,-0.042432074,-0.026195366,0.056167942,-0.19853583,-0.030955013,0.049433488,0.129743233,0.003236326,-0.05951678,0.161226541,0.020138659,-0.24213244,0.079458587,0.069247007,0.247258976,0.18596074,0.038298424,-0.038367823,-0.228340298,0.112725131,-0.192213595,0.073481187,0.147902995,0.052794915,0.023188632,0.033273939,-0.113086589,0.02780652,0.159844443,-0.171779215,-0.013559936,0.101269439,-0.006554461,-0.00939114,-0.20703496,0.201185167,0.091037199,-0.119508594,-0.195597157,0.097292557,-0.13613838,-0.144662946,0.123617612,-0.143812701,-0.214903295,-0.305677474,0.038744837,0.368652552,0.144212902,-0.207027555,0.075916395,0.000780805,-0.003746441,0.152392119,0.128027946,0.05347804,0.002322602,-0.099194504,-0.037631202,0.223942816,-0.061433434,-0.021333875,0.209742099,-0.036985464,0.074265242,0.042195965,0.001140565,-0.062687486,0.067180932,-0.224298805,-0.050506428,-0.045057416,-0.020417083,-0.034758355,0.095555708,-0.147523895,0.073186189,0.004017656,-0.034340288,0.014485503,-0.03434173,-0.085084654,-0.018146221,0.126633316,-0.277472973,0.219315886,0.087939098,0.130897939,0.119260095,0.135119557,0.122974277,-0.042679694,-0.037080958,-0.246241182,-0.003108767,0.118916146,0.0022628,0.108570047,-0.022523861,dog_man
gl5,-0.112138346,0.067005336,0.012194808,-0.083546579,-0.124957144,0.032398954,-0.076346301,-0.102683961,0.12419571,-0.165410966,0.221392289,-0.119948559,-0.247752085,-0.076477304,-0.091005042,0.280221075,-0.233798325,-0.186193377,0.001789963,0.003453371,0.034086268,0.02841392,-0.021487547,0.07146246,-0.057210334,-0.329914033,-0.086000197,-0.058676466,-0.043187276,-0.072746977,0.003660257,0.056211978,-0.159438506,0.011381055,0.03093409,0.130697668,0.009106479,-0.118180022,0.116373062,-0.008394326,-0.246958032,0.076547503,0.111315042,0.276652932,0.164835975,0.016512856,-0.036868565,-0.17158033,0.116785757,-0.17508395,0.034640882,0.130568311,0.039875492,0.071320496,0.019790236,-0.142918989,0.063891448,0.131304473,-0.165931985,-0.025342971,0.038539451,0.006889014,0.06104707,-0.13416183,0.210644215,0.069528192,-0.098406412,-0.214517266,0.122796156,-0.15740259,-0.11605043,0.070896007,-0.175320879,-0.210392013,-0.300194889,0.015512807,0.301512867,0.13391082,-0.129555553,0.131726742,0.086305805,-0.044967912,0.087902926,0.227015346,0.044590615,0.02725246,-0.044128105,0.001559176,0.227668732,-0.063095585,-0.038233913,0.230577171,-0.035331428,-0.02876246,0.053986583,0.016057456,-0.017678402,0.065344922,-0.16989392,-0.044758193,-0.014652139,-0.054733481,-0.044780064,0.045553353,-0.161257386,0.10317798,-0.008558162,0.011680556,-0.042884588,-0.012569084,-0.074099399,0.027145218,0.177774206,-0.25451538,0.259059608,0.175006956,0.124067068,0.134572551,0.12441197,0.099052012,-0.003632886,-0.050901398,-0.164875552,-0.033089932,0.100653268,-0.046298373,0.114230402,0.043725189,dog_man
gl6,-0.090226904,0.045555279,-0.005709658,-0.089748926,-0.138244763,0.009587391,-0.051574398,-0.041224331,0.159433201,-0.065784484,0.250706643,-0.074745953,-0.18119517,-0.068920411,-0.095827252,0.210977733,-0.161630422,-0.197836295,0.006394088,0.043485075,0.066822439,0.025350535,-0.045455396,0.069524437,-0.171506017,-0.357237309,-0.07659357,-0.106451184,-0.031676628,-0.057476547,-0.024691567,0.051362388,-0.180169418,-0.016354958,0.076791495,0.123695239,-0.019190639,-0.068585984,0.156933993,0.05633514,-0.303098142,0.080713429,0.099426791,0.264980674,0.16114305,0.038445834,0.005731631,-0.184202924,0.127170607,-0.179866537,0.07898514,0.135864347,0.086840652,0.055747297,0.023505446,-0.0671966,0.03359231,0.199078798,-0.214471295,0.03294972,0.070945904,-0.03256597,0.01491506,-0.145640284,0.159676671,0.098774984,-0.083123505,-0.188290119,0.155283093,-0.182896152,-0.144095942,0.100355156,-0.091880515,-0.232432351,-0.304225177,0.027005296,0.316609263,0.166713998,-0.180161789,0.05466276,0.065080747,-0.007116465,0.137709811,0.130942166,0.013586922,-0.013005405,-0.093370743,-0.05261571,0.313515395,-0.038514066,0.036413029,0.206027076,-0.021197692,0.025050811,0.033510998,0.052468438,-0.070710115,0.067908041,-0.152048022,-0.035273243,-0.029975738,-0.016234268,-0.020957172,0.077096902,-0.175053999,0.080258511,-0.016278943,-0.040825058,-0.023019437,-0.005879127,-0.032595914,-0.043913011,0.140058547,-0.207961142,0.240224227,0.141836539,0.110128105,0.109647281,0.138490707,0.039443061,-0.03215285,-0.106306255,-0.220055014,-0.025426274,0.096928075,-0.065018073,0.092829943,-0.003574477,dog_man
gl7,-0.080597691,0.002394373,0.015344493,-0.091532201,-0.094380409,-0.009343175,-0.067145735,-0.100952864,0.107591629,-0.069516644,0.213743865,-0.041526537,-0.192609072,-0.097288847,-0.027651083,0.144259989,-0.209526882,-0.222841397,-0.024475455,-0.004339177,0.025708215,0.006877438,0.044541404,0.075787865,-0.134044081,-0.313424051,-0.0596558,-0.130746037,0.047228903,-0.034071289,-0.011712414,-0.007124073,-0.254724056,-0.019746481,0.088688657,0.149992272,-0.003545285,-0.124272764,0.184073091,-0.009828568,-0.260717154,0.049056035,0.05313047,0.225213259,0.16827777,0.011872103,-0.021926705,-0.167723507,0.100081503,-0.135533243,0.084783629,0.180751875,0.057056587,0.030785862,-0.022336673,-0.096569203,0.075082526,0.200845674,-0.209219351,-0.000840855,0.08338441,-0.03956534,0.012794537,-0.132925913,0.227364466,0.072433926,-0.118858889,-0.236795098,0.111599855,-0.147442877,-0.127684623,0.106701322,-0.147544935,-0.170602053,-0.270036161,0.015584212,0.356531948,0.125984997,-0.191697165,0.102143452,-0.053814922,-0.007115942,0.105486736,0.163026229,0.021511909,0.038895436,-0.087096855,-0.031859461,0.234618917,-0.014244428,-0.02879205,0.165938541,-0.039854191,0.013290646,0.061053425,-0.005991858,-0.079635762,0.052551813,-0.174974352,-0.078736864,-0.033414271,0.027014026,0.00104855,0.101989724,-0.144596636,0.077012844,0.002834329,-0.044265416,0.032109588,-0.026388891,-0.043963958,-0.09341085,0.118318878,-0.296190023,0.257563561,0.157435402,0.165364534,0.11967352,0.133991972,0.068412729,-0.020674938,-0.018034402,-0.237215176,-0.006268797,0.095033035,-0.024739303,0.146770671,-0.001205312,dog_man
gl8,-0.061160259,0.00308755,-0.007764868,-0.092519633,-0.114949644,-0.050292462,-0.105975159,-0.108990386,0.074620284,-0.118767552,0.214304209,-0.108234711,-0.185172409,-0.091469467,-0.037826188,0.165582329,-0.155397177,-0.18153213,-0.054072171,0.021799972,0.066059723,0.007160835,-0.008893318,0.100579493,-0.112934113,-0.326276779,-0.081226334,-0.057288893,0.006948495,-0.098550275,-0.028422177,0.010775474,-0.208188906,-0.008378526,0.063305058,0.141783804,0.03536896,-0.091169186,0.152895764,0.014623486,-0.268718928,0.108276755,0.030343473,0.240098,0.179213941,0.012623558,-0.010121766,-0.196630642,0.144876361,-0.133563429,0.034054495,0.146078318,0.067283429,0.026289154,-0.00805404,-0.087703034,0.067599587,0.149868816,-0.169603795,-0.009919666,0.08419653,-0.012496141,0.008313836,-0.139715269,0.192456663,0.022045217,-0.132133335,-0.236520991,0.056022298,-0.175864056,-0.117839895,0.103131518,-0.150211409,-0.177234247,-0.334089488,0.025438165,0.338774234,0.129146934,-0.240592793,0.089030251,-0.007046957,0.012238683,0.142136097,0.147382155,0.024506647,0.049994953,-0.094396338,0.008053563,0.246252656,-0.045328528,-0.017197669,0.199899659,-0.007551292,0.088349506,0.039366044,0.017260926,-0.073864453,0.046349443,-0.13630341,-0.009967953,0.010481759,0.032853227,0.00871453,0.099458948,-0.129666999,0.129283071,-0.014946789,-0.002887338,0.007183422,0.022836596,-0.097246811,-0.081606403,0.111276954,-0.274779081,0.200690553,0.178382009,0.168823332,0.064366668,0.146930858,0.051562816,-0.025879242,0.018378163,-0.205507293,0.006897835,0.095735393,-0.030536218,0.112931766,-0.019193279,dog_man
gl9,-0.074730322,0.031799935,0.009216943,-0.082474224,-0.090868317,-0.00710413,-0.082045838,-0.065311424,0.102368727,-0.126532659,0.225735232,-0.157752737,-0.229527324,-0.071135014,-0.085379615,0.249673933,-0.233875304,-0.163976565,-0.017866174,0.023724299,0.040243395,-0.032339908,-0.003197364,0.114500575,-0.070825227,-0.346776545,-0.089499138,-0.099001169,-0.033074975,-0.076583453,-0.026658993,0.024387881,-0.183881924,-0.026540441,0.021396399,0.109916113,-0.013704517,-0.138177961,0.131949738,-0.03151577,-0.247331619,0.093926407,0.110578835,0.237121671,0.186345562,0.040844727,-0.005126966,-0.183734715,0.092090033,-0.183094114,0.043898493,0.12570937,0.037894413,0.068085045,0.011012795,-0.116338961,0.056635618,0.142009497,-0.165994972,-0.004797362,0.056071606,0.035286289,0.059269052,-0.134825051,0.243365616,0.090200946,-0.118628152,-0.201379508,0.158385888,-0.183082998,-0.097161375,0.078289054,-0.134167194,-0.211368635,-0.289081901,0.018249739,0.324794441,0.139962643,-0.148102,0.116358228,0.014975841,-0.041127689,0.098590836,0.210129261,0.041588973,0.020257244,-0.05105295,-0.01343525,0.238636985,-0.04341941,-0.017520737,0.204007342,-0.017056754,-0.018161699,0.07305748,0.008335189,-0.047792986,0.060991686,-0.194959074,-0.013284946,-0.0463323,-0.02579152,-0.053092882,0.049546722,-0.120536901,0.080037989,-0.007562142,-0.029982133,-0.026458204,0.019494725,-0.084376633,-0.02512005,0.157661274,-0.269588977,0.219071284,0.153780282,0.170088872,0.109214969,0.132655188,0.114077128,0.005366133,-0.050607324,-0.210453644,-0.002878912,0.098584153,-0.038291592,0.115102574,0.029000847,dog_man
gl10,-0.08058624,0.027587738,-0.000449561,-0.105065927,-0.131793618,-0.017819418,-0.091696233,-0.021349236,0.154091939,-0.096254744,0.213145152,-0.047471073,-0.190307811,-0.075965911,-0.028398121,0.17556873,-0.170541614,-0.144069627,-0.02813188,0.056236517,0.093389794,0.025157398,-0.031398725,0.102244467,-0.1507774,-0.288927078,-0.04043258,-0.056165826,-0.001942567,-0.061772719,-0.050580837,0.023696838,-0.191945016,-0.014874255,0.028384637,0.183755621,-0.01856477,-0.071193986,0.138557047,0.0169736,-0.290748239,0.089958705,0.014894435,0.211354777,0.180146664,0.03673796,0.002841793,-0.193619668,0.092871748,-0.224814132,0.07980758,0.160307541,0.038308881,0.057731476,0.013004178,-0.112370603,0.032279253,0.153444707,-0.161741808,-0.008951861,0.070765004,-0.004909659,0.016009834,-0.163698524,0.192407399,0.095203429,-0.135560364,-0.194093838,0.118458837,-0.171271592,-0.178593338,0.128245309,-0.090629555,-0.181667268,-0.338546574,0.023323938,0.38584891,0.176788777,-0.247831464,0.030500229,-0.03082259,-0.019657476,0.149281725,0.136991069,0.05712295,-0.023161007,-0.109495483,-0.011611501,0.260831833,-0.037162744,0.001343283,0.171412081,0.076870561,0.075657979,0.004754312,0.065389439,-0.050045013,0.053765286,-0.15652138,-0.023901258,0.013142329,0.02873265,-0.025871212,0.127062351,-0.124076389,0.177246377,0.044055466,-0.048533402,0.0267857,0.054942064,-0.070704207,-0.050719786,0.119744442,-0.241911635,0.238123119,0.147168711,0.137160391,0.098952964,0.122077733,0.113409676,-0.040408969,-0.054372456,-0.220734552,-0.049063366,0.050641023,-0.027145406,0.118112668,0.037125669,dog_man
gl11,-0.102280013,0.088360153,0.007105743,-0.079767093,-0.069303006,-0.019162089,-0.072630711,-0.094718441,0.120866477,-0.101690918,0.227799132,-0.100963391,-0.194156602,-0.093497753,-0.102072902,0.21880874,-0.184328988,-0.192402259,-0.020112514,0.018564604,0.109039135,-0.010553518,0.002251352,0.117690161,-0.102109835,-0.282367438,-0.053010114,-0.08466991,-0.015885945,-0.094889037,-0.016985951,-0.006901037,-0.233056024,-0.04527837,0.030506749,0.127877221,-0.015346695,-0.106768198,0.166883662,0.010447007,-0.266010582,0.116766326,0.042036343,0.268204361,0.183641687,0.025714269,-0.014177753,-0.22039184,0.155856624,-0.204946861,0.01861988,0.148653567,0.055525701,0.031760599,-0.033509016,-0.129137427,0.077907003,0.162737891,-0.198756367,0.016707167,0.059860852,-0.034309097,0.034483094,-0.14058207,0.175576434,0.051178031,-0.128577679,-0.206101149,0.081159435,-0.164531857,-0.081738867,0.144031495,-0.11335741,-0.247314483,-0.312119007,0.035695955,0.372218877,0.153055564,-0.176168993,0.106610566,0.014328003,1.11489E-05,0.10862191,0.202596083,0.006434355,0.054586165,-0.093108982,-0.014281216,0.24851349,-0.034925364,-0.039118566,0.220933706,-0.025556572,0.058708906,0.03579564,0.027129242,-0.085326448,0.063875332,-0.16519025,-0.033555005,-0.053558212,-0.002156114,-0.034685168,0.055069908,-0.138364151,0.114461839,-0.035415336,-0.012978666,-0.063478149,-0.038347691,-0.071758024,0.00160038,0.131934971,-0.241419837,0.221298471,0.182497323,0.168721452,0.113176957,0.192991093,0.045247637,-0.002077873,-0.023679752,-0.221967891,0.004531644,0.12892814,-0.060810715,0.167178065,-0.028206248,dog_man
gl12,-0.040898036,0.034213297,-0.045832902,-0.085873559,-0.110461444,-0.043300305,-0.082607664,-0.068924449,0.122235328,-0.065861963,0.219641909,-0.090835944,-0.190719485,-0.05016733,-0.058512136,0.14423807,-0.155576855,-0.178300619,-0.01618585,0.037774034,0.066831604,0.024789369,-0.017205939,0.092298336,-0.119332582,-0.326761246,-0.080581896,-0.090798609,0.047045976,-0.043955687,0.005600385,0.020693792,-0.210445672,-0.027736863,0.0883727,0.116142318,0.030988934,-0.085773185,0.166031927,0.039404087,-0.267439514,0.07486324,0.061843678,0.246495351,0.164247334,0.05497523,-0.014021765,-0.234670982,0.097204246,-0.133802086,0.068587035,0.16122371,0.036659233,0.056871261,-0.003599245,-0.091809928,0.092193477,0.174392059,-0.229019493,0.005346922,0.075560324,0.037087765,-0.006445386,-0.123867512,0.220929608,0.052005216,-0.114255384,-0.204172567,0.129347965,-0.19138816,-0.147644773,0.122714087,-0.103385046,-0.179691657,-0.298482329,0.009919603,0.331129283,0.147654265,-0.220701367,0.092078708,0.005838701,-0.009062933,0.167727873,0.129466861,0.011846634,-0.014696261,-0.086617053,-0.034531277,0.26682061,-0.008605927,-2.64171E-05,0.204898462,-0.011716556,0.046032138,0.052099429,0.076750264,-0.084924795,0.039779898,-0.164699793,-0.082920305,0.057243414,0.035613336,-0.015742779,0.133484155,-0.18004933,0.109390013,0.004258838,-0.036881737,0.052620072,-0.001845984,-0.026390355,-0.062638924,0.137833178,-0.255276293,0.251774311,0.128175229,0.134891525,0.073864907,0.126088351,0.051455382,-0.034164075,-0.078974634,-0.248182118,-0.02287733,0.065242663,-0.048697744,0.098502144,-0.019109331,dog_man
gl13,-0.091286965,0.012932066,0.000571661,-0.118699744,-0.139107406,-0.062069032,-0.094562702,-0.058640052,0.140142307,-0.085516721,0.187048763,-0.050965786,-0.132045969,-0.080456585,-0.033504177,0.188276649,-0.209524959,-0.192241579,-0.047609039,0.050451562,0.043648999,-0.049275305,-0.02486442,0.072335966,-0.139227763,-0.299005151,-0.076621681,-0.107411027,0.052663043,-0.042241365,-0.016782986,-0.004291958,-0.203295633,-0.018488266,0.050268374,0.12184605,-0.004288057,-0.101879105,0.177295804,0.030379776,-0.294945091,0.090025291,0.014424044,0.205122173,0.178580597,0.059613325,0.045031153,-0.206214055,0.174801394,-0.179524571,0.077386931,0.174571902,0.033647053,0.055424221,-0.006872141,-0.117780492,0.08866822,0.184029013,-0.204135567,0.060296297,0.095600508,-0.011162233,-0.008930669,-0.139195889,0.230008021,0.098598421,-0.156600654,-0.192933813,0.12596646,-0.130231455,-0.125953764,0.065502144,-0.13893865,-0.188044921,-0.320993841,0.025361689,0.36273247,0.125288367,-0.216187015,0.050176661,-0.035726842,-0.01336463,0.108064093,0.190395802,-0.001559224,-0.022384729,-0.072595291,-0.047350027,0.273394614,-0.046892181,0.034595117,0.174977899,-0.00526637,0.054410476,-0.040216185,0.051369678,-0.102905259,0.047558419,-0.096816234,-0.037970096,0.04738785,0.006721726,-0.016993592,0.102449685,-0.145801991,0.136939898,-0.000744316,-0.006064584,-0.00247837,-0.005409543,-0.045520328,-0.057262369,0.121404804,-0.195669517,0.308988363,0.189827487,0.156423792,0.083473451,0.16165182,0.067594349,-0.021359522,-0.008155672,-0.206513837,-0.01468393,0.063347787,-0.034059599,0.099133417,0.022137597,dog_man
gl14,-0.053851869,0.026434649,0.004549093,-0.123420663,-0.117865153,-0.000634407,-0.067418635,-0.048470799,0.126951665,-0.098906033,0.240293577,-0.094978414,-0.218097106,-0.060364094,-0.065604739,0.190036684,-0.206021011,-0.150474846,-0.025839303,0.023331905,0.041297421,-0.009993219,-0.008689761,0.084795609,-0.130989581,-0.315053076,-0.08953575,-0.073628157,0.001250294,-0.053128861,-0.016526213,0.030791145,-0.183797568,-0.019592168,0.036623605,0.128659815,0.011177288,-0.107324019,0.145929456,0.00613301,-0.255478799,0.074518323,0.104578808,0.244711101,0.165011823,0.001462797,0.013018806,-0.191983968,0.098207653,-0.16021587,0.076193117,0.155235067,0.040641196,0.071244001,0.031847842,-0.079593003,0.059199631,0.197500765,-0.170310527,0.018084604,0.071888193,0.050110057,0.041444533,-0.142674536,0.19566682,0.072331421,-0.123414971,-0.201981246,0.114651114,-0.156211391,-0.133529156,0.089595318,-0.145934656,-0.195029765,-0.323887825,0.018803637,0.32408911,0.155008525,-0.160894841,0.111208513,-0.008360263,-0.055185642,0.132827953,0.162906572,0.030858552,0.036499061,-0.059860192,0.035514019,0.248350203,-0.043033488,0.011073706,0.211693302,-0.002939556,0.00816113,0.034229852,0.058553446,-0.060578279,0.06388744,-0.180950269,-0.015368287,0.01331302,-0.018012177,-0.008708973,0.069972493,-0.162694752,0.07435751,0.032171316,-0.027534202,0.009897355,0.009138495,-0.071832247,-0.045267466,0.15851371,-0.269039899,0.221413746,0.152686343,0.132199734,0.076982528,0.148814395,0.071339086,-0.002720568,-0.078269541,-0.172331572,0.009866463,0.062871441,-0.031423021,0.111979038,0.026834935,dog_man
gl15,-0.053525213,0.088556431,-0.007491223,-0.069187425,-0.080930963,-0.030713707,-0.046367235,-0.086353272,0.128964275,-0.083513804,0.265308797,-0.090862527,-0.260109752,-0.095993072,-0.065622479,0.220110655,-0.203991085,-0.199658006,-0.033539254,0.037004873,0.056231655,-0.054587036,0.031946547,0.092163771,-0.089418903,-0.344935715,-0.077950619,-0.030239198,-0.013925923,-0.064403258,-0.050765138,0.044319827,-0.239035785,-0.036260691,0.050722763,0.123504221,-0.015451219,-0.089914717,0.220142052,0.008316586,-0.257153362,0.114798322,0.029947383,0.284465492,0.1588424,0.046499707,0.00201989,-0.184395224,0.112242252,-0.18626529,0.083746985,0.185568839,0.06115922,0.00813657,-0.056277588,-0.141277298,0.043712266,0.166602939,-0.197546944,-0.020308714,0.093224123,-0.055254981,-0.011899548,-0.165259749,0.211526901,0.08456967,-0.14223963,-0.248221472,0.08917366,-0.142442763,-0.071730919,0.100911021,-0.148031145,-0.20497714,-0.342198163,0.066075422,0.382443875,0.106765077,-0.171531454,0.087731451,-0.009566997,-0.020739282,0.096001379,0.164631739,-0.027389547,0.034688964,-0.152026132,0.009308791,0.2277807,-0.045717191,-0.065935016,0.188209221,-0.02856547,0.067430362,0.0254233,0.038010873,-0.080201186,0.075545959,-0.178081185,-0.002397703,-0.006702034,-0.022548966,-0.053133186,0.092549741,-0.133320957,0.083439834,-0.031452179,-0.007497299,-0.018846471,-0.013934288,-0.114804521,-0.072080843,0.106481075,-0.29666838,0.22223337,0.170341,0.154625356,0.09128274,0.173975065,0.073551305,-0.005794293,-0.012631535,-0.255712241,-0.011523717,0.1290555,-0.012901391,0.169320062,0.009283591,dog_man
gl16,-0.071347192,0.052221876,-0.01264024,-0.081149362,-0.133006111,-0.020851079,-0.028053623,-0.091603838,0.093221024,-0.120853491,0.225280851,-0.100696631,-0.269366413,-0.050766807,-0.000550475,0.170103818,-0.172225416,-0.215188503,-0.035783231,-0.009221969,0.025984421,-0.023265442,-0.058885865,0.112209186,-0.075320669,-0.280489355,-0.019882469,-0.031339683,0.014350629,-0.064677574,-0.011854865,0.11088632,-0.167408109,0.033550177,0.02348531,0.16676484,-0.02405436,-0.060517982,0.213623971,0.018992806,-0.287541181,0.058224693,0.020394441,0.264877647,0.189695761,-0.004470475,-0.041395932,-0.147879571,0.095609173,-0.25303933,0.058975674,0.199969649,0.0598469,0.040082499,-0.006172013,-0.164955199,0.021529702,0.082182579,-0.219943568,-0.035485927,0.080572926,-0.065887049,-0.004158108,-0.195424303,0.208190799,0.099003263,-0.144620582,-0.207687229,0.116889782,-0.2038434,-0.191293165,0.138773292,-0.107464582,-0.178417817,-0.353925556,0.060231976,0.373582989,0.184217289,-0.194262192,0.066064209,0.03187279,-0.067896053,0.14726679,0.158270955,0.002529582,-0.007395061,-0.102925904,-0.006539581,0.19649142,-0.011596115,-0.094089061,0.16415289,0.01315686,0.08765509,0.032816105,0.075446457,-0.021630172,0.030429581,-0.210664809,-0.032737747,-0.015340708,-0.0095792,-0.029496569,0.112127095,-0.108108208,0.165476486,0.003148211,-0.022018064,-0.050564121,0.010647725,-0.099255115,0.008870311,0.126083165,-0.311188787,0.213024572,0.148221955,0.13898471,0.082329676,0.155623689,0.041451775,-0.011963493,-0.073403582,-0.236706197,-0.061375614,0.093951158,-0.01529598,0.129361495,0.050910208,dog_man
gl17,-0.050011236,-0.024820864,-0.015669946,-0.082789086,-0.109746337,-0.040977608,-0.108971417,-0.098071478,0.116283983,-0.092563771,0.216927946,-0.071848713,-0.198645815,-0.095387787,-0.079716615,0.168503076,-0.187428966,-0.163753361,-0.033184536,-0.017403344,0.041006483,0.032898352,0.030200778,0.083914421,-0.137934878,-0.319697499,-0.076804772,-0.109866835,-0.010573426,-0.066558555,-0.043802567,0.040247843,-0.191818073,-0.046016391,0.072952442,0.146198839,-0.01204277,-0.094858959,0.169488683,0.015156358,-0.245316073,0.086224034,0.050905935,0.237394482,0.183634564,0.016690562,-0.004197288,-0.209021151,0.126647994,-0.134910926,0.045768365,0.148385778,0.069957614,0.028378513,-0.002295003,-0.085874543,0.056479394,0.17099607,-0.161481753,-0.022273213,0.082973301,-0.00280416,0.030396905,-0.106604949,0.221146867,0.034719482,-0.123474181,-0.200483546,0.116757631,-0.157086134,-0.123681359,0.105394036,-0.131295294,-0.201326609,-0.2884579,0.026718566,0.379953265,0.12164966,-0.202226996,0.091789737,-0.031042881,-0.027890375,0.145519435,0.151708975,0.015120562,0.038585402,-0.097289361,-0.00666692,0.247170806,-0.043920085,-0.016698657,0.195275515,0.017002137,0.097326182,0.077761561,0.013710744,-0.088665813,0.086644195,-0.179895818,-0.017030813,0.006025735,0.041061148,0.02067304,0.084361821,-0.073451966,0.103592984,0.008587169,-0.031300709,0.016068986,-0.000223985,-0.085020885,-0.101273268,0.131887719,-0.265750825,0.18671903,0.13139686,0.184693128,0.109905973,0.156592578,0.062097557,-0.020230517,-0.024107151,-0.240654066,0.027318262,0.107562125,-0.034307938,0.128029525,0.000911842,dog_man
gl18,-0.077695996,0.054609329,-0.029181033,-0.0923324,-0.114472963,-0.027741628,-0.099614419,-0.116376869,0.143517658,-0.086909205,0.267654359,-0.070027962,-0.160592377,-0.12611112,-0.066083461,0.171538875,-0.218849093,-0.1730683,-0.018127028,0.050144646,0.084347844,0.039043386,0.053514,0.084848888,-0.118403628,-0.342883885,-0.078223169,-0.120493695,-0.008326513,-0.063252605,-0.006381461,-0.027425621,-0.201103806,-0.052775629,0.073250204,0.116050601,-0.005282328,-0.090489477,0.201411501,0.020069085,-0.278476685,0.073194936,0.039828073,0.228666127,0.160732031,0.047115911,-0.012446713,-0.208578601,0.151074052,-0.150324017,0.07262782,0.154863179,0.034047641,0.039789464,-0.026784094,-0.088338532,0.033257358,0.183207527,-0.14399974,-2.81702E-05,0.088578738,-0.038804937,0.004676832,-0.132919729,0.185566396,0.064083017,-0.116269417,-0.213577583,0.082902186,-0.134106666,-0.154949844,0.125948384,-0.141343653,-0.20519276,-0.292779475,0.007754436,0.372276753,0.111210361,-0.199288249,0.018229615,-0.010714124,0.014603815,0.117768481,0.182273611,0.056185484,0.02648112,-0.104239009,-0.025619972,0.248102427,-0.064872719,-0.024621567,0.235737652,-0.021795288,0.123434223,0.037000969,0.046578117,-0.055996552,0.085417382,-0.135127276,-0.016969159,0.03691867,0.054215439,-0.002068933,0.084667504,-0.115907475,0.104121134,-0.006863334,0.002071729,0.028230119,-0.017977122,-0.025587253,-0.074664496,0.130037412,-0.215362996,0.25496003,0.157755494,0.149744183,0.127764583,0.138114735,0.066817865,-0.03423227,-0.04188415,-0.250050038,-0.006837418,0.07154309,0.000977494,0.116451964,-0.020381562,dog_man
gl19,-0.044470388,0.058908563,-0.028624821,-0.137902007,-0.107503153,-0.044176698,-0.090154365,-0.033869054,0.128231212,-0.11426428,0.202208772,-0.074736647,-0.175380334,-0.076096766,-0.053867273,0.21253255,-0.183639944,-0.187845632,-0.017594308,0.026450293,0.074558429,0.033972073,-0.076617464,0.09183386,-0.131975383,-0.295889318,-0.051299356,-0.046781428,0.009948549,-0.062140465,-0.011606581,0.041737098,-0.20403713,-0.015489595,0.049048096,0.071562476,-0.039776228,-0.041633945,0.20171316,0.09128198,-0.307938337,0.086055197,0.020835321,0.279687583,0.157506406,0.033202477,0.022760881,-0.175495073,0.101643585,-0.218623042,0.078051716,0.160754949,0.081595406,0.040123392,-0.050963044,-0.090116799,0.032354057,0.156234652,-0.22842741,0.036540024,0.082917444,-0.05147963,-0.024887046,-0.101771429,0.233964548,0.090585679,-0.139129549,-0.219007462,0.134534195,-0.174663216,-0.1636125,0.106743626,-0.070837066,-0.171445206,-0.350815743,0.02700641,0.360970318,0.121001668,-0.209232882,0.075977139,0.001091643,-0.029705077,0.158456281,0.172631815,-0.024962205,0.009166003,-0.038929589,-0.005341306,0.274155825,-0.03456945,-0.054393254,0.18921262,0.034404129,0.077789679,0.017428104,0.047498956,-0.033880163,0.016834758,-0.111778878,-0.03532587,0.033720698,0.020053241,-0.018220598,0.1613639,-0.146832854,0.197702587,0.00221277,-0.026657254,0.010291862,0.066177338,-0.057608128,-0.091787457,0.102011785,-0.208737582,0.221067235,0.153930068,0.138889328,0.065134227,0.15794751,0.030530738,-0.006848395,-0.048702281,-0.240996525,-0.026401397,0.122036234,-0.039621808,0.161691755,0.008011449,dog_man
gl20,-0.137364551,0.077905588,-0.004481558,-0.066455789,-0.093421131,0.009140931,-0.059826419,-0.11645174,0.167552844,-0.068446994,0.244598553,-0.027570561,-0.145557776,-0.057421308,-0.085861616,0.198429719,-0.182936728,-0.179846048,-0.011321726,0.025844395,0.106000304,-0.047029469,0.010307618,0.113682263,-0.106140807,-0.307053477,0.003481766,-0.092411153,0.002161876,-0.047768448,-0.006702123,0.039764341,-0.250090122,-0.029522307,0.035891533,0.153145552,-0.016511807,-0.072638661,0.204697385,0.021293622,-0.286779404,0.08036685,0.044890262,0.281170785,0.208419427,0.036322329,-0.011510551,-0.179384768,0.149626046,-0.211623982,0.064103521,0.139322624,0.081117377,0.013912877,0.012749812,-0.167555332,0.048387706,0.084464192,-0.210436001,-0.01603682,0.055523455,-0.041637328,0.028800247,-0.195754513,0.23449026,0.093640044,-0.119728036,-0.127918199,0.133095115,-0.078240961,-0.056930803,0.131461248,-0.149412721,-0.247926563,-0.29730621,0.038278982,0.432744652,0.165862575,-0.181884661,0.061070357,-0.012929668,-0.011397308,0.104896329,0.189172983,0.063061982,0.011157424,-0.051806323,0.000950584,0.204823479,-0.027359977,-0.067597628,0.17526868,-0.032257762,-0.009471443,-0.015604183,0.056534771,-0.089267634,0.084890746,-0.191198841,-0.073464483,-0.079052404,0.046464138,0.021803331,0.074985109,-0.174860597,0.079170987,0.001378378,-0.019215476,-0.029930625,-0.017122196,-0.052476473,-0.014820752,0.084799327,-0.277606219,0.261938155,0.140890479,0.115463793,0.15374808,0.103697285,0.060646828,0.009614248,-0.025460202,-0.19935295,-0.013434392,0.090191953,-0.017014557,0.162003949,0.016788177,dog_man
gl21,-0.076002724,0.09300416,-0.001213307,-0.100198746,-0.100739963,-0.028732019,-0.02971625,-0.054656919,0.144796684,-0.137538314,0.245201379,-0.087354496,-0.232971281,-0.089571863,-0.022402093,0.213447765,-0.197540089,-0.167607754,-0.038479444,0.001838675,0.060394526,-0.055530317,-0.031499784,0.110110864,-0.08407867,-0.292603761,-0.034441382,-0.046692859,0.026667584,-0.109838307,-0.042191621,0.035084259,-0.190276071,-0.045201354,0.025925454,0.102996737,-0.048774216,-0.090726554,0.196800858,-0.013942458,-0.282023013,0.076996744,0.041379567,0.276734233,0.173545197,0.016533399,-0.017294455,-0.165639177,0.143978357,-0.213540137,0.024469219,0.153611869,0.054300863,0.03014506,-0.013597876,-0.14924033,0.040434889,0.147010997,-0.201183528,-0.012827864,0.089707606,-0.05399026,-0.000852952,-0.156783283,0.239970282,0.07892853,-0.158793718,-0.203705207,0.110224381,-0.15816237,-0.076936096,0.131074816,-0.120254308,-0.198270246,-0.299869061,0.043687925,0.386003226,0.158803046,-0.151794404,0.063328162,-0.023146655,-0.022708053,0.136753738,0.185858846,-0.009287356,0.010349441,-0.062080465,-0.000990879,0.216141135,-0.020769767,-0.064933576,0.165929154,0.010656951,0.058321472,0.00133787,-0.00562344,-0.073921449,0.03523048,-0.177253112,-0.016677868,-0.049939409,-0.04583355,-0.028544623,0.105221309,-0.138127163,0.12772043,0.01628207,0.009086099,-0.022228776,0.044629887,-0.093517475,-0.037870716,0.09280061,-0.290149957,0.229659036,0.178450048,0.17232345,0.079598136,0.157536566,0.045325235,0.012585733,-0.030951478,-0.210346237,-0.008389847,0.118313447,-0.0506288,0.176301613,-0.021759197,dog_man
gl22,-0.08358977,0.065029286,-0.019447068,-0.071260333,-0.108087964,-0.012542723,-0.038187824,-0.098741218,0.1261058,-0.10274139,0.255742967,-0.082724363,-0.264156967,-0.083727784,-0.019797754,0.174575105,-0.176033989,-0.180291995,-0.019348809,0.002234748,0.037290532,-0.072273538,-0.028217006,0.110238269,-0.074031495,-0.290820748,-0.021730121,-0.083087735,0.001373014,-0.083388932,0.004654272,0.063458487,-0.173997641,0.013158727,0.028131476,0.163130119,-0.037713911,-0.04203143,0.2174896,-0.008494674,-0.261688739,0.074905351,0.014933077,0.257533729,0.1847938,0.031073835,-0.026341036,-0.162265778,0.131903887,-0.231531844,0.046630256,0.187216997,0.080145329,0.026467878,-0.009435389,-0.155893475,0.035043225,0.094498664,-0.240735516,0.001636015,0.094666444,-0.058855485,-0.016767995,-0.169237852,0.224208653,0.082993269,-0.179072946,-0.189146623,0.092772566,-0.203648001,-0.13621138,0.139350146,-0.118751891,-0.225726053,-0.337542236,0.0661643,0.373773754,0.174177513,-0.170416892,0.052882805,0.005106948,-0.056003358,0.10056401,0.155463263,0.000169219,-0.012205904,-0.085321717,-0.029030865,0.202485457,-0.025162475,-0.062348232,0.186326146,-0.023096988,0.081748128,-0.01927953,0.044728674,-0.04013031,0.03448581,-0.178639591,-0.0301165,-0.046941828,-0.04310644,-0.011608377,0.054175973,-0.158146054,0.133707404,-0.014447503,-0.009220529,-0.042953491,0.006461217,-0.134010613,0.008694704,0.15541929,-0.331724048,0.264733583,0.181714907,0.187973917,0.0807309,0.173569664,0.026588548,0.007341207,-0.055377521,-0.215398878,-0.048334736,0.077827953,-0.040760241,0.138744235,0.015291363,dog_man
gl23,-0.081020705,0.015368366,-0.053322017,-0.100751303,-0.136237964,-0.047632918,-0.052910738,-0.120034121,0.103016593,-0.104278825,0.24541907,-0.117681161,-0.233503506,-0.093571149,-0.068325378,0.217995688,-0.201630592,-0.161231607,-0.006238488,0.010728535,0.093471274,-0.041989215,0.006696585,0.137136936,-0.077869639,-0.321872264,-0.110461995,-0.093528122,-0.033263501,-0.104890533,-0.036028005,0.074109159,-0.196293756,-0.045692015,0.050306398,0.124880493,-0.026085962,-0.077822246,0.149228275,0.001284312,-0.239732936,0.05046884,0.084971361,0.23148714,0.1661053,0.033368662,-0.019237716,-0.167155892,0.094921328,-0.155089274,0.058465332,0.137536034,0.096574381,0.060878351,-0.003502044,-0.096683361,0.059329141,0.155595958,-0.211504757,0.007588197,0.101658612,-0.046602923,-0.001886401,-0.150082856,0.217456818,0.102863625,-0.139479861,-0.209858537,0.116506711,-0.175707474,-0.143790841,0.078103967,-0.150893822,-0.226108208,-0.311056167,0.046044774,0.331124336,0.154629767,-0.175028577,0.052448034,0.035880487,-0.033500504,0.113003723,0.162315503,0.016000314,0.019936023,-0.0768231,-0.001038116,0.185064062,-0.052090336,-0.031066578,0.210591316,-0.046206214,0.069780581,0.051277056,0.046663105,-0.053766362,0.076521866,-0.166455045,0.003272865,-0.037801646,-0.046085902,-0.028982226,0.069745868,-0.074241489,0.077499688,-0.034747988,-0.016342074,-0.072128497,-0.002546922,-0.132479072,-0.056412973,0.10920155,-0.268364936,0.246640995,0.171243936,0.140663341,0.080406524,0.12827763,0.08467228,0.004603846,-0.067393467,-0.220060483,0.002826768,0.150244638,-0.043174483,0.103809133,-0.017094057,dog_man
gl24,-0.138754696,0.060182553,-0.007305905,-0.120817713,-0.091892689,-0.040664762,-0.100712776,-0.098030701,0.113697305,-0.143536568,0.232499138,-0.110410742,-0.193512186,-0.110104933,-0.086096212,0.163599804,-0.163943499,-0.16172412,-0.016579174,-0.001443997,0.111990154,-0.012767185,-0.004887532,0.092361629,-0.119347304,-0.29886958,-0.08296793,-0.103219263,0.012565248,-0.06484735,-0.020394189,-0.033873904,-0.22430256,-0.035705425,0.017277695,0.140098989,0.044191726,-0.063308083,0.184340462,0.003989952,-0.21464628,0.064509533,0.014618597,0.255967319,0.172644451,0.033221532,-0.001456682,-0.228271767,0.177020013,-0.162408754,0.068499103,0.146461651,0.089826174,0.013020901,-0.014757652,-0.062193662,0.07370767,0.203727424,-0.205351725,0.034102499,0.098928735,-0.028199863,-0.036433358,-0.15897195,0.206398636,0.058775708,-0.144314557,-0.207356229,0.128670007,-0.150700226,-0.115635701,0.090309516,-0.1199513,-0.186689153,-0.332175523,0.032493155,0.361604601,0.158406034,-0.195588171,0.085748754,-0.054608248,-0.016987421,0.133261606,0.133994907,0.008292483,-0.007633528,-0.06674543,0.012065384,0.253460377,-0.043903153,-0.00612748,0.186251685,-0.015848456,0.081753433,-0.0110854,0.01979471,-0.096251801,0.063108243,-0.118551463,0.010791076,-0.002204595,-0.010340813,-0.008200177,0.076361693,-0.186441541,0.126377568,-0.014492216,-0.024349287,-0.00384674,-0.045871478,-0.096251823,-0.013167425,0.144762769,-0.25249511,0.230740771,0.171410546,0.170548439,0.116347931,0.183007658,0.045658704,0.014559107,-0.032449719,-0.260725617,-0.021905947,0.110148661,-0.052340228,0.136874035,0.000196537,dog_man
gl25,-0.099744536,0.062007807,-0.014331527,-0.092180446,-0.124438398,-0.034983523,-0.140190005,-0.051763799,0.164270028,-0.107873201,0.226572901,-0.048557881,-0.19710058,-0.042977639,-0.062832505,0.228195906,-0.23881954,-0.189666033,-0.002148942,0.020688761,0.099279672,0.029794432,-0.021923427,0.09238454,-0.151226699,-0.306172282,-0.063537262,-0.079299912,-0.022073638,-0.099837027,-0.014639634,0.02151308,-0.153939962,0.015374385,0.058278218,0.128983438,0.022121418,-0.125950873,0.154779702,-0.018774766,-0.345549375,0.086866371,0.073685683,0.192703024,0.177709669,-0.00982118,-0.019688239,-0.217074513,0.118488811,-0.166342139,-0.001862284,0.189615756,-0.001406337,0.04634241,0.013653673,-0.141360924,0.052621696,0.140241891,-0.1630463,-0.094326735,0.052016784,0.011013331,0.068230227,-0.142318085,0.210265428,0.090968996,-0.12700431,-0.244290844,0.107692391,-0.168821573,-0.151489869,0.129576221,-0.136133239,-0.208041787,-0.311994255,-0.026293563,0.340389371,0.096199736,-0.158462524,0.1638401,0.010627618,-0.049187172,0.083931997,0.194011167,0.006230228,0.057567269,-0.070414707,-0.016888479,0.274151057,-0.021197643,0.01308669,0.188015193,-0.00287187,0.082809217,0.070111178,0.057728827,-0.066634119,0.047750723,-0.133421138,-0.016162671,-0.019671421,0.005958858,-0.025003739,0.114935733,-0.122431219,0.096040733,0.004517348,0.000332818,-0.029096242,0.064543068,-0.032317288,-0.052041885,0.126310319,-0.252846837,0.24941504,0.135733172,0.140362233,0.096838906,0.148389071,0.085398741,-0.062013432,-0.026908269,-0.228441671,0.018690303,0.070389032,-0.075583518,0.11384581,0.014651706,dog_man
gl26,-0.105856083,0.026913293,0.039820656,-0.07766901,-0.170033336,0.051540576,-0.023914516,-0.065606482,0.141404733,-0.157868251,0.224636123,-0.078167602,-0.210794374,-0.043046739,-0.088394865,0.223745838,-0.181250349,-0.203613743,-0.005762215,0.045163482,0.056250904,0.083969064,0.004404696,0.083422974,-0.181186691,-0.343103409,-0.066768542,-0.113217033,-0.056605447,-0.045835204,-0.024330892,0.031746794,-0.148180455,0.02829222,0.025373437,0.105950728,-0.047000326,-0.098926842,0.181954339,0.076762743,-0.341655046,0.05787167,0.06089408,0.288093537,0.193510011,-0.028830184,0.001442418,-0.136427537,0.123995416,-0.252258718,0.105807222,0.131417662,0.061167885,0.056161486,0.024472881,-0.087831162,0.00855568,0.196509019,-0.155961812,0.0375669,0.083687454,-0.00928925,0.103824317,-0.093905069,0.130642354,0.07746271,-0.071561612,-0.182935119,0.148478448,-0.189039305,-0.145654052,0.104710966,-0.160311252,-0.251550794,-0.29787305,0.0417803,0.362624109,0.202931076,-0.118532442,0.033326413,0.041728541,0.009687814,0.13313435,0.164667398,0.057408296,-0.019460574,-0.083962224,0.002866285,0.28081426,-0.067898341,-0.035239175,0.255731285,0.008173106,-0.021204405,0.060528073,0.032237027,-0.033165224,0.087497294,-0.16353187,0.002475201,-0.058712944,-0.016484559,0.004037939,0.090617195,-0.16145584,0.122228414,-0.030386887,-0.039075393,-0.030911107,0.008307653,-0.09445779,-0.01926543,0.152633265,-0.178051382,0.200925246,0.158064172,0.132735282,0.135913283,0.143316314,0.04016114,-0.005566817,-0.070732243,-0.199757427,-0.015148384,0.113072529,-0.024987932,0.106582001,0.040193301,dog_man
gl27,-0.01248035,0.056917693,-0.030571306,-0.077843562,-0.118262343,-0.034529947,-0.088180244,-0.098237164,0.16559653,-0.111544378,0.244350255,-0.050082825,-0.20214577,-0.076813139,-0.039644115,0.128415927,-0.207895756,-0.17035681,0.026271017,0.016523806,0.086887054,0.024028717,0.015879864,0.03454854,-0.150154963,-0.297910154,-0.116965301,-0.084523082,0.0299518,-0.093913279,-0.040712576,0.043011587,-0.220719323,-0.071333244,0.072652102,0.108265102,0.003013131,-0.075825661,0.188810065,0.008934711,-0.221143275,0.056579947,0.056642715,0.263453066,0.148159668,0.013894217,-0.019959234,-0.214649692,0.136394903,-0.116380662,0.078637347,0.166475803,0.054729622,0.077589616,-0.000433908,-0.103995807,0.074271351,0.162498772,-0.166552663,-0.024925273,0.111206852,0.006806231,0.032134835,-0.100852877,0.223087117,0.0243029,-0.078009687,-0.223709747,0.066743799,-0.146580726,-0.139110014,0.105294004,-0.144682661,-0.168107122,-0.298165828,-0.002464993,0.347005665,0.111922398,-0.171746358,0.125161141,-0.018354604,-0.05859521,0.16016908,0.139782831,0.014540246,0.081092373,-0.096957132,0.045748059,0.258722246,-0.064637549,-0.007527317,0.196160257,-0.008571051,0.105474986,0.076952852,0.014831742,-0.076459095,0.064371362,-0.172417089,-0.025608234,0.013319355,0.015904397,-0.022084445,0.135137707,-0.141259596,0.095513679,0.022568364,-0.015736036,-0.009355328,-0.037834536,-0.053703934,-0.082063548,0.108050309,-0.290000916,0.209902048,0.107467078,0.101716883,0.105736285,0.102220774,0.059781171,-0.039078623,-0.048236676,-0.238297179,0.023417097,0.091544598,0.000295897,0.118078068,-0.020950999,dog_man
gl28,-0.051469728,0.026207604,-0.000564551,-0.108728677,-0.115651034,-0.042478893,-0.094296552,-0.072513588,0.094247438,-0.088046603,0.205693975,-0.076440841,-0.237551793,-0.067292042,-0.064738341,0.14298223,-0.205540597,-0.141698673,-0.007025468,-0.01054204,0.064884007,0.05046707,0.015856883,0.058900431,-0.147160232,-0.287616521,-0.107048199,-0.07171119,-0.035341389,-0.04042289,-0.019851316,0.024832223,-0.189353168,-0.037513081,0.096133307,0.13135536,0.033742134,-0.073679589,0.147136033,0.029693604,-0.215648606,0.071167909,0.077185862,0.265861839,0.191614553,0.040209882,-0.029297119,-0.233731464,0.137954175,-0.14298819,0.080792591,0.160761833,0.019834654,0.05225119,0.012614276,-0.07299716,0.103246771,0.179973751,-0.194918707,-0.02877927,0.103097729,-0.012575004,0.028491959,-0.092911854,0.184204862,0.025435384,-0.124106556,-0.223310128,0.084472731,-0.177505746,-0.146697015,0.110971481,-0.122160569,-0.170221433,-0.34415704,0.024401903,0.356591523,0.150943801,-0.194017455,0.088102005,-0.010637367,-0.031009723,0.188557461,0.144142061,-0.010120531,0.039107632,-0.119710445,0.028587924,0.245305449,-0.041191906,-0.024481811,0.221380159,0.022177029,0.066224203,0.096682385,0.082453489,-0.100371644,0.048304129,-0.200133592,-0.036722414,0.060010385,0.008030769,-0.005782871,0.125256747,-0.140475586,0.099060915,-0.006834453,-0.060638383,-0.026089869,-0.072694018,-0.070608504,-0.047340333,0.128093287,-0.27372539,0.170921698,0.128048703,0.131063759,0.102432348,0.142251819,0.043387786,-0.049975697,-0.078444146,-0.195392713,-0.012052422,0.084023915,0.008033579,0.156235814,-0.013707796,dog_man
gl29,-0.0793299,0.078041837,-0.035198867,-0.071353912,-0.122889586,-0.004427807,-0.059571702,-0.083891757,0.141676456,-0.101115122,0.230597422,-0.079326496,-0.173477843,-0.094462901,-0.066789404,0.202804178,-0.2378048,-0.184090137,-0.011522819,0.052145418,0.052884821,0.044382013,-0.00467505,0.096119016,-0.123268552,-0.316575974,-0.067397274,-0.086525634,0.060353722,-0.064215288,-0.036040321,0.030367672,-0.168899193,-0.03321261,0.087728098,0.122050442,-0.030863516,-0.095286347,0.183981121,-0.015016946,-0.27930218,0.080789454,0.078487165,0.29272157,0.14776434,0.026072906,-0.018861495,-0.212441221,0.134342715,-0.161939651,0.056367218,0.139993578,0.031733789,0.072179005,-0.009528992,-0.118690275,0.032287601,0.176607639,-0.146845475,0.008068165,0.069222711,-0.014681861,0.052193966,-0.151636586,0.212851748,0.04196379,-0.123622738,-0.206517622,0.083982885,-0.163067132,-0.142111436,0.116963603,-0.112054139,-0.173919633,-0.324685127,-0.008831829,0.368703753,0.125466093,-0.157335952,0.056482412,0.028517943,-0.022798941,0.145908311,0.182610422,-0.014680474,-0.00374842,-0.083411612,-0.005236918,0.289434761,-0.043871667,-0.031616103,0.170808434,-0.000299176,0.065492667,0.028189549,0.033849917,-0.056767602,0.056937777,-0.152731746,-0.014150805,0.007077415,-0.005182076,-0.015012186,0.132459968,-0.137727812,0.111231953,0.037313685,-0.001164551,0.034291867,0.032593578,-0.084994897,-0.045657523,0.134991154,-0.245381549,0.270410895,0.149136767,0.165951163,0.101388365,0.143298671,0.05311672,-0.047687668,-0.03939132,-0.20904316,-0.010519011,0.122003622,-0.04116099,0.147497579,-0.012654641,dog_man
gl30,-0.057870101,-0.001345661,-0.003280007,-0.094492652,-0.115525708,-0.073739655,-0.041490301,-0.074165218,0.109534375,-0.118352301,0.256659687,-0.125144705,-0.184126139,-0.12428432,-0.062817685,0.220093697,-0.211811557,-0.176921919,-0.059566528,0.031582847,0.08413247,-0.048289254,-0.023737513,0.103062488,-0.064810522,-0.355393946,-0.035115007,-0.033082008,0.017714769,-0.052179821,-0.023457976,0.048331939,-0.251657009,-0.05892073,0.032776229,0.121751845,-0.026411749,-0.104646131,0.205818683,0.009739963,-0.268377513,0.048380762,0.061542705,0.227726221,0.154538795,0.050236806,0.014888841,-0.166634023,0.143651187,-0.215391532,0.045891739,0.140234634,0.095900588,0.018215705,-0.015029763,-0.113763429,0.047382288,0.1706191,-0.208065644,0.011425077,0.078652285,-0.05460646,-0.009377271,-0.171601534,0.246834651,0.05719978,-0.128034666,-0.174428821,0.143570185,-0.138645589,-0.107633516,0.061556078,-0.091504276,-0.208080232,-0.351679295,0.039963089,0.390852749,0.144666731,-0.197871178,0.069545113,-0.003912174,-0.019486729,0.145119265,0.163714707,0.002110492,0.048309822,-0.102638364,-0.007956119,0.219866723,-0.0360303,-0.034158912,0.192086369,-0.003462104,0.056350559,0.020460486,-0.016188312,-0.061260141,0.077339016,-0.176015526,0.001781209,0.01043561,1.80015E-05,0.001928905,0.068354324,-0.104347408,0.08335989,-0.023774695,-0.022652138,-0.008342521,-0.003462614,-0.11720477,-0.081454515,0.077107035,-0.252668947,0.205914602,0.156638414,0.163861826,0.13194038,0.170383722,0.075927466,0.01675874,-0.041909914,-0.223511308,-0.013198128,0.132571638,-0.010016584,0.169916719,0.01668359,dog_man
gl31,-0.138133705,0.061227947,-0.009558859,-0.105662405,-0.095164016,-0.008167961,-0.02739599,-0.119153723,0.1276678,-0.14127709,0.24248682,-0.101586424,-0.166742831,-0.076515302,-0.087173313,0.189010635,-0.174954981,-0.16939643,-0.045509446,0.005356338,0.076418817,0.002439089,0.023718735,0.094434083,-0.116125591,-0.309293687,-0.075553462,-0.077649295,-0.005850459,-0.04050976,-0.006401731,-0.011261503,-0.220142886,-0.013924513,0.015588637,0.123344392,-0.031921867,-0.042852648,0.207774267,0.029585462,-0.249166384,0.092035301,0.02851129,0.278506666,0.187144935,0.008008388,-0.017492291,-0.194520012,0.137597963,-0.196573779,0.070506811,0.131765172,0.048796169,0.053545319,-0.032528114,-0.02572678,0.044377428,0.177049324,-0.13487722,0.053567283,0.135245845,-0.065104686,-0.020865772,-0.153163508,0.194663256,0.08612632,-0.13201049,-0.220154434,0.102896154,-0.167968333,-0.157740831,0.091163471,-0.10390681,-0.188037261,-0.310156763,0.040755317,0.374210447,0.158595845,-0.186559379,0.04121938,-0.024859212,0.015733719,0.163950384,0.161718905,0.01933324,0.002238248,-0.072153077,-0.00853491,0.275862396,-0.035999823,-0.061041046,0.232154146,-0.009385792,0.0904404,0.024991207,0.030343512,-0.045085229,0.067932703,-0.154987022,0.01648262,-0.014652817,-0.009747378,-0.012453662,0.067615099,-0.148450091,0.190531671,-0.03009023,0.030774957,0.014774378,-0.002147851,-0.098784328,0.002811825,0.135651484,-0.22463952,0.249585748,0.166465819,0.158766195,0.092659391,0.194649205,0.05095334,-0.001303259,0.006136809,-0.254128754,-0.01558025,0.111105338,-0.046380799,0.145842925,0.019578869,dog_man
gl32,-0.15043956,0.100304693,-0.048851024,-0.068021849,-0.096293405,-0.06317012,-0.02531473,-0.151345506,0.115295127,-0.082704857,0.234627217,-0.097908489,-0.19131577,-0.132016107,-0.043214735,0.185496286,-0.172795296,-0.181547299,-0.012665742,-0.004154232,0.105032437,-0.033447862,-0.041348804,0.082850277,-0.050896037,-0.312144011,-0.084309548,-0.033570148,0.045604911,-0.053274419,0.031206358,0.044231955,-0.183014035,-0.071032509,0.042955801,0.154701591,-0.012529959,-0.020058081,0.184349239,-0.015188364,-0.214868426,0.041758936,0.061523125,0.285248458,0.196852982,0.059048019,0.01549522,-0.163990796,0.105873816,-0.134667382,0.02824134,0.158180699,0.140146971,0.062501319,-0.037740994,-0.118509404,0.051908989,0.118636496,-0.244931236,0.010335908,0.155668259,-0.098981328,-0.009152574,-0.107509069,0.201551214,0.050262239,-0.129037976,-0.188779846,0.167749688,-0.188285515,-0.120370135,0.020104747,-0.090942703,-0.206704438,-0.31541869,0.040008515,0.316499025,0.160218909,-0.180881888,0.070508286,0.017544419,0.002974477,0.125856429,0.135863811,-0.004466761,-0.014677037,-0.106258251,-0.045967828,0.180869147,-0.017326945,-0.017903596,0.185058653,0.002892164,0.043855533,0.04678338,0.072456039,-0.063312307,0.096276239,-0.127141714,0.019415226,-0.044919185,-0.078611217,0.044547461,0.060165331,-0.107868232,0.200739145,-0.02242567,0.065909564,-0.078299724,-0.01909744,-0.076361157,-0.01422578,0.122015506,-0.23386012,0.24935323,0.176110595,0.077352189,0.156246632,0.155883476,0.129237965,0.015484833,-0.042137682,-0.207514018,-0.050984163,0.039089844,-0.048203595,0.131413609,0.066761784,dog_man
gl33,-0.035670832,0.084032901,-0.004090994,-0.082911439,-0.122657351,-0.044615768,-0.112555444,-0.094177537,0.111113183,-0.075609654,0.243028626,-0.102816634,-0.200105086,-0.059756767,-0.064848557,0.227324873,-0.246903867,-0.150038436,-0.018336989,0.00563006,0.026651222,0.049241222,0.011018547,0.066207118,-0.115193695,-0.281067967,-0.047314849,-0.099637479,0.017262746,-0.063542627,-0.024166733,0.026958125,-0.151243582,-0.006655404,0.073182493,0.071585394,-0.016068313,-0.092219211,0.218200743,-0.012891152,-0.294884682,0.106797174,0.055580575,0.250107855,0.190286368,0.019057065,0.000500996,-0.196868777,0.130218431,-0.170284465,0.030862901,0.142045826,0.035869349,-0.000382858,-0.013903171,-0.138017848,0.011245198,0.168001607,-0.18708472,-0.009384703,0.101642013,-0.022762727,0.067107931,-0.141509145,0.25946793,0.05868965,-0.144714162,-0.196249083,0.093945235,-0.159925357,-0.128512397,0.127900645,-0.111308351,-0.179413393,-0.341519177,-0.038196776,0.388382167,0.089958489,-0.181036115,0.079442121,0.003505108,-0.038788561,0.146259397,0.174898103,-0.008790989,0.007423395,-0.091957435,-0.044050157,0.290228009,-0.059612662,-0.051876012,0.186645105,-0.013814174,0.074515171,0.02125358,0.021054113,-0.066188529,0.021766366,-0.121664777,-0.01392539,-0.042498171,-0.016343553,-0.014684367,0.124363095,-0.124169894,0.11754705,0.000508794,0.008579525,-0.02909635,0.040874109,-0.039170522,-0.036236543,0.165201128,-0.263045907,0.2308878,0.124624357,0.141417235,0.096256137,0.13008596,0.056823034,-0.070197247,-0.014624151,-0.22606276,-0.014683155,0.0865485,-0.057746913,0.212014079,0.035972882,dog_man
gl34,-0.093483344,0.099774852,-0.030191455,-0.071073167,-0.108787902,-0.034520164,-0.096434481,-0.168911904,0.079371966,-0.121454231,0.197818384,-0.123359166,-0.161666736,-0.093181975,-0.065537959,0.178861737,-0.2339468,-0.199856222,-0.021827973,0.002303313,0.076040052,0.005754021,0.029422713,0.109294146,-0.121389873,-0.286132485,-0.07548257,-0.120208897,-0.00793743,-0.048393685,-0.024549287,-0.06440039,-0.21971269,-0.04382845,0.042028368,0.07494618,0.026923675,-0.07261721,0.226768464,-0.021719549,-0.232114062,0.096592642,0.048228212,0.24477002,0.175415948,0.022399325,-0.010190815,-0.189563274,0.154640019,-0.152660817,0.103062823,0.133888349,0.075923055,0.045801654,-0.062070359,-0.105070986,0.044130355,0.15671882,-0.140579194,0.024760263,0.126173347,-0.029478725,0.012043985,-0.087544188,0.191852108,0.050347615,-0.096859209,-0.226601571,0.060036752,-0.142554313,-0.135916606,0.074180491,-0.125887498,-0.176449448,-0.330994129,0.027032949,0.393910527,0.117763869,-0.206782222,0.042978462,-0.036591239,0.011751697,0.149246782,0.120060481,0.010134337,-0.005147301,-0.095855772,0.025823984,0.253184259,-0.062076725,-0.079714246,0.18933551,-0.006970497,0.067978203,0.049660467,0.059875451,-0.047295079,0.087527379,-0.113372505,0.037410591,0.032147273,0.019410513,-0.013001563,0.093616478,-0.170008868,0.133421138,-0.018359456,-0.01350371,-0.024256658,0.009115327,-0.116166539,-0.030866727,0.147035927,-0.234628603,0.235500589,0.172958732,0.123250939,0.135383949,0.139500558,0.055634383,-0.006295848,0.004789184,-0.235499635,-0.04020733,0.129038066,0.016274456,0.166208401,0.040355749,dog_man
gl35,-0.058808587,0.098878756,0.021016376,-0.09482462,-0.119509473,-0.045146532,-0.06926357,-0.084333368,0.13222608,-0.079444647,0.237714335,-0.106927574,-0.216759384,-0.027761828,-0.060353257,0.196826547,-0.220234573,-0.143415928,0.024868768,0.04872511,0.11441128,-0.046436086,-0.023852974,0.105963491,-0.113095582,-0.329886734,-0.061196506,-0.051522043,0.009428003,-0.069377571,-0.049376223,0.059083335,-0.205589622,-0.032745324,-0.011463895,0.058491558,-0.016605841,-0.093729652,0.173310369,0.026765596,-0.299675524,0.117396481,0.021594282,0.247648448,0.194053665,0.034668341,0.00297456,-0.187210724,0.118384704,-0.236256361,0.022340871,0.156610221,0.030222178,0.022899698,-0.043661714,-0.113085926,0.030006647,0.102083094,-0.203730017,0.017299287,0.110361733,-0.03975258,0.044180468,-0.152868882,0.231837392,0.093899764,-0.141945839,-0.155606464,0.088365957,-0.139576048,-0.123788588,0.093387112,-0.111265913,-0.207935601,-0.341855913,0.046823122,0.377315968,0.147354111,-0.191358373,0.061046816,-0.044967368,-0.006355905,0.163906172,0.17788808,0.013116464,-0.007714324,-0.101839066,0.0021044,0.247989848,-0.054169886,-0.042394057,0.252178967,0.006186068,0.114575021,-0.00829931,0.093283989,-0.09381295,0.053058211,-0.163663268,-0.013440891,0.012682066,0.037408765,-0.019612972,0.159343645,-0.135781586,0.116542883,-0.007965563,0.009739265,0.008037387,0.012486347,-0.065253995,-0.058860511,0.077438779,-0.244690999,0.199338004,0.153339952,0.131516472,0.060410872,0.150456309,0.016612638,-0.01143836,-0.061615866,-0.231987804,0.012904863,0.139645025,-0.030009601,0.11821197,0.002824327,dog_man
gl36,-0.061755832,0.052105404,-0.030077435,-0.097731434,-0.075439349,-0.055226531,-0.096941866,-0.094287649,0.128744066,-0.099498644,0.187492609,-0.064112477,-0.198198721,-0.107007168,-0.050278295,0.14012149,-0.185699299,-0.132642582,0.00400758,0.015822172,0.094834045,0.012470894,0.017052611,0.054953814,-0.153665811,-0.286123812,-0.10650333,-0.067885011,-0.029862041,-0.025930749,0.015553763,0.070478544,-0.182821423,-0.0342783,0.071619637,0.158103034,0.038816251,-0.042637337,0.15986304,0.028430866,-0.218696654,0.052371211,0.038651153,0.259215206,0.175760448,0.032372203,-0.009320641,-0.221959397,0.154580712,-0.127156183,0.061306003,0.153688684,0.029540233,0.036464166,0.061493598,-0.051357962,0.121432997,0.136892587,-0.186083004,-0.049895536,0.098030344,-0.001124323,0.01711105,-0.11682681,0.188937217,0.031170921,-0.09801916,-0.19729273,0.118703932,-0.144608602,-0.138380781,0.128298759,-0.11078845,-0.159638807,-0.324256808,-0.003513908,0.366186529,0.157017499,-0.190959588,0.098315313,-0.016315212,-0.052401505,0.196799651,0.119703695,-0.000219548,0.033221491,-0.094083771,0.011106441,0.254464597,-0.026162911,-0.03420426,0.187359571,0.017933458,0.073555499,0.062104598,0.012911612,-0.076978251,0.068182364,-0.181453183,-0.044206139,0.066091277,-0.000565024,-0.011264954,0.116073757,-0.143971846,0.110865228,0.01807311,-0.025435824,-0.002649372,-0.023972461,-0.109456003,-0.019411322,0.127256066,-0.268342733,0.192601234,0.09480828,0.09498167,0.074131757,0.139741555,0.07352189,-0.053585082,-0.070039071,-0.201363236,-0.02930944,0.097107008,-0.003756187,0.149261326,-0.021461111,dog_man
gl37,-0.118153803,0.034081731,-0.028838059,-0.120026328,-0.129782602,-0.013398348,-0.085071564,-0.090288565,0.129296392,-0.135182962,0.197747663,-0.103039913,-0.232962579,-0.050105136,-0.099643558,0.205150366,-0.212372437,-0.156823784,-0.015055863,0.010761612,0.061383698,0.060227334,0.01773601,0.059978094,-0.075744726,-0.350046754,-0.071420155,-0.032372359,-0.004878704,-0.040743832,-0.012252033,0.063760623,-0.214183733,-0.022753479,0.069298089,0.152019203,0.015958721,-0.061873693,0.137777895,0.009470772,-0.260524333,0.050944876,0.071000367,0.272592634,0.140026167,0.033138528,-0.02910593,-0.214474365,0.090620629,-0.179856524,0.062858239,0.135731921,0.028740937,0.012212423,-0.004627773,-0.090423249,0.064953752,0.166813701,-0.136072174,-0.003341563,0.12619324,-0.033955395,0.016817868,-0.143081859,0.231092691,0.026446624,-0.129862621,-0.196926087,0.107544854,-0.133177564,-0.106013805,0.083509527,-0.097888857,-0.188689277,-0.298274845,0.013191754,0.349436432,0.129038304,-0.151609331,0.114730649,-0.003369012,-0.01913704,0.135209367,0.182928756,-0.007861937,0.052775916,-0.08245445,0.031755339,0.24827005,-0.03904824,-0.015216348,0.238463908,-0.007427606,0.058136374,0.049762461,0.042847276,-0.066963144,0.046451565,-0.165570855,-0.02537794,0.047209471,-0.031725924,-0.014354765,0.114438713,-0.152013674,0.12190555,-0.027723204,0.000124814,0.044777311,-0.02940532,-0.041146107,-0.048969787,0.127083614,-0.24994655,0.199476019,0.147625983,0.152154326,0.132310882,0.150690645,0.069546625,-0.001144865,-0.043251,-0.238215238,-0.010919505,0.112486765,-0.048473462,0.124567144,0.024217179,dog_man
gl38,-0.059988916,0.081450105,-0.039995443,-0.077538796,-0.156682804,-0.038019482,-0.073696762,-0.055342913,0.131766245,-0.088913038,0.229474023,-0.038497388,-0.154107496,-0.062281527,-0.070583574,0.188749239,-0.271745205,-0.172345281,-0.027819462,0.000510612,0.055877738,0.056713097,-0.042474989,0.069343641,-0.157808661,-0.298321694,-0.048095822,-0.096887968,0.040040474,-0.046792652,-0.011863476,0.036085647,-0.156934917,-0.019953443,0.094849586,0.091835737,-0.018498316,-0.077381015,0.193773329,0.02592767,-0.278004229,0.098435715,0.067243613,0.278474957,0.179144129,0.00241916,0.016349945,-0.181563541,0.168448046,-0.144169822,0.031916074,0.16894947,0.066490158,0.06278985,-0.000779564,-0.105352595,0.026945781,0.125835672,-0.144776121,-0.014910519,0.0784178,-0.035956535,0.053885177,-0.13317804,0.220349297,0.014346962,-0.11973013,-0.220499396,0.107614793,-0.175702602,-0.184264824,0.095399246,-0.106802002,-0.149424508,-0.335823357,-0.014082417,0.374614984,0.117527366,-0.164371327,0.103797436,-0.009401906,-0.057788316,0.114394389,0.186441481,-0.021319401,0.048378475,-0.086501747,-0.005868409,0.311738074,-0.050526217,-0.040533498,0.188393682,0.008380804,0.079912782,0.055069767,0.014187254,-0.079237193,0.029568782,-0.100218683,-0.020512639,0.021301044,-0.031203274,-0.010684967,0.122473396,-0.136354774,0.134764433,-0.008600596,0.031140951,-0.020522051,0.040616408,-0.07720302,-0.042262591,0.143379509,-0.228263691,0.262701988,0.126252651,0.140037596,0.094985031,0.156134143,0.020194303,-0.066449583,-0.025907764,-0.197902709,-0.039389376,0.07422927,-0.049676765,0.167108864,0.016197745,dog_man
gl39,-0.030240726,0.074342504,-0.01180118,-0.027792241,-0.093623176,0.000121904,-0.072165564,-0.080875486,0.129524782,-0.040652946,0.183727577,-0.035972562,-0.194220304,-0.077153429,-0.078713022,0.162324667,-0.207037494,-0.187466547,0.000137937,0.052711412,0.102212355,0.015145542,0.041299097,0.093440324,-0.120350242,-0.302839309,-0.067276731,-0.113092758,0.022490416,-0.03403056,-0.047307122,0.030278699,-0.225139663,-0.043598332,0.068957075,0.126342446,0.020864166,-0.09162005,0.20812051,0.054198433,-0.269034505,0.1155992,0.014497822,0.249955133,0.172468424,0.029006375,-0.003657691,-0.214702785,0.117647365,-0.161398768,0.087166004,0.215255335,0.079902589,0.086207464,-0.044909924,-0.116559871,0.063559152,0.098316394,-0.146452561,-0.026870273,0.066055439,0.001927012,0.063329302,-0.142420202,0.189147919,0.034122042,-0.106238596,-0.175288796,0.096712872,-0.135100916,-0.152072847,0.102546737,-0.139859051,-0.169056222,-0.303125292,0.035616804,0.399433196,0.142198816,-0.232147306,0.072118804,-0.076324716,-0.02271964,0.098022684,0.184098691,0.020211747,0.047705345,-0.078881152,-0.008532563,0.25145492,-0.061663147,-0.039055262,0.202872336,0.019986203,0.100957252,0.062089436,0.05350031,-0.033603415,0.068767115,-0.168643072,-0.027641125,-0.009079895,0.011720488,-0.020345116,0.105600849,-0.168629929,0.092703372,0.028532229,-0.04616496,0.023740266,0.014690618,-0.088082269,-0.060911357,0.136971086,-0.265140265,0.271202415,0.155201942,0.113498233,0.104274794,0.138722226,0.113116309,-0.044129401,-0.069551505,-0.204118147,-0.038960591,0.122653157,0.016015146,0.096801654,0.007024159,dog_man
gl40,-0.099042691,0.028844662,-0.012626463,-0.081582405,-0.141751051,-0.072062753,-0.080649644,-0.102835767,0.132807493,-0.098861337,0.22389321,-0.072914526,-0.128710791,-0.105150834,-0.093155883,0.14044328,-0.190740436,-0.15044558,0.026108988,0.003882096,0.107256144,-0.016495168,0.027638219,0.055556357,-0.098870531,-0.333808303,-0.046848018,-0.085253529,0.039352678,-0.046241663,0.00639156,0.022297574,-0.236400813,-0.040887132,0.048904415,0.142897561,0.028109435,-0.068785049,0.197012305,0.025753159,-0.235245749,0.032811202,-0.008195046,0.250171244,0.1679115,0.021770135,0.011722816,-0.21038571,0.189428687,-0.122287653,0.060396247,0.156804532,0.097911008,-0.010180362,-0.037495643,-0.081799433,0.089927226,0.181213915,-0.213330448,-0.006879691,0.114060543,-0.027185459,0.005621516,-0.112308167,0.199620038,0.05807801,-0.083301447,-0.219355404,0.130461618,-0.144664884,-0.114767022,0.062253058,-0.119715758,-0.193738654,-0.306304038,0.004991971,0.335231096,0.137358844,-0.193293229,0.056497365,-0.05280102,0.008696948,0.150791004,0.14108187,0.00135988,0.02446417,-0.111698098,-0.038406327,0.235410571,-0.051578544,-0.036959097,0.177477285,-0.007832997,0.058956195,0.013963897,-0.010996146,-0.107507735,0.126499444,-0.135149345,-0.029040517,-0.003653095,-0.00645775,0.016508725,0.108632289,-0.203997016,0.113093801,-0.042513277,-0.011789816,-0.00524298,-0.069522023,-0.062303945,-0.052601978,0.106940567,-0.228222474,0.243494421,0.166434154,0.168252364,0.167188749,0.150947526,0.039734881,0.010977953,-0.036862466,-0.225316539,0.003634191,0.054365527,-0.025261428,0.102328554,0.005935768,dog_man
gl41,-0.109439924,0.080418885,-0.017976796,-0.102601774,-0.098290585,0.001931949,-0.034565076,-0.06125477,0.137371644,-0.083079413,0.235286593,-0.084114186,-0.262790769,-0.035395578,-0.02555516,0.203569189,-0.22784017,-0.181668088,-0.048884854,0.017858239,0.075025395,0.049020536,-0.034406707,0.082116947,-0.175409317,-0.351792008,-0.056931537,-0.070335537,-0.003046777,-0.031281918,-0.054365639,0.007407433,-0.200335085,-0.020873571,0.092853375,0.158462748,0.015091062,-0.091766886,0.207938999,0.054081466,-0.277114749,0.102630377,0.104758106,0.290815234,0.16915001,-0.001389868,0.003749428,-0.174652129,0.142585441,-0.197708175,0.049136452,0.150393158,0.140263006,0.065472431,0.014714617,-0.111691445,0.019498758,0.179798543,-0.223558396,0.02161403,0.083616622,-0.051669233,0.058835693,-0.154688224,0.189170197,0.026179619,-0.153599292,-0.184652448,0.071275271,-0.166575372,-0.14035444,0.088730663,-0.125055254,-0.222127825,-0.411414236,0.031105168,0.351135612,0.19044438,-0.205481127,0.068289213,-0.008329293,-0.028482134,0.14332661,0.154353887,0.014773538,0.028532267,-0.107354619,0.021722954,0.306918025,-0.050872691,-0.036876772,0.206197858,0.006521805,0.074527733,-0.003254571,0.067094885,-0.099237151,-0.010655225,-0.156532615,-0.011078373,-0.057598602,-0.004693883,0.008353573,0.11500226,-0.188614294,0.07328441,0.010816725,-0.063191034,-0.048109408,0.036886275,-0.09653721,-0.061387442,0.113787971,-0.299074292,0.201123074,0.208905563,0.091406837,0.1092107,0.139994726,0.006261659,-0.029955475,-0.02081174,-0.1853946,-0.056856215,0.100567497,0.01877482,0.177337423,0.015989438,dog_man
gl42,-0.100341335,0.086951077,-0.042344935,-0.078248575,-0.092425026,-0.046370085,-0.04793838,-0.091349348,0.155820772,-0.095554933,0.220965102,-0.094947062,-0.196788579,-0.103658192,-0.07618957,0.183487341,-0.251149207,-0.173850447,0.000792238,0.056160145,0.076934576,-0.03768741,0.020989729,0.107688092,-0.031992279,-0.345251918,-0.086783767,-0.096386313,0.008812782,-0.068925098,-0.007433175,-0.010197076,-0.229938626,-0.095432013,0.024427596,0.098139331,-0.030085241,-0.083353639,0.211058557,0.014420641,-0.248987377,0.072060823,0.059207629,0.291853011,0.183140874,0.063227803,-0.020558957,-0.183279201,0.150823459,-0.167203397,0.039797843,0.168654993,0.099690251,0.012446917,-0.032544985,-0.091807805,0.05237785,0.126443431,-0.212508544,0.021987068,0.110843599,-0.027373884,0.009047953,-0.13308017,0.246454388,0.056344703,-0.130091175,-0.21632643,0.132952288,-0.16566512,-0.113536969,0.097693577,-0.111364178,-0.21482107,-0.28445074,0.022682287,0.374883711,0.103666164,-0.141746148,0.078591943,-0.045356642,-0.071861207,0.070745848,0.210690886,0.013203032,0.032790769,-0.099193595,-0.02611885,0.233743683,-0.041313678,-0.043700874,0.189959198,-0.024207469,0.039621919,0.032358926,0.020425329,-0.08993452,0.085427314,-0.187127963,-0.031154769,-0.013865448,-0.036955073,-0.04506553,0.068441287,-0.139465764,0.107764214,-0.017526649,-0.019125845,-0.028399641,-0.046373665,-0.103065066,-0.032353658,0.136852935,-0.250880837,0.25408712,0.142898798,0.159803152,0.111699909,0.143201455,0.068686217,0.007833433,-0.029729452,-0.243613809,-0.036231115,0.090171672,-0.026136823,0.161901087,-0.006157138,dog_man
gl43,-0.087496124,0.162405461,0.02744662,-0.06619218,-0.110513009,0.024728298,-0.07363192,-0.113201916,0.112381935,-0.051489878,0.21860534,-0.067573033,-0.199526131,-0.152709857,-0.082758226,0.213981792,-0.188668296,-0.166340292,-0.010822092,0.016981347,0.135436818,0.052408796,0.021456618,0.043106616,-0.144391,-0.290250629,-0.043406717,-0.117103204,-0.020241313,-0.039593652,-0.031495389,0.021592576,-0.180305377,-0.055934526,0.066353723,0.109367535,0.004027468,-0.043756269,0.182657212,0.00418187,-0.249688908,0.107394591,0.058647953,0.248891175,0.168747067,0.01133931,0.021012366,-0.171044141,0.141714707,-0.142549992,0.058881402,0.157113105,0.094382167,0.038793713,0.037523903,-0.121251047,0.011651671,0.156142414,-0.126579329,0.025476923,0.072661594,-0.035304587,0.016100593,-0.138269484,0.148329034,0.026363865,-0.110071182,-0.208344117,0.099273697,-0.091265731,-0.157494307,0.097029716,-0.149968341,-0.162853152,-0.330634177,0.015307681,0.364986271,0.11623577,-0.261902511,0.023010124,0.018358389,-0.00254082,0.130123526,0.172595352,0.026566597,0.02196697,-0.089519039,-0.03041359,0.236759514,-0.075541712,-0.046430483,0.232668355,0.003739087,0.097747311,0.002753225,0.010746215,-0.054416824,0.077979989,-0.148619607,-0.013949621,0.001038317,-0.015605686,-0.033749036,0.113685928,-0.135075867,0.083231747,-0.003266657,0.034960896,-0.061638616,-0.006799561,-0.101623416,0.009365043,0.156374916,-0.190562382,0.249450609,0.17515628,0.076133259,0.069473676,0.198059782,0.036912613,0.020909062,-0.035407118,-0.220898733,-0.054562919,0.135389432,-0.063126266,0.108014107,0.010464633,dog_man
gl44,-0.086958922,0.054517794,-0.02787259,-0.052655313,-0.113500275,-0.057244215,-0.103013739,-0.13241905,0.11049892,-0.136440113,0.205078721,-0.044645011,-0.190758586,-0.088600092,-0.057926364,0.204079181,-0.140857875,-0.207242012,-0.000891232,-0.009329828,0.035925858,-0.037326779,0.0357964,0.072503015,-0.086671337,-0.288051695,-0.082407512,-0.090382576,0.025792101,-0.063018017,-0.03358693,-0.001892303,-0.178418994,0.018662903,0.064465806,0.110013582,0.009177921,-0.070546664,0.256777048,0.023447417,-0.265285283,0.088572539,0.031922452,0.240374893,0.15108256,0.021984888,0.013886023,-0.247692525,0.183207154,-0.12443994,0.086440399,0.15632163,0.099649891,0.003898016,0.027248442,-0.118488595,0.061200038,0.132841498,-0.182747439,-0.001043585,0.074129716,0.017941508,-0.008846782,-0.185967758,0.242133349,0.062394433,-0.129817262,-0.19032228,0.132684514,-0.15484935,-0.124862865,0.117035516,-0.119309492,-0.19727096,-0.318356782,0.002761986,0.349924207,0.17294085,-0.20341906,0.092924237,-0.006908585,-0.053865418,0.110245876,0.165794581,-0.026912913,0.023450335,-0.064305685,-0.0632312,0.2675246,-0.040707618,-0.044559062,0.152639136,-0.004376536,0.111910343,-0.002497158,0.006539074,-0.094907746,0.010443535,-0.156305671,-0.071560398,-0.057556152,-0.01832075,-0.015621535,0.082654625,-0.183579549,0.112867832,-0.008014736,-0.030445956,-0.049183551,0.057334576,-0.088180117,-0.027516179,0.105402261,-0.271258384,0.268156886,0.152982175,0.1539938,0.095465131,0.167243749,0.064431652,-0.03980799,-0.030107785,-0.200833097,-0.043460425,0.097526364,-0.044777371,0.159742609,0.030316167,dog_man
gl45,-0.08785069,0.081257433,0.029613338,-0.005302426,-0.046924848,-0.068866454,-0.033376619,-0.128184646,0.122014932,-0.037974872,0.247762054,-0.110900953,-0.169085443,-0.112477727,-0.099510036,0.183899567,-0.180613175,-0.157241657,-0.017675836,0.039475311,0.146160498,-0.03420224,0.049142055,0.034697261,-0.079680584,-0.296899378,-0.109046943,-0.09997692,0.012936593,-0.057969805,-0.016337514,-0.012034804,-0.193489954,-0.070912078,0.043169495,0.07652396,0.00696764,-0.108711995,0.201945946,-0.027287276,-0.267356932,0.093677208,0.056945816,0.243568912,0.160060003,0.021509826,-0.005823521,-0.201455355,0.142993063,-0.120511167,0.012079763,0.160060823,0.091248877,0.048833422,-0.024448197,-0.061168272,0.069957986,0.136514515,-0.1650078,-0.015973132,0.108656362,-0.026960062,0.010907186,-0.111435667,0.163896635,0.047112852,-0.119603507,-0.196781158,0.100210965,-0.13498503,-0.109400116,0.087612398,-0.139982909,-0.205495924,-0.309535444,-0.012999021,0.386744142,0.050310083,-0.208926365,0.085854746,-0.052200705,0.027298156,0.132732004,0.184880033,0.023927173,0.073167942,-0.123540036,-0.068934351,0.248423278,-0.094655856,-0.041356165,0.196833745,-0.002439091,0.077204257,0.039700449,0.036063522,-0.019772755,0.0743104,-0.159568697,0.011506658,-0.025350921,-0.008560386,-0.054011784,0.044184249,-0.146109313,0.078527428,0.041843832,0.031744637,-0.023685958,-0.048250657,-0.074116684,-0.025290044,0.103826724,-0.267140597,0.222691625,0.169302002,0.105805114,0.091849424,0.147652641,0.068903416,-0.006065748,-0.028460411,-0.214138404,-0.017543014,0.08912766,0.003598656,0.072415173,-0.004930798,dog_man
gl46,-0.071029581,0.07617411,0.01240823,-0.068023033,-0.094854072,0.004703172,-0.101958469,-0.086605415,0.099901862,-0.125508681,0.256447524,-0.039150402,-0.176461145,-0.112782732,-0.081294104,0.173788503,-0.162287593,-0.177978322,0.027162718,0.033503372,0.116089649,-0.036760051,0.0108591,0.071741469,-0.151339307,-0.299469739,-0.073370181,-0.080928698,-0.022395927,-0.070250653,-0.016610164,0.00547633,-0.201163858,0.03031319,-0.000735246,0.103278518,-0.004212562,-0.04813746,0.166137844,0.056123953,-0.277597427,0.092989497,0.009067128,0.259392917,0.204314098,0.010360917,-0.025382917,-0.188282102,0.12826778,-0.19383736,0.073744796,0.161825225,0.052535877,0.023674753,0.030323567,-0.066347785,0.053880356,0.170534775,-0.183018848,0.018172096,0.030182203,-0.026052801,3.44962E-06,-0.182926804,0.163650513,0.11343658,-0.1006032,-0.220351562,0.123079382,-0.163960755,-0.164240882,0.139456481,-0.115761869,-0.213902131,-0.334126264,0.022025507,0.331868738,0.198364705,-0.211764574,0.070069492,0.031003641,-0.020137593,0.155064017,0.159187526,0.020902595,0.010386682,-0.079185486,-0.042953603,0.226790249,-0.026170801,-0.045624901,0.218932688,-0.037826829,0.070149027,0.034988828,0.018478816,-0.069840431,0.069706492,-0.183633685,-0.073073022,-0.032587517,-0.021888245,-0.033098701,0.096961886,-0.160209298,0.104569077,-0.022484424,-0.007843774,-0.002679468,0.001880678,-0.085829623,-0.002284594,0.120909408,-0.25683099,0.246168181,0.163047463,0.145338237,0.070980556,0.189508587,0.045222633,-0.040557992,-0.06780868,-0.234819084,-0.002872057,0.085898109,-0.078152888,0.109690793,-0.019937709,dog_man
gl47,-0.018873205,0.041657619,-0.062009417,-0.099058904,-0.106969856,-0.011525953,-0.092710286,-0.047169894,0.193949983,-0.137813643,0.18389602,-0.0183249,-0.189203635,-0.016571367,-0.002594552,0.174846113,-0.222883537,-0.178433135,-0.053639561,0.005601425,0.027157901,0.080156848,-0.031455722,0.110989459,-0.107117705,-0.287010252,-0.040234406,-0.069766529,0.070893779,-0.059938919,-0.020248381,0.049758431,-0.168627515,-0.001832321,0.087407395,0.143042296,-0.031524356,-0.097265929,0.168063715,0.041610189,-0.296828896,0.08041276,0.006546752,0.239020854,0.177899554,0.002369239,-0.005847158,-0.198460042,0.165654048,-0.222117499,0.017406764,0.158398986,0.031224955,0.031543784,0.042336691,-0.165345907,0.048849951,0.130469531,-0.17394489,-0.030223567,0.048679303,-0.002590235,0.061951529,-0.097372085,0.197045207,0.03322297,-0.098629713,-0.210437939,0.152439803,-0.18209374,-0.114283405,0.169485599,-0.075449623,-0.184412017,-0.262148887,-0.01424771,0.421787411,0.122577161,-0.144380122,0.130339459,-0.010733907,-0.05856847,0.120607123,0.136407375,-0.010999087,-0.00293207,-0.102673598,-0.004211725,0.297802269,-0.025945529,0.002412661,0.183367282,0.026138645,0.075262681,0.069529757,0.041860983,-0.077028446,0.029286476,-0.154198036,-0.052151978,-0.003586068,-0.016967639,-0.02008554,0.121770158,-0.140609547,0.156170025,0.015523272,-0.032487664,0.023865091,0.080567569,-0.058612201,-0.063942246,0.140030637,-0.273958176,0.206151336,0.123413295,0.130255938,0.109585829,0.080985703,0.076378867,-0.050974131,-0.055579524,-0.232213393,-0.048968371,0.046745051,-0.0226631,0.073601037,0.004949406,dog_man
gl48,-0.066612631,0.050978184,-0.00797515,-0.061875265,-0.104441613,0.021705953,-0.120320261,-0.068674617,0.140519008,-0.106478348,0.233040705,-0.049408384,-0.227916822,-0.053447284,-0.084683657,0.196521834,-0.165964767,-0.114619106,-0.013462583,0.034559038,0.09540154,0.064333148,-0.010900115,0.049127497,-0.131727591,-0.328167588,-0.063260958,-0.121577889,-0.041871868,-0.057998214,-0.023989242,0.019528897,-0.141868487,0.019938929,0.065003417,0.132131919,-0.017580116,-0.023688335,0.119604975,0.04031691,-0.259482712,0.098363772,0.021896124,0.261089474,0.207581952,0.029180411,-0.002452249,-0.223952055,0.129183337,-0.178512305,0.054314822,0.118801683,0.090245813,0.03480304,0.066414043,-0.107527785,0.056781359,0.145920232,-0.199661955,-0.00577362,0.086499296,0.007478772,0.045630019,-0.116820246,0.183104694,0.011181664,-0.141145602,-0.182230189,0.077564955,-0.179734215,-0.102132417,0.126676381,-0.124271989,-0.241737738,-0.34043172,0.020776244,0.416524202,0.19560872,-0.20233576,0.077210598,0.003491092,-0.039739229,0.141930953,0.122771889,0.018909836,-0.003892625,-0.102311537,-0.02796383,0.230874091,-0.065256335,0.003991311,0.214586735,-0.017674858,0.057574172,0.012374509,0.017982608,-0.111963935,0.037888605,-0.141762823,-0.087869562,-0.078481756,-0.019763291,0.009133543,0.080575779,-0.157984942,0.147878811,-0.014825537,-0.019951053,-0.008775312,0.025330964,-0.097779199,-0.026938055,0.166276813,-0.257932097,0.174491242,0.132056355,0.16889286,0.112223782,0.143111482,0.063164517,-0.074306764,-0.027898248,-0.231730565,-0.003213901,0.064377233,-0.04336096,0.128340602,-0.009970614,dog_man
gl49,-0.121910274,0.057803776,-0.005533564,-0.059036575,-0.095119402,-0.033448074,-0.035957932,-0.146757185,0.176744491,-0.068105496,0.240891069,-0.083565772,-0.160920784,-0.10430263,-0.09740448,0.186985493,-0.168169364,-0.121092454,-0.012259026,0.035596382,0.107415453,0.025134956,0.000370919,0.078577623,-0.1214329,-0.320577621,-0.072249517,-0.063039184,-0.018240212,-0.051996388,-0.012753833,0.113944188,-0.243621826,-0.069237247,0.05994609,0.170505568,0.000485486,-0.021255644,0.15153259,0.038202267,-0.257642806,0.088367321,0.057554629,0.238833517,0.127226353,0.039381679,0.002069047,-0.2260869,0.125812858,-0.169129983,0.046293117,0.133258894,0.075590931,0.032249436,-0.03332473,-0.108846031,0.024049217,0.133173317,-0.211045027,0.034727942,0.11780341,-0.09795545,-0.042333983,-0.137327477,0.142502725,0.099440567,-0.094906427,-0.20082365,0.095672078,-0.164176956,-0.100981385,0.12304692,-0.081972055,-0.231958866,-0.333642393,0.044093613,0.382725596,0.123931363,-0.182177931,0.051991299,-0.009708465,-0.011704357,0.120873146,0.172833607,0.03293816,0.042165361,-0.05622584,-0.005392257,0.242511213,-0.041519661,9.53362E-05,0.239678115,-0.010174235,0.072577327,-0.014025342,0.020762725,-0.051205039,0.069783375,-0.128304839,-0.022251707,-0.023105578,-0.004665804,0.010235872,0.058723196,-0.177512079,0.122647703,-0.017211435,-0.031303003,0.017706579,-0.051134776,-0.053086895,-0.03814831,0.127069727,-0.26582551,0.239902049,0.152014568,0.102246054,0.149885476,0.125568151,0.099437959,0.006556503,-0.040325299,-0.192308038,-0.007442114,0.129204854,-0.0530889,0.091091491,-0.031462852,dog_man
gl50,-0.048033454,0.073147796,-0.047950193,-0.078307696,-0.160377488,-0.079001024,-0.060631849,-0.064871848,0.124284931,-0.121749267,0.230181396,-0.081739433,-0.214769095,-0.064718887,-0.043844711,0.209259123,-0.230249941,-0.178395748,-0.043609932,0.027559079,0.10112074,0.013977835,0.012127102,0.083397619,-0.11287798,-0.315121382,-0.021755422,-0.053669646,0.015358979,-0.079845376,-0.018717112,0.034176067,-0.198215544,-0.020574199,0.058149267,0.06215341,-0.03461799,-0.113110095,0.222000942,-0.013641858,-0.316611499,0.070201986,0.092169777,0.216594696,0.165015519,-0.030419428,0.000883766,-0.194254294,0.121514827,-0.210445642,0.062713236,0.139988363,0.066849731,0.003215974,0.000722309,-0.128960177,0.000977404,0.163267389,-0.19598709,-0.043710414,0.104575031,0.02491482,-0.030660473,-0.151755273,0.244662881,0.099066034,-0.148933798,-0.195065618,0.108027108,-0.160305768,-0.121368177,0.093658477,-0.104097776,-0.188255265,-0.28881529,-0.002537696,0.360601723,0.079013497,-0.158445925,0.089755647,0.010529,-0.041228347,0.106317855,0.166139096,-0.025356745,0.025834622,-0.062929489,0.050903793,0.23142451,-0.052414924,-0.043978583,0.193000272,0.028513186,0.0570397,0.04221122,0.007072492,-0.061181799,0.026287189,-0.173735768,0.008350476,-0.006973552,-0.008493081,-0.04493713,0.118726417,-0.096388355,0.081380747,0.003917121,-0.02511121,0.000523003,0.012349953,-0.082237177,-0.080066487,0.057048444,-0.228889748,0.227688029,0.088044152,0.14834702,0.092626907,0.131867602,0.028823014,0.025012599,-0.021483833,-0.24229452,0.012404064,0.137929022,-0.053149346,0.148101002,-0.01007898,dog_man
gl51,-0.078033283,0.043411039,-0.032821383,-0.084862888,-0.127454504,-0.025954675,-0.109616496,-0.127569363,0.098235324,-0.141079083,0.200249642,-0.095955096,-0.140711829,-0.03693473,-0.058431394,0.174464196,-0.195351496,-0.155549183,-0.015067649,-0.013674883,0.077763982,-0.027259193,-0.021376962,0.087710001,-0.113791272,-0.29339695,-0.046334893,-0.052358977,0.060237553,-0.054428883,-0.013808923,0.009303453,-0.215675473,0.00488576,0.055006251,0.162524804,0.007374916,-0.097198293,0.174882159,0.008214157,-0.259367079,0.09322755,0.020091807,0.20014596,0.128083959,0.00734123,0.010709669,-0.214022607,0.169168293,-0.143315032,0.06633199,0.138249934,0.05537045,0.020948164,-0.009382742,-0.124265909,0.075753495,0.144374311,-0.188575149,-8.45746E-05,0.120910704,-0.002872387,0.014972084,-0.146094054,0.181474701,0.098064177,-0.091445707,-0.243684307,0.117002808,-0.148160115,-0.101658389,0.113461897,-0.084788546,-0.180911243,-0.290825725,0.013255993,0.356280893,0.150785446,-0.173895359,0.057184588,0.001075058,-0.036720283,0.152578652,0.143576548,0.012069706,0.019232161,-0.063963823,-0.000105765,0.256041497,-0.012463843,-0.039545618,0.170403138,-0.006403899,0.058109693,0.016107794,0.032898661,-0.120640144,0.063624851,-0.121701434,-0.040896032,-0.008651415,-0.001503063,-0.007099528,0.115244754,-0.163051173,0.157277703,-0.051794365,-0.015839275,-0.009250361,0.015690098,-0.07677906,-0.014740708,0.121938616,-0.251151681,0.223790526,0.15046294,0.164010853,0.099587984,0.149216786,0.049855787,0.004741931,-0.022657914,-0.249568224,-0.026096703,0.056185555,-0.064854197,0.101843849,0.006874315,dog_man
gl52,-0.090589054,0.035262413,0.024151474,-0.07990063,-0.136194944,-0.021533893,-0.090343192,-0.11479453,0.065888077,-0.11228665,0.249422714,-0.107638754,-0.227737665,-0.094672509,-0.044861779,0.210639536,-0.193384469,-0.196375668,-0.016185585,0.063663438,0.023958096,0.026656637,-0.009620246,0.088976718,-0.126133636,-0.327963293,-0.103285551,-0.085533381,-0.033409603,-0.043936852,-0.053138554,0.025172634,-0.173674628,-0.022781013,0.069988295,0.135312662,0.005444769,-0.106328487,0.138907239,-0.037481532,-0.28197214,0.055023123,0.117743775,0.250892907,0.179086879,-0.006408702,-0.000452019,-0.184033632,0.078011021,-0.172121584,0.067715481,0.122360677,0.085897416,0.059493035,-0.006925743,-0.139931664,0.04014593,0.187312663,-0.163573772,0.016414065,0.070252873,-0.014721926,0.043147657,-0.127911374,0.20960696,0.06115884,-0.140626594,-0.200662345,0.10315828,-0.171366423,-0.115259476,0.081155226,-0.162856594,-0.222223669,-0.354436249,0.017916489,0.333022267,0.12476328,-0.218962073,0.064389594,0.028198117,-0.00272054,0.123247333,0.16830501,0.038854823,-0.009299299,-0.109870076,-0.005654082,0.262465477,-0.078083485,0.015270961,0.196647599,-0.010419277,0.009462736,0.067055404,0.075426869,-0.038651854,0.054519724,-0.163141876,0.031689301,-0.025391035,-0.046829846,-0.022995412,0.106355086,-0.128035381,0.072566904,0.024253393,-0.032379977,0.004248615,-0.001416491,-0.082667626,-0.099981815,0.155834004,-0.247842208,0.215274155,0.174832076,0.117244132,0.126211211,0.125520006,0.112743095,-0.035923216,-0.038262181,-0.188834846,-0.003104628,0.098335296,-0.040484756,0.101523556,0.024132088,dog_man
gl53,-0.077699527,0.036945894,-0.032524385,-0.107185498,-0.13516812,0.03880519,-0.114986137,-0.105587959,0.092610806,-0.109467648,0.234335959,-0.033967145,-0.180680111,-0.135950848,-0.080631964,0.173589632,-0.15899919,-0.189192697,0.03816269,0.004087438,0.071846932,0.034731265,0.01764629,0.050603248,-0.197509184,-0.277876735,-0.082051493,-0.103593215,-0.04757721,-0.059085082,-0.024037432,0.019286128,-0.203600615,0.029004039,0.064911164,0.130172312,-0.009946235,-0.034552619,0.15764074,0.050116882,-0.23654376,0.048004799,0.02854149,0.250276238,0.173656166,0.021993654,0.012604138,-0.18324323,0.127345443,-0.120709106,0.106419109,0.146149337,0.103798375,0.004144915,-0.009584961,-0.065242514,0.038133565,0.197495565,-0.162172407,-0.008232458,0.067487441,-0.031615529,-0.008318766,-0.156546578,0.196478456,0.069020495,-0.110291556,-0.222099662,0.13649331,-0.136829779,-0.168314934,0.096070066,-0.139861271,-0.190168634,-0.325308412,0.015427909,0.30431211,0.139865756,-0.190738007,0.064422905,0.042864244,-0.001196235,0.101676479,0.145742759,-0.009431302,0.025669042,-0.065871671,-0.016899142,0.25452891,-0.062990867,-0.017227376,0.169013187,-0.03401899,0.0496049,0.045068312,0.011379581,-0.058752455,0.082025088,-0.097539082,-0.017960178,-0.027773341,-0.032716449,0.003929674,0.124130405,-0.15619728,0.133519381,-0.048330206,-0.0308639,-0.028310038,-0.036055092,-0.06326212,-0.03808352,0.130549654,-0.248079583,0.215872154,0.137280941,0.127445683,0.116046131,0.150881514,0.077276871,-0.049526442,-0.028227307,-0.254594415,-0.024896152,0.107302025,-0.085693173,0.141669825,0.004726185,dog_man
gl54,-0.060716033,0.080758937,-0.043154061,-0.081318058,-0.113039918,-0.005582572,-0.077083558,-0.085804038,0.180494323,-0.086678408,0.252260536,-0.108037464,-0.202585489,-0.056929544,-0.101420552,0.191726416,-0.259360939,-0.167250425,0.007332238,0.006902552,0.091339938,0.041389715,-0.007004909,0.092026599,-0.148777261,-0.32438913,-0.045617871,-0.128594503,-0.001540245,-0.069628656,-0.003197599,0.06460873,-0.227792203,-0.027637402,0.037849307,0.108435139,0.025172669,-0.061442524,0.197920978,-0.009439086,-0.286332369,0.127135709,0.02752113,0.277555048,0.13497591,0.016283231,-0.056810632,-0.188202798,0.110222258,-0.193300292,0.040468633,0.153532088,0.058334932,-0.002018918,-0.043508112,-0.102643758,0.029591275,0.107559226,-0.207747668,-0.022563409,0.054989774,-0.048012208,0.035662346,-0.123594552,0.196217358,0.052184705,-0.100844771,-0.162961364,0.081326917,-0.167905927,-0.115523957,0.133757696,-0.086966969,-0.21834141,-0.349744707,0.009360238,0.421462595,0.093590647,-0.217683822,0.097447604,0.015659468,-0.044807434,0.15072006,0.159692377,-0.012301468,0.050817356,-0.115319997,0.036329888,0.289969802,-0.07404238,-0.056456227,0.23393093,-0.003589625,0.071441069,0.056854699,0.061582971,-0.0242397,0.019988552,-0.163445711,-0.009521864,0.049997844,0.009287884,-0.077008992,0.101133741,-0.179993093,0.087975346,0.016299909,-0.08113084,-0.010385344,0.000293582,-0.061951231,-0.048294403,0.181903258,-0.26565811,0.215713486,0.144876376,0.115893915,0.149138987,0.112898,0.011934159,-0.053646334,-0.069629349,-0.235039219,-0.048694171,0.140709281,-0.021304499,0.163443103,-0.00550339,dog_man
gl55,-0.111371428,0.066007294,0.035893448,-0.089645959,-0.088473395,-0.026528385,-0.093633763,-0.094982944,0.120659485,-0.151380852,0.213450328,-0.118029386,-0.191835687,-0.073176444,-0.072053336,0.164045542,-0.189560205,-0.143833354,0.000311778,0.0192424,0.124262266,-0.03006863,-0.048611935,0.051863037,-0.077107839,-0.307373405,-0.079521544,-0.005764553,0.026784971,-0.049703185,-0.037031803,0.027132835,-0.21529977,-0.077845961,0.009516156,0.176028952,0.030297607,-0.087082379,0.144095302,-0.019419538,-0.265354276,0.081578635,0.029136918,0.236108243,0.174280167,0.042879667,0.002104254,-0.199771911,0.149421036,-0.187683672,0.048610721,0.171718255,0.092339262,0.050468765,-0.03764696,-0.123725861,0.0588734,0.147072479,-0.160933539,-0.003402504,0.094590202,-0.063397795,0.086355023,-0.103762537,0.162335932,0.063447244,-0.087709114,-0.213664055,0.13160871,-0.142386436,-0.093144141,0.096889436,-0.116239071,-0.188360021,-0.341298521,0.029258903,0.380586833,0.130950093,-0.144052237,0.091500528,-0.061683819,-0.02629213,0.137465924,0.171247765,0.030875575,0.025443252,-0.072913341,0.013617313,0.275675625,-0.049877245,-0.047920089,0.173476294,0.012763523,0.048133329,0.030467384,0.063118733,-0.057585869,0.075819641,-0.135943547,-0.004527295,0.003669092,-0.048180163,-0.005557704,0.113591932,-0.197571054,0.12901479,-0.016389733,0.003857727,0.000269018,-0.030612696,-0.054244675,-0.011504869,0.138494134,-0.257219344,0.208034262,0.197669357,0.119122654,0.145252496,0.157711878,0.087952994,0.033278942,-0.065077342,-0.188341856,-0.041020587,0.058073595,0.017876303,0.121867165,0.036589205,dog_man
gl56,-0.108228028,0.064411312,0.011546198,-0.071971782,-0.116096064,-0.060154311,-0.071691141,-0.132190749,0.090878315,-0.078898057,0.222102284,-0.088560052,-0.173800513,-0.112544701,-0.032040067,0.16299881,-0.196529448,-0.186282769,-0.004497504,0.007280159,0.064568259,-0.028162392,0.013925723,0.091751233,-0.133871838,-0.328651667,-0.056916349,-0.111243881,-0.014358912,-0.071761608,-0.026459128,0.008199018,-0.21629557,-0.02677192,0.047827207,0.153808475,-0.001569703,-0.014164822,0.177329972,0.008221898,-0.279259264,0.095757574,0.047137327,0.270207942,0.210546583,0.043645531,-0.024390323,-0.197361231,0.173532605,-0.146640077,0.096135139,0.141200483,0.075518042,0.009748184,0.006492871,-0.085394129,0.00955349,0.162630484,-0.202896908,0.049007855,0.10498599,-0.047160003,-0.028059701,-0.169553578,0.207568571,0.073964991,-0.154256195,-0.187789723,0.087738238,-0.16871433,-0.143844113,0.127360612,-0.115551047,-0.196868226,-0.36004895,0.020826003,0.362702101,0.116297849,-0.24550806,0.004722609,0.000734095,-0.010291947,0.152633443,0.180993572,0.017625069,0.039603822,-0.098357014,-0.028224505,0.23261413,-0.026657561,-0.045751076,0.207839191,-0.029207824,0.093470246,0.012939323,0.060434062,-0.100007296,0.022633951,-0.20120737,-0.08745221,-0.009111411,0.005973846,-0.032617025,0.094825238,-0.146253467,0.128643677,-7.00499E-05,0.010414949,-0.030559445,-0.021586256,-0.072773352,-0.042922322,0.129880056,-0.260890335,0.23559992,0.167228729,0.134001404,0.082818277,0.140632346,0.011859211,-0.037043273,-0.040786091,-0.221625209,0.003363957,0.101702936,-0.039152782,0.156629995,-0.008563454,dog_man
gl57,-0.091730349,0.070551232,-0.001225438,-0.052687258,-0.075149953,-0.069992363,-0.068521887,-0.120767504,0.108187668,-0.061555058,0.213340446,-0.055927638,-0.197044969,-0.121195637,-0.010080891,0.14110209,-0.207110882,-0.150448367,-0.002509523,0.010347665,0.114354573,-0.046115637,0.009725518,0.061356895,-0.105025351,-0.306051821,-0.049122173,-0.04806095,0.045286976,-0.041759647,-0.025601948,0.048768524,-0.247207046,-0.049916834,0.042151041,0.164557755,0.023787433,-0.060365967,0.169159129,-0.022543915,-0.243206084,0.020422306,-0.004878085,0.237153634,0.184421569,0.02904609,-0.00966334,-0.15604344,0.15635404,-0.169314563,0.049712811,0.170830265,0.065902695,0.04147061,-0.022921149,-0.1105223,0.083691522,0.12458767,-0.197913647,-0.008417852,0.115485922,-0.113848761,0.029782107,-0.129642263,0.218133241,0.047327183,-0.114054784,-0.200146139,0.063485973,-0.141843766,-0.099913836,0.100653961,-0.118491128,-0.177975446,-0.371103972,0.038446497,0.334932387,0.136818185,-0.203668758,0.059367858,-0.034411862,0.005004132,0.183315247,0.150850549,0.011871489,0.056234185,-0.139137834,-0.007224889,0.239935607,-0.049112275,-0.059935167,0.197081402,-0.033550046,0.085933782,0.018403288,0.044243548,-0.067509398,0.058439482,-0.134483308,-0.014338428,0.050614875,-0.016829796,0.006633344,0.121094868,-0.123503879,0.078308098,-0.027781071,0.041607931,4.86593E-05,-0.065454312,-0.103462927,-0.072630666,0.090406172,-0.267330408,0.256189138,0.165114149,0.09665139,0.099622615,0.122864433,0.069747686,-0.030961141,-0.04003875,-0.179224506,-0.009246359,0.107284307,0.009860037,0.133367583,-0.013318093,dog_man
gl58,-0.072251305,0.132266328,0.032590881,-0.075984493,-0.105852343,-0.05176226,-0.047865495,-0.123639293,0.103032216,-0.09938655,0.254072994,-0.084684052,-0.229271457,-0.070537545,-0.041366503,0.236618951,-0.273820192,-0.181689382,-0.043474503,0.008802107,0.026199333,0.019513376,-0.013891351,0.061016057,-0.083545618,-0.30282715,-0.037717767,-0.104437716,0.038418405,-0.048204895,0.000480144,0.000625881,-0.184834629,-0.028375806,0.07266587,0.065521128,-0.020157013,-0.099781945,0.210051671,-0.024526201,-0.2782529,0.110648595,0.058429956,0.270810932,0.194094896,-0.003874354,0.017327683,-0.210216239,0.146862194,-0.177757502,0.012251923,0.155174091,0.025581133,0.033852283,0.005594234,-0.11566487,0.024067851,0.14527607,-0.203625649,0.018811878,0.150053054,-0.026395468,0.029225085,-0.146653771,0.223918706,0.009489441,-0.17225036,-0.169852436,0.089792967,-0.156795785,-0.119768538,0.092199042,-0.129574314,-0.197827309,-0.330119938,0.017587449,0.376309276,0.132432774,-0.168234631,0.074738078,0.02010911,-0.019556748,0.152833506,0.207691461,0.011486219,0.017054616,-0.058049854,0.0197568,0.252550095,-0.03774564,-0.047016606,0.214395434,-0.042499043,0.031665787,0.004945043,0.040331662,-0.057530019,0.005942829,-0.160821289,-0.01009148,-0.012942428,-0.010162575,-0.017770842,0.103978865,-0.107109912,0.09317591,-0.018054498,0.024333492,-0.042324949,-0.008917701,-0.063117415,-0.005043642,0.140286222,-0.236194879,0.279967964,0.162779585,0.106396139,0.058222368,0.138799936,0.010135148,-0.030058537,-0.03783774,-0.208170325,-0.049066562,0.111141369,-0.035570573,0.210735202,-0.021688091,dog_man
gl59,-0.104321569,0.080551878,0.001600016,-0.094115578,-0.163308054,-0.006197211,-0.044973619,-0.117597431,0.089931078,-0.088999964,0.187165067,-0.101438224,-0.225541592,-0.057493694,-0.097141825,0.187961325,-0.220321849,-0.174401268,-0.014775659,0.036433108,0.070460714,0.038344488,0.001342137,0.08973179,-0.130947605,-0.362831831,-0.047919519,-0.107206345,0.020628296,-0.080886148,-0.021547981,-0.0172724,-0.238486499,-0.032344699,0.037622459,0.093017176,-0.011439646,-0.095740795,0.18192853,0.064030729,-0.295336217,0.081992134,0.048039392,0.283516347,0.140159741,-0.004418027,0.028496457,-0.20422107,0.137160644,-0.139922813,0.046167716,0.131801039,0.052852571,0.026309051,-0.043815568,-0.093823314,0.048605122,0.157303527,-0.190794736,0.036815301,0.160297841,-0.028294478,0.014842643,-0.115908854,0.176611543,-0.003193905,-0.089931972,-0.203337759,0.115585238,-0.155521944,-0.115990333,0.066953182,-0.09598811,-0.19175072,-0.291865438,0.038600016,0.357967645,0.171506673,-0.172315255,0.056278069,-0.047177125,-0.003995227,0.146207571,0.167127907,0.02545609,0.066261455,-0.076558627,0.041798882,0.24816291,-0.045563024,0.004020727,0.225510493,0.014830263,0.037628695,0.040024716,0.01270423,-0.131818548,0.08565174,-0.144100115,-0.017051527,0.0053755,-0.006027057,0.034295488,0.107394122,-0.173835188,0.146302849,-0.007982465,-0.042641953,0.000335366,-0.02144843,-0.075685933,-0.04745537,0.128260881,-0.223158076,0.235172823,0.179029062,0.160958782,0.103659831,0.164777935,0.009850116,-0.003871363,-0.032028586,-0.238834426,-0.016964871,0.138303012,-0.054319788,0.142554596,-0.014711756,dog_man
gl60,-0.033659264,0.077794939,-0.008911414,-0.03046716,-0.088498496,-0.016274136,-0.080516644,-0.079599731,0.133938819,-0.036702011,0.187259972,-0.050062563,-0.188303769,-0.085591048,-0.083171688,0.162275419,-0.21729055,-0.176242068,0.016468331,0.061237831,0.100230992,-0.007625985,0.032512516,0.086773686,-0.11308495,-0.30443269,-0.059607033,-0.095755413,0.013754698,-0.026863279,-0.032890148,0.044585232,-0.231787726,-0.051866055,0.061902743,0.142912254,0.016422668,-0.08874622,0.2054829,0.031164629,-0.273596764,0.106296554,0.027753849,0.239721924,0.16988194,0.022406993,-0.004932689,-0.209781632,0.111545973,-0.157097608,0.061331339,0.219334587,0.067883007,0.066184551,-0.04016114,-0.111008018,0.068616226,0.092220098,-0.14075245,-0.041848514,0.076688066,-2.6796E-05,0.053537995,-0.145039961,0.188305244,0.03502069,-0.098660417,-0.188416153,0.107341714,-0.142821446,-0.14857401,0.112546198,-0.122438811,-0.168608084,-0.312141061,0.01011382,0.380784094,0.126560703,-0.217552245,0.089975461,-0.068952292,-0.032278325,0.104962319,0.189687088,0.031554267,0.0607065,-0.084089033,-0.017242815,0.254148811,-0.049985029,-0.030824896,0.190273762,0.024510732,0.094780743,0.057095949,0.034545206,-0.024478287,0.073475383,-0.181357801,-0.019207466,-0.00683023,0.009514309,-0.029129449,0.106629387,-0.169716612,0.080643922,0.032685544,-0.035081588,0.02731064,0.006795257,-0.082864955,-0.054321129,0.141022399,-0.270418912,0.259247661,0.145516157,0.112665154,0.090423249,0.146630257,0.107464261,-0.0389608,-0.072291583,-0.21657066,-0.034797575,0.09304174,-0.006161262,0.095425054,0.006795529,dog_man
gl61,-0.007597648,0.090132885,-0.023731727,-0.097909719,-0.110046007,-0.032378461,-0.069304571,-0.15393357,0.139980271,-0.089079328,0.217079356,-0.061598655,-0.199421987,-0.093350649,-0.054147553,0.193450823,-0.210053906,-0.231607422,-0.037883896,-0.005605824,0.035848986,0.029744428,-0.004087356,0.071337454,-0.133163482,-0.308838964,-0.027877592,-0.065706879,-0.039531328,-0.064732268,-0.019750791,0.094722174,-0.215578854,0.00518127,0.096920371,0.153258502,0.020702271,-0.03615807,0.162667453,0.037831318,-0.268248916,0.126463294,0.032499488,0.232353985,0.139183715,0.017864898,0.004799027,-0.222191557,0.141907856,-0.171594635,0.044834934,0.184477255,0.074283995,0.018250726,-0.067207366,-0.149074599,0.009141685,0.138671935,-0.188272595,-0.014067128,0.110968135,-0.079391986,-0.037002705,-0.177360296,0.172284275,0.069669031,-0.131378815,-0.204016402,0.060928911,-0.157682762,-0.163117781,0.078555547,-0.128226563,-0.185918823,-0.338250995,0.011016598,0.369771034,0.128351361,-0.216316327,0.044281784,-0.022666309,0.032768168,0.068612158,0.12970604,-0.028765712,0.050570104,-0.105372153,-0.001377524,0.261689454,-0.048440147,-0.041634012,0.175550565,-0.02727684,0.134922206,-0.013078755,0.008465659,-0.063812457,0.037529279,-0.159087837,-0.038983397,-0.073714815,0.009730457,-0.0282664,0.113098741,-0.163427666,0.145943433,-0.014770805,-0.038856443,-0.024645407,0.042176057,-0.025524363,-0.079382986,0.129514784,-0.244932935,0.234489217,0.205782816,0.166710407,0.126924545,0.12345399,0.059989382,-0.059700534,-0.02602696,-0.230770975,-0.040359855,0.108692512,-0.023817228,0.123996787,-0.002329373,dog_man
gl62,-0.057096314,0.066000387,0.019934447,-0.064914182,-0.135792598,-0.006680188,-0.090011522,-0.10959731,0.099458218,-0.08308325,0.220163509,-0.07796827,-0.202646956,-0.130473211,-0.060489036,0.173798099,-0.176320881,-0.236131206,-0.016609985,0.017735954,0.035293981,0.003855954,0.048720356,0.058482476,-0.13143082,-0.356345206,-0.027890816,-0.121296197,0.036697008,-0.05102139,-0.021286529,0.011543209,-0.214596376,-0.014185881,0.043526724,0.130610526,-0.012029321,-0.084283955,0.227918759,0.009363424,-0.266881555,0.033722933,0.01263634,0.251997769,0.147833914,0.044252887,0.014444245,-0.166571394,0.120449036,-0.169858366,0.089575253,0.190976262,0.062407557,0.052965,-0.019451339,-0.115363635,0.053171985,0.179572552,-0.175157368,0.021807732,0.064041227,-0.030648669,0.026515625,-0.18013671,0.226538688,0.000181795,-0.117246091,-0.149598181,0.098883316,-0.125819445,-0.138254121,0.088498808,-0.12702927,-0.188835368,-0.328027874,0.016321249,0.338321298,0.151852876,-0.216735974,0.018382432,-0.027154181,-0.016608678,0.099209338,0.12093088,0.022316402,-0.007565837,-0.109061323,-0.058284245,0.250812322,-0.067298718,-0.021724261,0.177508235,-0.019629467,0.06487833,-0.003459447,0.039443087,-0.074464962,0.089380361,-0.131279171,-0.003871131,-0.011228197,-0.025178753,-0.023547912,0.070890151,-0.178875759,0.108721823,0.017145675,-0.029113438,0.008019948,-0.007314156,-0.097242177,-0.080189988,0.168124735,-0.262724102,0.274018854,0.227122292,0.164810404,0.152093723,0.156834766,0.061596803,-0.042014897,-0.054445013,-0.218510851,-0.065030396,0.098846138,-0.025549768,0.098289482,0.048893947,dog_man
